AdaBoostM1: Base classifiers and their weights: 

J48 pruned tree
------------------

alcohol <= 10.8
|   volacid <= 0.24
|   |   alcohol <= 8.8
|   |   |   freesulfur <= 36
|   |   |   |   fixedacid <= 7.1: 5 (1.0)
|   |   |   |   fixedacid > 7.1: 7 (8.0)
|   |   |   freesulfur > 36
|   |   |   |   pH <= 2.95: 8 (6.0)
|   |   |   |   pH > 2.95
|   |   |   |   |   chlorides <= 0.051
|   |   |   |   |   |   totalsulfur <= 131: 6 (4.0)
|   |   |   |   |   |   totalsulfur > 131: 5 (6.0)
|   |   |   |   |   chlorides > 0.051
|   |   |   |   |   |   freesulfur <= 44: 8 (1.0)
|   |   |   |   |   |   freesulfur > 44: 6 (5.0)
|   |   alcohol > 8.8
|   |   |   freesulfur <= 15.5
|   |   |   |   freesulfur <= 13
|   |   |   |   |   volacid <= 0.16: 6 (2.0)
|   |   |   |   |   volacid > 0.16
|   |   |   |   |   |   pH <= 2.97: 6 (2.0)
|   |   |   |   |   |   pH > 2.97: 5 (9.0)
|   |   |   |   freesulfur > 13
|   |   |   |   |   alcohol <= 10.3
|   |   |   |   |   |   freesulfur <= 14: 6 (3.0)
|   |   |   |   |   |   freesulfur > 14: 3 (1.0)
|   |   |   |   |   alcohol > 10.3: 8 (3.0)
|   |   |   freesulfur > 15.5
|   |   |   |   fixedacid <= 7.8
|   |   |   |   |   sulphates <= 0.36
|   |   |   |   |   |   citricacid <= 0.44
|   |   |   |   |   |   |   alcohol <= 10.6
|   |   |   |   |   |   |   |   sulphates <= 0.3: 5 (1.0)
|   |   |   |   |   |   |   |   sulphates > 0.3: 6 (13.0/2.0)
|   |   |   |   |   |   |   alcohol > 10.6: 5 (3.0)
|   |   |   |   |   |   citricacid > 0.44: 4 (3.0/2.0)
|   |   |   |   |   sulphates > 0.36
|   |   |   |   |   |   citricacid <= 0.22
|   |   |   |   |   |   |   fixedacid <= 6.9
|   |   |   |   |   |   |   |   freesulfur <= 24: 5 (2.0)
|   |   |   |   |   |   |   |   freesulfur > 24
|   |   |   |   |   |   |   |   |   freesulfur <= 42: 6 (15.0)
|   |   |   |   |   |   |   |   |   freesulfur > 42: 5 (3.0/1.0)
|   |   |   |   |   |   |   fixedacid > 6.9: 5 (2.0)
|   |   |   |   |   |   citricacid > 0.22
|   |   |   |   |   |   |   density <= 0.99383
|   |   |   |   |   |   |   |   residualsugar <= 5.95
|   |   |   |   |   |   |   |   |   freesulfur <= 51
|   |   |   |   |   |   |   |   |   |   volacid <= 0.16
|   |   |   |   |   |   |   |   |   |   |   sulphates <= 0.45: 8 (1.0)
|   |   |   |   |   |   |   |   |   |   |   sulphates > 0.45: 6 (8.0)
|   |   |   |   |   |   |   |   |   |   volacid > 0.16
|   |   |   |   |   |   |   |   |   |   |   citricacid <= 0.36
|   |   |   |   |   |   |   |   |   |   |   |   volacid <= 0.19
|   |   |   |   |   |   |   |   |   |   |   |   |   freesulfur <= 20
|   |   |   |   |   |   |   |   |   |   |   |   |   |   fixedacid <= 7.15: 6 (3.0)
|   |   |   |   |   |   |   |   |   |   |   |   |   |   fixedacid > 7.15: 7 (1.0)
|   |   |   |   |   |   |   |   |   |   |   |   |   freesulfur > 20: 7 (7.0)
|   |   |   |   |   |   |   |   |   |   |   |   volacid > 0.19: 6 (16.0/3.0)
|   |   |   |   |   |   |   |   |   |   |   citricacid > 0.36
|   |   |   |   |   |   |   |   |   |   |   |   totalsulfur <= 89: 5 (3.0)
|   |   |   |   |   |   |   |   |   |   |   |   totalsulfur > 89
|   |   |   |   |   |   |   |   |   |   |   |   |   fixedacid <= 7.2
|   |   |   |   |   |   |   |   |   |   |   |   |   |   fixedacid <= 5.4: 5 (1.0)
|   |   |   |   |   |   |   |   |   |   |   |   |   |   fixedacid > 5.4: 6 (8.0/1.0)
|   |   |   |   |   |   |   |   |   |   |   |   |   fixedacid > 7.2
|   |   |   |   |   |   |   |   |   |   |   |   |   |   citricacid <= 0.41: 5 (1.0)
|   |   |   |   |   |   |   |   |   |   |   |   |   |   citricacid > 0.41: 7 (3.0)
|   |   |   |   |   |   |   |   |   freesulfur > 51: 7 (6.0)
|   |   |   |   |   |   |   |   residualsugar > 5.95
|   |   |   |   |   |   |   |   |   volacid <= 0.19: 7 (3.0)
|   |   |   |   |   |   |   |   |   volacid > 0.19: 5 (3.0)
|   |   |   |   |   |   |   density > 0.99383
|   |   |   |   |   |   |   |   pH <= 2.98
|   |   |   |   |   |   |   |   |   density <= 0.99787
|   |   |   |   |   |   |   |   |   |   fixedacid <= 6.3: 5 (2.0)
|   |   |   |   |   |   |   |   |   |   fixedacid > 6.3
|   |   |   |   |   |   |   |   |   |   |   fixedacid <= 7.2: 6 (5.0)
|   |   |   |   |   |   |   |   |   |   |   fixedacid > 7.2: 5 (1.0)
|   |   |   |   |   |   |   |   |   density > 0.99787: 7 (7.0)
|   |   |   |   |   |   |   |   pH > 2.98
|   |   |   |   |   |   |   |   |   sulphates <= 0.57
|   |   |   |   |   |   |   |   |   |   volacid <= 0.235
|   |   |   |   |   |   |   |   |   |   |   residualsugar <= 4.5
|   |   |   |   |   |   |   |   |   |   |   |   volacid <= 0.21
|   |   |   |   |   |   |   |   |   |   |   |   |   density <= 0.99422: 6 (2.0)
|   |   |   |   |   |   |   |   |   |   |   |   |   density > 0.99422: 5 (7.0)
|   |   |   |   |   |   |   |   |   |   |   |   volacid > 0.21: 6 (2.0)
|   |   |   |   |   |   |   |   |   |   |   residualsugar > 4.5: 6 (68.0/18.0)
|   |   |   |   |   |   |   |   |   |   volacid > 0.235
|   |   |   |   |   |   |   |   |   |   |   pH <= 3.11
|   |   |   |   |   |   |   |   |   |   |   |   residualsugar <= 8.5: 5 (1.0)
|   |   |   |   |   |   |   |   |   |   |   |   residualsugar > 8.5: 6 (5.0)
|   |   |   |   |   |   |   |   |   |   |   pH > 3.11: 5 (12.0/3.0)
|   |   |   |   |   |   |   |   |   sulphates > 0.57: 6 (27.0/4.0)
|   |   |   |   fixedacid > 7.8
|   |   |   |   |   freesulfur <= 38
|   |   |   |   |   |   chlorides <= 0.036: 6 (3.0)
|   |   |   |   |   |   chlorides > 0.036
|   |   |   |   |   |   |   pH <= 3.07
|   |   |   |   |   |   |   |   alcohol <= 10.3: 5 (6.0)
|   |   |   |   |   |   |   |   alcohol > 10.3: 4 (1.0)
|   |   |   |   |   |   |   pH > 3.07
|   |   |   |   |   |   |   |   residualsugar <= 5: 4 (3.0)
|   |   |   |   |   |   |   |   residualsugar > 5: 6 (1.0)
|   |   |   |   |   freesulfur > 38: 6 (19.0/2.0)
|   volacid > 0.24
|   |   pH <= 3.31
|   |   |   freesulfur <= 15.5
|   |   |   |   freesulfur <= 8
|   |   |   |   |   volacid <= 0.315
|   |   |   |   |   |   pH <= 3.13: 5 (3.0)
|   |   |   |   |   |   pH > 3.13: 4 (2.0)
|   |   |   |   |   volacid > 0.315
|   |   |   |   |   |   volacid <= 0.37: 6 (1.0)
|   |   |   |   |   |   volacid > 0.37: 4 (4.0)
|   |   |   |   freesulfur > 8
|   |   |   |   |   totalsulfur <= 73
|   |   |   |   |   |   citricacid <= 0.32: 5 (3.0/1.0)
|   |   |   |   |   |   citricacid > 0.32: 6 (4.0)
|   |   |   |   |   totalsulfur > 73: 5 (32.0/5.0)
|   |   |   freesulfur > 15.5
|   |   |   |   volacid <= 0.3
|   |   |   |   |   sulphates <= 0.7
|   |   |   |   |   |   citricacid <= 0.24
|   |   |   |   |   |   |   chlorides <= 0.067
|   |   |   |   |   |   |   |   alcohol <= 10.6
|   |   |   |   |   |   |   |   |   sulphates <= 0.53
|   |   |   |   |   |   |   |   |   |   freesulfur <= 61: 5 (15.0)
|   |   |   |   |   |   |   |   |   |   freesulfur > 61: 6 (3.0/1.0)
|   |   |   |   |   |   |   |   |   sulphates > 0.53: 6 (3.0)
|   |   |   |   |   |   |   |   alcohol > 10.6: 4 (1.0)
|   |   |   |   |   |   |   chlorides > 0.067: 3 (2.0/1.0)
|   |   |   |   |   |   citricacid > 0.24
|   |   |   |   |   |   |   chlorides <= 0.048: 6 (79.0/29.0)
|   |   |   |   |   |   |   chlorides > 0.048
|   |   |   |   |   |   |   |   density <= 0.99835
|   |   |   |   |   |   |   |   |   chlorides <= 0.049: 6 (4.0/2.0)
|   |   |   |   |   |   |   |   |   chlorides > 0.049
|   |   |   |   |   |   |   |   |   |   totalsulfur <= 121: 6 (5.0)
|   |   |   |   |   |   |   |   |   |   totalsulfur > 121: 5 (30.0/7.0)
|   |   |   |   |   |   |   |   density > 0.99835
|   |   |   |   |   |   |   |   |   volacid <= 0.28: 7 (4.0)
|   |   |   |   |   |   |   |   |   volacid > 0.28: 5 (2.0/1.0)
|   |   |   |   |   sulphates > 0.7
|   |   |   |   |   |   pH <= 3.29: 7 (3.0)
|   |   |   |   |   |   pH > 3.29: 6 (1.0)
|   |   |   |   volacid > 0.3
|   |   |   |   |   alcohol <= 9.7
|   |   |   |   |   |   residualsugar <= 18: 5 (117.0/27.0)
|   |   |   |   |   |   residualsugar > 18: 6 (1.0)
|   |   |   |   |   alcohol > 9.7
|   |   |   |   |   |   density <= 0.9955: 5 (40.0/12.0)
|   |   |   |   |   |   density > 0.9955
|   |   |   |   |   |   |   alcohol <= 10.133333: 6 (7.0)
|   |   |   |   |   |   |   alcohol > 10.133333
|   |   |   |   |   |   |   |   density <= 0.9961: 6 (5.0)
|   |   |   |   |   |   |   |   density > 0.9961
|   |   |   |   |   |   |   |   |   citricacid <= 0.33: 6 (5.0/1.0)
|   |   |   |   |   |   |   |   |   citricacid > 0.33: 5 (5.0)
|   |   pH > 3.31
|   |   |   density <= 0.99338
|   |   |   |   residualsugar <= 2.4: 6 (7.0/1.0)
|   |   |   |   residualsugar > 2.4: 7 (5.0)
|   |   |   density > 0.99338
|   |   |   |   pH <= 3.52
|   |   |   |   |   freesulfur <= 26
|   |   |   |   |   |   density <= 0.99449: 5 (4.0)
|   |   |   |   |   |   density > 0.99449
|   |   |   |   |   |   |   citricacid <= 0.36
|   |   |   |   |   |   |   |   fixedacid <= 6.2: 6 (1.0)
|   |   |   |   |   |   |   |   fixedacid > 6.2: 4 (6.0)
|   |   |   |   |   |   |   citricacid > 0.36
|   |   |   |   |   |   |   |   fixedacid <= 8: 6 (3.0)
|   |   |   |   |   |   |   |   fixedacid > 8: 5 (1.0)
|   |   |   |   |   freesulfur > 26
|   |   |   |   |   |   chlorides <= 0.039
|   |   |   |   |   |   |   volacid <= 0.27
|   |   |   |   |   |   |   |   alcohol <= 10.15: 6 (3.0)
|   |   |   |   |   |   |   |   alcohol > 10.15: 7 (1.0)
|   |   |   |   |   |   |   volacid > 0.27: 7 (1.0)
|   |   |   |   |   |   chlorides > 0.039
|   |   |   |   |   |   |   fixedacid <= 7.3
|   |   |   |   |   |   |   |   freesulfur <= 34: 6 (3.0)
|   |   |   |   |   |   |   |   freesulfur > 34
|   |   |   |   |   |   |   |   |   residualsugar <= 10.3: 5 (6.0)
|   |   |   |   |   |   |   |   |   residualsugar > 10.3
|   |   |   |   |   |   |   |   |   |   sulphates <= 0.42: 5 (3.0)
|   |   |   |   |   |   |   |   |   |   sulphates > 0.42: 6 (5.0)
|   |   |   |   |   |   |   fixedacid > 7.3: 6 (9.0)
|   |   |   |   pH > 3.52
|   |   |   |   |   volacid <= 0.25: 5 (3.0/1.0)
|   |   |   |   |   volacid > 0.25: 4 (2.0)
alcohol > 10.8
|   freesulfur <= 10
|   |   residualsugar <= 4.4
|   |   |   volacid <= 0.285: 6 (14.0/4.0)
|   |   |   volacid > 0.285
|   |   |   |   alcohol <= 11.7: 4 (5.0)
|   |   |   |   alcohol > 11.7
|   |   |   |   |   residualsugar <= 1.05: 4 (1.0)
|   |   |   |   |   residualsugar > 1.05: 6 (4.0)
|   |   residualsugar > 4.4
|   |   |   chlorides <= 0.029: 3 (2.0/1.0)
|   |   |   chlorides > 0.029: 5 (6.0/2.0)
|   freesulfur > 10
|   |   fixedacid <= 8.1
|   |   |   alcohol <= 12.05
|   |   |   |   pH <= 3.03: 6 (19.0/2.0)
|   |   |   |   pH > 3.03
|   |   |   |   |   residualsugar <= 0.9: 5 (3.0/1.0)
|   |   |   |   |   residualsugar > 0.9
|   |   |   |   |   |   fixedacid <= 5.8
|   |   |   |   |   |   |   sulphates <= 0.8
|   |   |   |   |   |   |   |   sulphates <= 0.43
|   |   |   |   |   |   |   |   |   density <= 0.99144: 7 (3.0)
|   |   |   |   |   |   |   |   |   density > 0.99144: 6 (3.0)
|   |   |   |   |   |   |   |   sulphates > 0.43: 6 (13.0)
|   |   |   |   |   |   |   sulphates > 0.8: 8 (2.0)
|   |   |   |   |   |   fixedacid > 5.8
|   |   |   |   |   |   |   residualsugar <= 6.3
|   |   |   |   |   |   |   |   sulphates <= 0.57
|   |   |   |   |   |   |   |   |   pH <= 3.41
|   |   |   |   |   |   |   |   |   |   residualsugar <= 5.15
|   |   |   |   |   |   |   |   |   |   |   fixedacid <= 7.6
|   |   |   |   |   |   |   |   |   |   |   |   citricacid <= 0.12: 5 (1.0)
|   |   |   |   |   |   |   |   |   |   |   |   citricacid > 0.12: 6 (84.0/30.0)
|   |   |   |   |   |   |   |   |   |   |   fixedacid > 7.6
|   |   |   |   |   |   |   |   |   |   |   |   fixedacid <= 7.9: 5 (6.0/1.0)
|   |   |   |   |   |   |   |   |   |   |   |   fixedacid > 7.9: 6 (1.0)
|   |   |   |   |   |   |   |   |   |   residualsugar > 5.15
|   |   |   |   |   |   |   |   |   |   |   density <= 0.99293: 7 (8.0/1.0)
|   |   |   |   |   |   |   |   |   |   |   density > 0.99293: 5 (2.0)
|   |   |   |   |   |   |   |   |   pH > 3.41: 5 (3.0)
|   |   |   |   |   |   |   |   sulphates > 0.57
|   |   |   |   |   |   |   |   |   freesulfur <= 40
|   |   |   |   |   |   |   |   |   |   volacid <= 0.225
|   |   |   |   |   |   |   |   |   |   |   pH <= 3.33
|   |   |   |   |   |   |   |   |   |   |   |   volacid <= 0.16
|   |   |   |   |   |   |   |   |   |   |   |   |   volacid <= 0.14
|   |   |   |   |   |   |   |   |   |   |   |   |   |   citricacid <= 0.38: 6 (4.0)
|   |   |   |   |   |   |   |   |   |   |   |   |   |   citricacid > 0.38: 7 (1.0)
|   |   |   |   |   |   |   |   |   |   |   |   |   volacid > 0.14: 7 (2.0)
|   |   |   |   |   |   |   |   |   |   |   |   volacid > 0.16
|   |   |   |   |   |   |   |   |   |   |   |   |   citricacid <= 0.31: 6 (3.0)
|   |   |   |   |   |   |   |   |   |   |   |   |   citricacid > 0.31: 5 (3.0)
|   |   |   |   |   |   |   |   |   |   |   pH > 3.33: 8 (3.0/1.0)
|   |   |   |   |   |   |   |   |   |   volacid > 0.225
|   |   |   |   |   |   |   |   |   |   |   sulphates <= 0.63: 6 (3.0/1.0)
|   |   |   |   |   |   |   |   |   |   |   sulphates > 0.63: 7 (7.0)
|   |   |   |   |   |   |   |   |   freesulfur > 40: 7 (10.0)
|   |   |   |   |   |   |   residualsugar > 6.3
|   |   |   |   |   |   |   |   volacid <= 0.185: 7 (4.0)
|   |   |   |   |   |   |   |   volacid > 0.185: 6 (37.0/15.0)
|   |   |   alcohol > 12.05
|   |   |   |   freesulfur <= 55
|   |   |   |   |   pH <= 3.4
|   |   |   |   |   |   freesulfur <= 18
|   |   |   |   |   |   |   pH <= 3.16: 4 (3.0/2.0)
|   |   |   |   |   |   |   pH > 3.16: 6 (17.0/7.0)
|   |   |   |   |   |   freesulfur > 18
|   |   |   |   |   |   |   density <= 0.99355
|   |   |   |   |   |   |   |   sulphates <= 0.33
|   |   |   |   |   |   |   |   |   totalsulfur <= 154
|   |   |   |   |   |   |   |   |   |   freesulfur <= 23: 8 (4.0)
|   |   |   |   |   |   |   |   |   |   freesulfur > 23
|   |   |   |   |   |   |   |   |   |   |   volacid <= 0.4: 6 (9.0)
|   |   |   |   |   |   |   |   |   |   |   volacid > 0.4: 8 (2.0)
|   |   |   |   |   |   |   |   |   totalsulfur > 154: 7 (1.0)
|   |   |   |   |   |   |   |   sulphates > 0.33
|   |   |   |   |   |   |   |   |   chlorides <= 0.046
|   |   |   |   |   |   |   |   |   |   alcohol <= 12.1
|   |   |   |   |   |   |   |   |   |   |   pH <= 3.31: 7 (7.0)
|   |   |   |   |   |   |   |   |   |   |   pH > 3.31: 8 (1.0)
|   |   |   |   |   |   |   |   |   |   alcohol > 12.1
|   |   |   |   |   |   |   |   |   |   |   totalsulfur <= 155
|   |   |   |   |   |   |   |   |   |   |   |   sulphates <= 0.62
|   |   |   |   |   |   |   |   |   |   |   |   |   totalsulfur <= 132
|   |   |   |   |   |   |   |   |   |   |   |   |   |   chlorides <= 0.021: 7 (5.0)
|   |   |   |   |   |   |   |   |   |   |   |   |   |   chlorides > 0.021
|   |   |   |   |   |   |   |   |   |   |   |   |   |   |   residualsugar <= 2.3: 6 (33.0/12.0)
|   |   |   |   |   |   |   |   |   |   |   |   |   |   |   residualsugar > 2.3
|   |   |   |   |   |   |   |   |   |   |   |   |   |   |   |   chlorides <= 0.034
|   |   |   |   |   |   |   |   |   |   |   |   |   |   |   |   |   totalsulfur <= 94: 6 (8.0)
|   |   |   |   |   |   |   |   |   |   |   |   |   |   |   |   |   totalsulfur > 94
|   |   |   |   |   |   |   |   |   |   |   |   |   |   |   |   |   |   pH <= 3.24
|   |   |   |   |   |   |   |   |   |   |   |   |   |   |   |   |   |   |   sulphates <= 0.58
|   |   |   |   |   |   |   |   |   |   |   |   |   |   |   |   |   |   |   |   volacid <= 0.245: 8 (3.0/1.0)
|   |   |   |   |   |   |   |   |   |   |   |   |   |   |   |   |   |   |   |   volacid > 0.245: 7 (7.0)
|   |   |   |   |   |   |   |   |   |   |   |   |   |   |   |   |   |   |   sulphates > 0.58: 8 (2.0)
|   |   |   |   |   |   |   |   |   |   |   |   |   |   |   |   |   |   pH > 3.24
|   |   |   |   |   |   |   |   |   |   |   |   |   |   |   |   |   |   |   volacid <= 0.3: 6 (3.0)
|   |   |   |   |   |   |   |   |   |   |   |   |   |   |   |   |   |   |   volacid > 0.3: 8 (1.0)
|   |   |   |   |   |   |   |   |   |   |   |   |   |   |   |   chlorides > 0.034
|   |   |   |   |   |   |   |   |   |   |   |   |   |   |   |   |   citricacid <= 0.23: 6 (2.0/1.0)
|   |   |   |   |   |   |   |   |   |   |   |   |   |   |   |   |   citricacid > 0.23: 7 (10.0)
|   |   |   |   |   |   |   |   |   |   |   |   |   totalsulfur > 132: 7 (10.0)
|   |   |   |   |   |   |   |   |   |   |   |   sulphates > 0.62
|   |   |   |   |   |   |   |   |   |   |   |   |   totalsulfur <= 129.5: 7 (14.0)
|   |   |   |   |   |   |   |   |   |   |   |   |   totalsulfur > 129.5: 8 (2.0)
|   |   |   |   |   |   |   |   |   |   |   totalsulfur > 155: 6 (6.0)
|   |   |   |   |   |   |   |   |   chlorides > 0.046
|   |   |   |   |   |   |   |   |   |   volacid <= 0.255: 8 (2.0)
|   |   |   |   |   |   |   |   |   |   volacid > 0.255: 6 (4.0)
|   |   |   |   |   |   |   density > 0.99355: 8 (3.0)
|   |   |   |   |   pH > 3.4
|   |   |   |   |   |   pH <= 3.51
|   |   |   |   |   |   |   density <= 0.99094: 7 (4.0/2.0)
|   |   |   |   |   |   |   density > 0.99094: 6 (2.0)
|   |   |   |   |   |   pH > 3.51
|   |   |   |   |   |   |   fixedacid <= 5.5: 8 (3.0)
|   |   |   |   |   |   |   fixedacid > 5.5: 5 (1.0)
|   |   |   |   freesulfur > 55
|   |   |   |   |   pH <= 3.22: 8 (3.0)
|   |   |   |   |   pH > 3.22: 5 (1.0)
|   |   fixedacid > 8.1
|   |   |   alcohol <= 11.55
|   |   |   |   freesulfur <= 31
|   |   |   |   |   residualsugar <= 5.8
|   |   |   |   |   |   volacid <= 0.285
|   |   |   |   |   |   |   volacid <= 0.21: 6 (1.0)
|   |   |   |   |   |   |   volacid > 0.21: 5 (3.0)
|   |   |   |   |   |   volacid > 0.285: 4 (3.0/1.0)
|   |   |   |   |   residualsugar > 5.8: 7 (3.0/1.0)
|   |   |   |   freesulfur > 31
|   |   |   |   |   fixedacid <= 9.1: 7 (3.0)
|   |   |   |   |   fixedacid > 9.1: 3 (1.0)
|   |   |   alcohol > 11.55
|   |   |   |   alcohol <= 12.75
|   |   |   |   |   volacid <= 0.3: 6 (9.0)
|   |   |   |   |   volacid > 0.3: 5 (4.0/2.0)
|   |   |   |   alcohol > 12.75
|   |   |   |   |   citricacid <= 0.27: 6 (1.0)
|   |   |   |   |   citricacid > 0.27: 7 (3.0)

Number of Leaves  : 	168

Size of the tree : 	335


Weight: 1.57

J48 pruned tree
------------------

alcohol <= 10.3
|   pH <= 3.44
|   |   totalsulfur <= 88
|   |   |   volacid <= 0.19: 6 (3.63)
|   |   |   volacid > 0.19
|   |   |   |   sulphates <= 0.38
|   |   |   |   |   alcohol <= 9.4: 5 (1.81)
|   |   |   |   |   alcohol > 9.4: 4 (9.9/0.6)
|   |   |   |   sulphates > 0.38: 5 (8.34/0.6)
|   |   totalsulfur > 88
|   |   |   volacid <= 0.205
|   |   |   |   residualsugar <= 10.2
|   |   |   |   |   density <= 0.99366
|   |   |   |   |   |   sulphates <= 0.57
|   |   |   |   |   |   |   chlorides <= 0.039
|   |   |   |   |   |   |   |   volacid <= 0.155: 6 (1.81)
|   |   |   |   |   |   |   |   volacid > 0.155: 5 (4.71/0.6)
|   |   |   |   |   |   |   chlorides > 0.039: 6 (6.65/1.21)
|   |   |   |   |   |   sulphates > 0.57: 7 (3.63)
|   |   |   |   |   density > 0.99366
|   |   |   |   |   |   fixedacid <= 8.7
|   |   |   |   |   |   |   citricacid <= 0.29: 6 (18.0/3.02)
|   |   |   |   |   |   |   citricacid > 0.29
|   |   |   |   |   |   |   |   freesulfur <= 29: 6 (6.65/0.6)
|   |   |   |   |   |   |   |   freesulfur > 29
|   |   |   |   |   |   |   |   |   freesulfur <= 45
|   |   |   |   |   |   |   |   |   |   pH <= 3.38: 5 (12.19)
|   |   |   |   |   |   |   |   |   |   pH > 3.38: 6 (1.81/0.6)
|   |   |   |   |   |   |   |   |   freesulfur > 45
|   |   |   |   |   |   |   |   |   |   fixedacid <= 6.6: 5 (1.21)
|   |   |   |   |   |   |   |   |   |   fixedacid > 6.6: 6 (4.23)
|   |   |   |   |   |   fixedacid > 8.7: 4 (2.42/1.21)
|   |   |   |   residualsugar > 10.2
|   |   |   |   |   freesulfur <= 33
|   |   |   |   |   |   fixedacid <= 6.9: 6 (2.42/0.6)
|   |   |   |   |   |   fixedacid > 6.9: 7 (9.54)
|   |   |   |   |   freesulfur > 33
|   |   |   |   |   |   citricacid <= 0.31
|   |   |   |   |   |   |   fixedacid <= 6.6: 6 (1.81)
|   |   |   |   |   |   |   fixedacid > 6.6: 8 (10.02/0.6)
|   |   |   |   |   |   citricacid > 0.31: 6 (7.86/1.21)
|   |   |   volacid > 0.205
|   |   |   |   alcohol <= 10.133333
|   |   |   |   |   density <= 0.99858
|   |   |   |   |   |   density <= 0.99835
|   |   |   |   |   |   |   freesulfur <= 39
|   |   |   |   |   |   |   |   fixedacid <= 8.8
|   |   |   |   |   |   |   |   |   citricacid <= 0.5
|   |   |   |   |   |   |   |   |   |   freesulfur <= 24
|   |   |   |   |   |   |   |   |   |   |   citricacid <= 0.15
|   |   |   |   |   |   |   |   |   |   |   |   volacid <= 0.555: 6 (3.5)
|   |   |   |   |   |   |   |   |   |   |   |   volacid > 0.555: 4 (1.21)
|   |   |   |   |   |   |   |   |   |   |   citricacid > 0.15
|   |   |   |   |   |   |   |   |   |   |   |   citricacid <= 0.48: 5 (53.03/20.17)
|   |   |   |   |   |   |   |   |   |   |   |   citricacid > 0.48: 6 (4.11)
|   |   |   |   |   |   |   |   |   |   freesulfur > 24
|   |   |   |   |   |   |   |   |   |   |   alcohol <= 9
|   |   |   |   |   |   |   |   |   |   |   |   pH <= 3.07: 6 (3.63)
|   |   |   |   |   |   |   |   |   |   |   |   pH > 3.07: 5 (7.73/0.6)
|   |   |   |   |   |   |   |   |   |   |   alcohol > 9: 6 (76.69/15.71)
|   |   |   |   |   |   |   |   |   citricacid > 0.5
|   |   |   |   |   |   |   |   |   |   chlorides <= 0.119
|   |   |   |   |   |   |   |   |   |   |   sulphates <= 0.51: 5 (7.73)
|   |   |   |   |   |   |   |   |   |   |   sulphates > 0.51: 4 (2.9)
|   |   |   |   |   |   |   |   |   |   chlorides > 0.119: 6 (3.5)
|   |   |   |   |   |   |   |   fixedacid > 8.8: 5 (5.92/0.6)
|   |   |   |   |   |   |   freesulfur > 39
|   |   |   |   |   |   |   |   residualsugar <= 14.1
|   |   |   |   |   |   |   |   |   volacid <= 0.21: 5 (7.61/0.6)
|   |   |   |   |   |   |   |   |   volacid > 0.21
|   |   |   |   |   |   |   |   |   |   citricacid <= 0.27
|   |   |   |   |   |   |   |   |   |   |   fixedacid <= 5.7: 4 (5.79/2.9)
|   |   |   |   |   |   |   |   |   |   |   fixedacid > 5.7
|   |   |   |   |   |   |   |   |   |   |   |   totalsulfur <= 230: 5 (45.91/6.04)
|   |   |   |   |   |   |   |   |   |   |   |   totalsulfur > 230: 6 (3.5/0.6)
|   |   |   |   |   |   |   |   |   |   citricacid > 0.27
|   |   |   |   |   |   |   |   |   |   |   citricacid <= 0.4
|   |   |   |   |   |   |   |   |   |   |   |   alcohol <= 9.7
|   |   |   |   |   |   |   |   |   |   |   |   |   fixedacid <= 6.7
|   |   |   |   |   |   |   |   |   |   |   |   |   |   density <= 0.99527
|   |   |   |   |   |   |   |   |   |   |   |   |   |   |   chlorides <= 0.047: 6 (10.5)
|   |   |   |   |   |   |   |   |   |   |   |   |   |   |   chlorides > 0.047: 5 (1.81/0.6)
|   |   |   |   |   |   |   |   |   |   |   |   |   |   density > 0.99527
|   |   |   |   |   |   |   |   |   |   |   |   |   |   |   residualsugar <= 9.4: 5 (8.81)
|   |   |   |   |   |   |   |   |   |   |   |   |   |   |   residualsugar > 9.4: 6 (5.92/1.21)
|   |   |   |   |   |   |   |   |   |   |   |   |   fixedacid > 6.7
|   |   |   |   |   |   |   |   |   |   |   |   |   |   volacid <= 0.43: 6 (33.32/2.42)
|   |   |   |   |   |   |   |   |   |   |   |   |   |   volacid > 0.43: 5 (1.21)
|   |   |   |   |   |   |   |   |   |   |   |   alcohol > 9.7
|   |   |   |   |   |   |   |   |   |   |   |   |   totalsulfur <= 162: 6 (1.81)
|   |   |   |   |   |   |   |   |   |   |   |   |   totalsulfur > 162: 5 (14.61/1.21)
|   |   |   |   |   |   |   |   |   |   |   citricacid > 0.4
|   |   |   |   |   |   |   |   |   |   |   |   fixedacid <= 6.8
|   |   |   |   |   |   |   |   |   |   |   |   |   pH <= 3.2: 5 (27.05/1.81)
|   |   |   |   |   |   |   |   |   |   |   |   |   pH > 3.2: 6 (4.23/1.21)
|   |   |   |   |   |   |   |   |   |   |   |   fixedacid > 6.8
|   |   |   |   |   |   |   |   |   |   |   |   |   density <= 0.9976
|   |   |   |   |   |   |   |   |   |   |   |   |   |   freesulfur <= 48: 5 (2.42/0.6)
|   |   |   |   |   |   |   |   |   |   |   |   |   |   freesulfur > 48: 6 (8.21)
|   |   |   |   |   |   |   |   |   |   |   |   |   density > 0.9976: 5 (5.31)
|   |   |   |   |   |   |   |   residualsugar > 14.1
|   |   |   |   |   |   |   |   |   chlorides <= 0.057: 5 (8.21)
|   |   |   |   |   |   |   |   |   chlorides > 0.057: 7 (1.81/0.6)
|   |   |   |   |   |   density > 0.99835
|   |   |   |   |   |   |   freesulfur <= 30: 4 (5.79)
|   |   |   |   |   |   |   freesulfur > 30: 6 (9.42/1.21)
|   |   |   |   |   density > 0.99858
|   |   |   |   |   |   residualsugar <= 14.75
|   |   |   |   |   |   |   volacid <= 0.36
|   |   |   |   |   |   |   |   density <= 0.9995
|   |   |   |   |   |   |   |   |   density <= 0.9986
|   |   |   |   |   |   |   |   |   |   freesulfur <= 38: 7 (2.42)
|   |   |   |   |   |   |   |   |   |   freesulfur > 38: 6 (1.21)
|   |   |   |   |   |   |   |   |   density > 0.9986: 6 (7.73/0.6)
|   |   |   |   |   |   |   |   density > 0.9995: 7 (5.31/0.6)
|   |   |   |   |   |   |   volacid > 0.36: 5 (1.81)
|   |   |   |   |   |   residualsugar > 14.75
|   |   |   |   |   |   |   totalsulfur <= 135: 6 (5.92/0.6)
|   |   |   |   |   |   |   totalsulfur > 135
|   |   |   |   |   |   |   |   fixedacid <= 6.3: 6 (4.11/0.6)
|   |   |   |   |   |   |   |   fixedacid > 6.3
|   |   |   |   |   |   |   |   |   pH <= 3.3: 5 (22.46/1.81)
|   |   |   |   |   |   |   |   |   pH > 3.3: 6 (1.81)
|   |   |   |   alcohol > 10.133333
|   |   |   |   |   citricacid <= 0.39
|   |   |   |   |   |   chlorides <= 0.044: 6 (7.13/0.6)
|   |   |   |   |   |   chlorides > 0.044
|   |   |   |   |   |   |   sulphates <= 0.43: 6 (1.81)
|   |   |   |   |   |   |   sulphates > 0.43: 5 (14.13/1.21)
|   |   |   |   |   citricacid > 0.39
|   |   |   |   |   |   pH <= 3.16
|   |   |   |   |   |   |   freesulfur <= 28: 6 (1.21)
|   |   |   |   |   |   |   freesulfur > 28: 7 (5.79)
|   |   |   |   |   |   pH > 3.16: 5 (1.81/0.6)
|   pH > 3.44
|   |   freesulfur <= 85
|   |   |   fixedacid <= 6.4
|   |   |   |   citricacid <= 0.2: 4 (1.21)
|   |   |   |   citricacid > 0.2: 6 (6.65)
|   |   |   fixedacid > 6.4
|   |   |   |   citricacid <= 0.35
|   |   |   |   |   residualsugar <= 12.4
|   |   |   |   |   |   fixedacid <= 7.5: 7 (10.5/0.6)
|   |   |   |   |   |   fixedacid > 7.5: 4 (1.21/0.6)
|   |   |   |   |   residualsugar > 12.4: 5 (1.21)
|   |   |   |   citricacid > 0.35
|   |   |   |   |   volacid <= 0.2: 5 (1.21)
|   |   |   |   |   volacid > 0.2: 6 (3.02/0.6)
|   |   freesulfur > 85: 3 (3.5/0.6)
alcohol > 10.3
|   freesulfur <= 10
|   |   volacid <= 0.51
|   |   |   freesulfur <= 7
|   |   |   |   totalsulfur <= 47: 6 (6.52/1.21)
|   |   |   |   totalsulfur > 47
|   |   |   |   |   totalsulfur <= 118
|   |   |   |   |   |   citricacid <= 0.38
|   |   |   |   |   |   |   residualsugar <= 1.85: 4 (5.92)
|   |   |   |   |   |   |   residualsugar > 1.85: 5 (3.5)
|   |   |   |   |   |   citricacid > 0.38: 5 (7.0)
|   |   |   |   |   totalsulfur > 118: 6 (2.42/0.6)
|   |   |   freesulfur > 7: 6 (11.96/2.42)
|   |   volacid > 0.51: 8 (2.9)
|   freesulfur > 10
|   |   residualsugar <= 1.2
|   |   |   volacid <= 0.58
|   |   |   |   alcohol <= 11.9
|   |   |   |   |   residualsugar <= 0.7
|   |   |   |   |   |   fixedacid <= 7.4: 3 (2.9)
|   |   |   |   |   |   fixedacid > 7.4: 5 (1.21)
|   |   |   |   |   residualsugar > 0.7
|   |   |   |   |   |   sulphates <= 0.7
|   |   |   |   |   |   |   volacid <= 0.24
|   |   |   |   |   |   |   |   residualsugar <= 1.15: 6 (13.9/3.63)
|   |   |   |   |   |   |   |   residualsugar > 1.15
|   |   |   |   |   |   |   |   |   citricacid <= 0.36: 6 (2.42)
|   |   |   |   |   |   |   |   |   citricacid > 0.36
|   |   |   |   |   |   |   |   |   |   citricacid <= 0.44: 5 (7.0/0.6)
|   |   |   |   |   |   |   |   |   |   citricacid > 0.44: 6 (1.21)
|   |   |   |   |   |   |   volacid > 0.24
|   |   |   |   |   |   |   |   freesulfur <= 37: 5 (14.61/0.6)
|   |   |   |   |   |   |   |   freesulfur > 37: 6 (2.42/0.6)
|   |   |   |   |   |   sulphates > 0.7: 7 (1.81)
|   |   |   |   alcohol > 11.9
|   |   |   |   |   freesulfur <= 18: 3 (3.5/0.6)
|   |   |   |   |   freesulfur > 18
|   |   |   |   |   |   alcohol <= 13: 6 (11.48/1.21)
|   |   |   |   |   |   alcohol > 13: 7 (3.5)
|   |   |   volacid > 0.58: 8 (3.5/0.6)
|   |   residualsugar > 1.2
|   |   |   residualsugar <= 11.2
|   |   |   |   fixedacid <= 5.4
|   |   |   |   |   alcohol <= 11.7: 6 (1.81)
|   |   |   |   |   alcohol > 11.7: 8 (10.75/3.63)
|   |   |   |   fixedacid > 5.4
|   |   |   |   |   density <= 0.99162
|   |   |   |   |   |   fixedacid <= 5.5: 5 (2.9)
|   |   |   |   |   |   fixedacid > 5.5
|   |   |   |   |   |   |   totalsulfur <= 158
|   |   |   |   |   |   |   |   chlorides <= 0.042: 7 (165.69/45.07)
|   |   |   |   |   |   |   |   chlorides > 0.042
|   |   |   |   |   |   |   |   |   freesulfur <= 19
|   |   |   |   |   |   |   |   |   |   residualsugar <= 1.7: 5 (2.9)
|   |   |   |   |   |   |   |   |   |   residualsugar > 1.7: 6 (1.21)
|   |   |   |   |   |   |   |   |   freesulfur > 19
|   |   |   |   |   |   |   |   |   |   freesulfur <= 30
|   |   |   |   |   |   |   |   |   |   |   fixedacid <= 6.9
|   |   |   |   |   |   |   |   |   |   |   |   chlorides <= 0.058
|   |   |   |   |   |   |   |   |   |   |   |   |   fixedacid <= 5.9: 6 (3.63/2.42)
|   |   |   |   |   |   |   |   |   |   |   |   |   fixedacid > 5.9: 7 (14.48)
|   |   |   |   |   |   |   |   |   |   |   |   chlorides > 0.058: 6 (1.81/0.6)
|   |   |   |   |   |   |   |   |   |   |   fixedacid > 6.9: 6 (3.02)
|   |   |   |   |   |   |   |   |   |   freesulfur > 30: 6 (10.15/1.81)
|   |   |   |   |   |   |   totalsulfur > 158: 6 (8.46/1.21)
|   |   |   |   |   density > 0.99162
|   |   |   |   |   |   totalsulfur <= 91
|   |   |   |   |   |   |   residualsugar <= 9.9
|   |   |   |   |   |   |   |   volacid <= 0.24: 6 (3.02/0.6)
|   |   |   |   |   |   |   |   volacid > 0.24: 5 (14.13/1.81)
|   |   |   |   |   |   |   residualsugar > 9.9: 6 (2.42/1.21)
|   |   |   |   |   |   totalsulfur > 91
|   |   |   |   |   |   |   sulphates <= 0.34
|   |   |   |   |   |   |   |   fixedacid <= 7.7
|   |   |   |   |   |   |   |   |   sulphates <= 0.32: 6 (6.04/1.21)
|   |   |   |   |   |   |   |   |   sulphates > 0.32
|   |   |   |   |   |   |   |   |   |   totalsulfur <= 121: 6 (1.21)
|   |   |   |   |   |   |   |   |   |   totalsulfur > 121: 8 (12.8/0.6)
|   |   |   |   |   |   |   |   fixedacid > 7.7: 7 (4.71/0.6)
|   |   |   |   |   |   |   sulphates > 0.34
|   |   |   |   |   |   |   |   residualsugar <= 1.55
|   |   |   |   |   |   |   |   |   totalsulfur <= 115
|   |   |   |   |   |   |   |   |   |   citricacid <= 0.26: 7 (1.81)
|   |   |   |   |   |   |   |   |   |   citricacid > 0.26: 6 (3.63/1.21)
|   |   |   |   |   |   |   |   |   totalsulfur > 115
|   |   |   |   |   |   |   |   |   |   fixedacid <= 7.3: 5 (11.71)
|   |   |   |   |   |   |   |   |   |   fixedacid > 7.3: 7 (1.81/0.6)
|   |   |   |   |   |   |   |   residualsugar > 1.55
|   |   |   |   |   |   |   |   |   residualsugar <= 9.05
|   |   |   |   |   |   |   |   |   |   residualsugar <= 1.7
|   |   |   |   |   |   |   |   |   |   |   density <= 0.99172: 8 (3.5/0.6)
|   |   |   |   |   |   |   |   |   |   |   density > 0.99172
|   |   |   |   |   |   |   |   |   |   |   |   alcohol <= 11.1
|   |   |   |   |   |   |   |   |   |   |   |   |   volacid <= 0.315
|   |   |   |   |   |   |   |   |   |   |   |   |   |   density <= 0.99354: 7 (19.19/0.6)
|   |   |   |   |   |   |   |   |   |   |   |   |   |   density > 0.99354: 5 (1.21)
|   |   |   |   |   |   |   |   |   |   |   |   |   volacid > 0.315: 4 (1.81/1.21)
|   |   |   |   |   |   |   |   |   |   |   |   alcohol > 11.1: 6 (1.81)
|   |   |   |   |   |   |   |   |   |   residualsugar > 1.7
|   |   |   |   |   |   |   |   |   |   |   alcohol <= 10.4
|   |   |   |   |   |   |   |   |   |   |   |   totalsulfur <= 109: 8 (2.42)
|   |   |   |   |   |   |   |   |   |   |   |   totalsulfur > 109: 6 (11.84/1.21)
|   |   |   |   |   |   |   |   |   |   |   alcohol > 10.4
|   |   |   |   |   |   |   |   |   |   |   |   residualsugar <= 2
|   |   |   |   |   |   |   |   |   |   |   |   |   residualsugar <= 1.95
|   |   |   |   |   |   |   |   |   |   |   |   |   |   volacid <= 0.235: 6 (2.42)
|   |   |   |   |   |   |   |   |   |   |   |   |   |   volacid > 0.235
|   |   |   |   |   |   |   |   |   |   |   |   |   |   |   sulphates <= 0.47: 5 (6.4)
|   |   |   |   |   |   |   |   |   |   |   |   |   |   |   sulphates > 0.47: 6 (2.42/0.6)
|   |   |   |   |   |   |   |   |   |   |   |   |   residualsugar > 1.95: 5 (1.81/0.6)
|   |   |   |   |   |   |   |   |   |   |   |   residualsugar > 2
|   |   |   |   |   |   |   |   |   |   |   |   |   residualsugar <= 8.6
|   |   |   |   |   |   |   |   |   |   |   |   |   |   fixedacid <= 6.4
|   |   |   |   |   |   |   |   |   |   |   |   |   |   |   totalsulfur <= 146: 6 (11.96)
|   |   |   |   |   |   |   |   |   |   |   |   |   |   |   totalsulfur > 146
|   |   |   |   |   |   |   |   |   |   |   |   |   |   |   |   citricacid <= 0.29: 7 (4.83/0.6)
|   |   |   |   |   |   |   |   |   |   |   |   |   |   |   |   citricacid > 0.29: 6 (1.81)
|   |   |   |   |   |   |   |   |   |   |   |   |   |   fixedacid > 6.4
|   |   |   |   |   |   |   |   |   |   |   |   |   |   |   fixedacid <= 8
|   |   |   |   |   |   |   |   |   |   |   |   |   |   |   |   totalsulfur <= 162
|   |   |   |   |   |   |   |   |   |   |   |   |   |   |   |   |   sulphates <= 0.58
|   |   |   |   |   |   |   |   |   |   |   |   |   |   |   |   |   |   fixedacid <= 7.7
|   |   |   |   |   |   |   |   |   |   |   |   |   |   |   |   |   |   |   citricacid <= 0.27: 5 (5.31/1.21)
|   |   |   |   |   |   |   |   |   |   |   |   |   |   |   |   |   |   |   citricacid > 0.27
|   |   |   |   |   |   |   |   |   |   |   |   |   |   |   |   |   |   |   |   fixedacid <= 6.6: 5 (1.21)
|   |   |   |   |   |   |   |   |   |   |   |   |   |   |   |   |   |   |   |   fixedacid > 6.6: 7 (24.76/4.23)
|   |   |   |   |   |   |   |   |   |   |   |   |   |   |   |   |   |   fixedacid > 7.7: 8 (4.11/1.21)
|   |   |   |   |   |   |   |   |   |   |   |   |   |   |   |   |   sulphates > 0.58
|   |   |   |   |   |   |   |   |   |   |   |   |   |   |   |   |   |   totalsulfur <= 118: 8 (8.81/1.21)
|   |   |   |   |   |   |   |   |   |   |   |   |   |   |   |   |   |   totalsulfur > 118
|   |   |   |   |   |   |   |   |   |   |   |   |   |   |   |   |   |   |   chlorides <= 0.035: 7 (4.23/1.81)
|   |   |   |   |   |   |   |   |   |   |   |   |   |   |   |   |   |   |   chlorides > 0.035: 6 (3.63/0.6)
|   |   |   |   |   |   |   |   |   |   |   |   |   |   |   |   totalsulfur > 162
|   |   |   |   |   |   |   |   |   |   |   |   |   |   |   |   |   volacid <= 0.2: 7 (1.21)
|   |   |   |   |   |   |   |   |   |   |   |   |   |   |   |   |   volacid > 0.2
|   |   |   |   |   |   |   |   |   |   |   |   |   |   |   |   |   |   citricacid <= 0.29: 5 (2.9)
|   |   |   |   |   |   |   |   |   |   |   |   |   |   |   |   |   |   citricacid > 0.29: 6 (7.13/0.6)
|   |   |   |   |   |   |   |   |   |   |   |   |   |   |   fixedacid > 8: 6 (11.84/1.81)
|   |   |   |   |   |   |   |   |   |   |   |   |   residualsugar > 8.6
|   |   |   |   |   |   |   |   |   |   |   |   |   |   alcohol <= 10.9: 5 (7.61)
|   |   |   |   |   |   |   |   |   |   |   |   |   |   alcohol > 10.9
|   |   |   |   |   |   |   |   |   |   |   |   |   |   |   citricacid <= 0.41: 7 (7.0)
|   |   |   |   |   |   |   |   |   |   |   |   |   |   |   citricacid > 0.41: 6 (1.21/0.6)
|   |   |   |   |   |   |   |   |   residualsugar > 9.05
|   |   |   |   |   |   |   |   |   |   totalsulfur <= 169
|   |   |   |   |   |   |   |   |   |   |   citricacid <= 0.21: 5 (1.21/0.6)
|   |   |   |   |   |   |   |   |   |   |   citricacid > 0.21: 7 (24.51/3.02)
|   |   |   |   |   |   |   |   |   |   totalsulfur > 169: 6 (2.42/0.6)
|   |   |   residualsugar > 11.2
|   |   |   |   freesulfur <= 17: 4 (4.11/1.21)
|   |   |   |   freesulfur > 17
|   |   |   |   |   density <= 0.9952
|   |   |   |   |   |   citricacid <= 0.28: 6 (2.42/0.6)
|   |   |   |   |   |   citricacid > 0.28
|   |   |   |   |   |   |   totalsulfur <= 152: 8 (7.61/0.6)
|   |   |   |   |   |   |   totalsulfur > 152: 6 (1.21)
|   |   |   |   |   density > 0.9952: 6 (11.36/0.6)

Number of Leaves  : 	154

Size of the tree : 	307


Weight: 1.78

J48 pruned tree
------------------

alcohol <= 10.8
|   freesulfur <= 17
|   |   fixedacid <= 10.3
|   |   |   freesulfur <= 8
|   |   |   |   citricacid <= 0.2: 6 (2.44/0.35)
|   |   |   |   citricacid > 0.2
|   |   |   |   |   chlorides <= 0.044: 5 (3.85/0.71)
|   |   |   |   |   chlorides > 0.044: 4 (8.7/0.35)
|   |   |   freesulfur > 8
|   |   |   |   totalsulfur <= 134
|   |   |   |   |   sulphates <= 0.47
|   |   |   |   |   |   density <= 0.99449
|   |   |   |   |   |   |   volacid <= 0.185: 8 (1.06/0.35)
|   |   |   |   |   |   |   volacid > 0.185: 5 (13.36/1.41)
|   |   |   |   |   |   density > 0.99449
|   |   |   |   |   |   |   fixedacid <= 8.1: 4 (10.27/1.06)
|   |   |   |   |   |   |   fixedacid > 8.1: 5 (3.5)
|   |   |   |   |   sulphates > 0.47
|   |   |   |   |   |   alcohol <= 9.9: 5 (3.18/0.35)
|   |   |   |   |   |   alcohol > 9.9: 6 (15.38/2.12)
|   |   |   |   totalsulfur > 134
|   |   |   |   |   density <= 0.9929: 5 (1.06/0.35)
|   |   |   |   |   density > 0.9929: 6 (21.41/1.06)
|   |   fixedacid > 10.3: 3 (2.09)
|   freesulfur > 17
|   |   pH <= 3.44
|   |   |   volacid <= 0.235
|   |   |   |   sulphates <= 0.36
|   |   |   |   |   fixedacid <= 5.8: 8 (1.69)
|   |   |   |   |   fixedacid > 5.8
|   |   |   |   |   |   density <= 0.99194: 4 (2.44/0.35)
|   |   |   |   |   |   density > 0.99194
|   |   |   |   |   |   |   residualsugar <= 1.4: 6 (3.15)
|   |   |   |   |   |   |   residualsugar > 1.4
|   |   |   |   |   |   |   |   volacid <= 0.155: 4 (3.15/1.06)
|   |   |   |   |   |   |   |   volacid > 0.155
|   |   |   |   |   |   |   |   |   totalsulfur <= 152: 5 (12.75/0.71)
|   |   |   |   |   |   |   |   |   totalsulfur > 152: 6 (1.77/0.35)
|   |   |   |   sulphates > 0.36
|   |   |   |   |   density <= 0.99366
|   |   |   |   |   |   pH <= 3.32
|   |   |   |   |   |   |   citricacid <= 0.3
|   |   |   |   |   |   |   |   alcohol <= 10.4: 6 (5.62)
|   |   |   |   |   |   |   |   alcohol > 10.4
|   |   |   |   |   |   |   |   |   pH <= 3.17: 7 (2.4/0.35)
|   |   |   |   |   |   |   |   |   pH > 3.17: 6 (1.41/0.35)
|   |   |   |   |   |   |   citricacid > 0.3
|   |   |   |   |   |   |   |   chlorides <= 0.043: 6 (4.95/2.12)
|   |   |   |   |   |   |   |   chlorides > 0.043: 7 (12.86/1.41)
|   |   |   |   |   |   pH > 3.32: 8 (3.11/1.41)
|   |   |   |   |   density > 0.99366
|   |   |   |   |   |   alcohol <= 9.1
|   |   |   |   |   |   |   chlorides <= 0.052
|   |   |   |   |   |   |   |   fixedacid <= 6.9
|   |   |   |   |   |   |   |   |   totalsulfur <= 131: 6 (3.18)
|   |   |   |   |   |   |   |   |   totalsulfur > 131: 5 (5.55/0.35)
|   |   |   |   |   |   |   |   fixedacid > 6.9
|   |   |   |   |   |   |   |   |   density <= 0.99786: 5 (2.79)
|   |   |   |   |   |   |   |   |   density > 0.99786: 7 (5.93/0.71)
|   |   |   |   |   |   |   chlorides > 0.052
|   |   |   |   |   |   |   |   residualsugar <= 14.6
|   |   |   |   |   |   |   |   |   residualsugar <= 13.8: 7 (2.12/1.06)
|   |   |   |   |   |   |   |   |   residualsugar > 13.8: 8 (6.61/0.71)
|   |   |   |   |   |   |   |   residualsugar > 14.6: 6 (1.41)
|   |   |   |   |   |   alcohol > 9.1
|   |   |   |   |   |   |   sulphates <= 0.38
|   |   |   |   |   |   |   |   chlorides <= 0.041
|   |   |   |   |   |   |   |   |   fixedacid <= 7: 8 (1.69)
|   |   |   |   |   |   |   |   |   fixedacid > 7: 7 (2.05/0.35)
|   |   |   |   |   |   |   |   chlorides > 0.041: 6 (5.58)
|   |   |   |   |   |   |   sulphates > 0.38
|   |   |   |   |   |   |   |   volacid <= 0.175
|   |   |   |   |   |   |   |   |   totalsulfur <= 146: 5 (21.48/3.89)
|   |   |   |   |   |   |   |   |   totalsulfur > 146: 6 (2.83)
|   |   |   |   |   |   |   |   volacid > 0.175
|   |   |   |   |   |   |   |   |   chlorides <= 0.042: 6 (16.08/0.71)
|   |   |   |   |   |   |   |   |   chlorides > 0.042
|   |   |   |   |   |   |   |   |   |   freesulfur <= 23: 5 (7.87/0.35)
|   |   |   |   |   |   |   |   |   |   freesulfur > 23
|   |   |   |   |   |   |   |   |   |   |   residualsugar <= 7.8
|   |   |   |   |   |   |   |   |   |   |   |   alcohol <= 10.3
|   |   |   |   |   |   |   |   |   |   |   |   |   freesulfur <= 36
|   |   |   |   |   |   |   |   |   |   |   |   |   |   fixedacid <= 8: 6 (4.21)
|   |   |   |   |   |   |   |   |   |   |   |   |   |   fixedacid > 8: 5 (2.44)
|   |   |   |   |   |   |   |   |   |   |   |   |   freesulfur > 36: 5 (13.7/0.71)
|   |   |   |   |   |   |   |   |   |   |   |   alcohol > 10.3: 6 (4.53)
|   |   |   |   |   |   |   |   |   |   |   residualsugar > 7.8
|   |   |   |   |   |   |   |   |   |   |   |   residualsugar <= 12.7
|   |   |   |   |   |   |   |   |   |   |   |   |   alcohol <= 10.3
|   |   |   |   |   |   |   |   |   |   |   |   |   |   volacid <= 0.185: 7 (2.4/0.71)
|   |   |   |   |   |   |   |   |   |   |   |   |   |   volacid > 0.185: 6 (12.55)
|   |   |   |   |   |   |   |   |   |   |   |   |   alcohol > 10.3: 7 (1.69)
|   |   |   |   |   |   |   |   |   |   |   |   residualsugar > 12.7
|   |   |   |   |   |   |   |   |   |   |   |   |   volacid <= 0.225: 6 (3.15)
|   |   |   |   |   |   |   |   |   |   |   |   |   volacid > 0.225: 5 (3.74/0.35)
|   |   |   volacid > 0.235
|   |   |   |   fixedacid <= 8.4
|   |   |   |   |   alcohol <= 10.133333
|   |   |   |   |   |   freesulfur <= 22
|   |   |   |   |   |   |   density <= 0.9972: 6 (35.66/2.83)
|   |   |   |   |   |   |   density > 0.9972
|   |   |   |   |   |   |   |   residualsugar <= 13.4: 4 (3.74)
|   |   |   |   |   |   |   |   residualsugar > 13.4: 5 (1.41/0.35)
|   |   |   |   |   |   freesulfur > 22
|   |   |   |   |   |   |   chlorides <= 0.031
|   |   |   |   |   |   |   |   citricacid <= 0.28: 7 (2.09)
|   |   |   |   |   |   |   |   citricacid > 0.28
|   |   |   |   |   |   |   |   |   fixedacid <= 7: 5 (1.69)
|   |   |   |   |   |   |   |   |   fixedacid > 7: 6 (1.69)
|   |   |   |   |   |   |   chlorides > 0.031
|   |   |   |   |   |   |   |   volacid <= 0.295
|   |   |   |   |   |   |   |   |   fixedacid <= 7.7
|   |   |   |   |   |   |   |   |   |   fixedacid <= 7
|   |   |   |   |   |   |   |   |   |   |   alcohol <= 9.3: 5 (25.42/5.55)
|   |   |   |   |   |   |   |   |   |   |   alcohol > 9.3
|   |   |   |   |   |   |   |   |   |   |   |   pH <= 3.11: 6 (10.71)
|   |   |   |   |   |   |   |   |   |   |   |   pH > 3.11
|   |   |   |   |   |   |   |   |   |   |   |   |   volacid <= 0.275
|   |   |   |   |   |   |   |   |   |   |   |   |   |   pH <= 3.15: 5 (5.19/0.35)
|   |   |   |   |   |   |   |   |   |   |   |   |   |   pH > 3.15
|   |   |   |   |   |   |   |   |   |   |   |   |   |   |   chlorides <= 0.037: 5 (4.45/0.71)
|   |   |   |   |   |   |   |   |   |   |   |   |   |   |   chlorides > 0.037
|   |   |   |   |   |   |   |   |   |   |   |   |   |   |   |   citricacid <= 0.43: 6 (32.86/1.41)
|   |   |   |   |   |   |   |   |   |   |   |   |   |   |   |   citricacid > 0.43: 5 (5.79/2.05)
|   |   |   |   |   |   |   |   |   |   |   |   |   volacid > 0.275: 5 (4.45/0.71)
|   |   |   |   |   |   |   |   |   |   fixedacid > 7
|   |   |   |   |   |   |   |   |   |   |   alcohol <= 9
|   |   |   |   |   |   |   |   |   |   |   |   freesulfur <= 36: 7 (1.06/0.35)
|   |   |   |   |   |   |   |   |   |   |   |   freesulfur > 36: 6 (6.93)
|   |   |   |   |   |   |   |   |   |   |   alcohol > 9
|   |   |   |   |   |   |   |   |   |   |   |   residualsugar <= 13.8: 5 (15.97/2.12)
|   |   |   |   |   |   |   |   |   |   |   |   residualsugar > 13.8: 7 (1.41/0.35)
|   |   |   |   |   |   |   |   |   fixedacid > 7.7: 6 (9.44/0.35)
|   |   |   |   |   |   |   |   volacid > 0.295
|   |   |   |   |   |   |   |   |   chlorides <= 0.054
|   |   |   |   |   |   |   |   |   |   freesulfur <= 51.5
|   |   |   |   |   |   |   |   |   |   |   sulphates <= 0.36: 6 (5.08)
|   |   |   |   |   |   |   |   |   |   |   sulphates > 0.36
|   |   |   |   |   |   |   |   |   |   |   |   volacid <= 0.4
|   |   |   |   |   |   |   |   |   |   |   |   |   volacid <= 0.335
|   |   |   |   |   |   |   |   |   |   |   |   |   |   totalsulfur <= 148
|   |   |   |   |   |   |   |   |   |   |   |   |   |   |   citricacid <= 0.22: 6 (3.39)
|   |   |   |   |   |   |   |   |   |   |   |   |   |   |   citricacid > 0.22
|   |   |   |   |   |   |   |   |   |   |   |   |   |   |   |   volacid <= 0.3: 6 (2.4)
|   |   |   |   |   |   |   |   |   |   |   |   |   |   |   |   volacid > 0.3: 5 (7.32/0.35)
|   |   |   |   |   |   |   |   |   |   |   |   |   |   totalsulfur > 148: 5 (21.45/1.41)
|   |   |   |   |   |   |   |   |   |   |   |   |   volacid > 0.335
|   |   |   |   |   |   |   |   |   |   |   |   |   |   alcohol <= 9.8
|   |   |   |   |   |   |   |   |   |   |   |   |   |   |   totalsulfur <= 206: 5 (7.35/0.35)
|   |   |   |   |   |   |   |   |   |   |   |   |   |   |   totalsulfur > 206: 6 (4.09/0.35)
|   |   |   |   |   |   |   |   |   |   |   |   |   |   alcohol > 9.8: 6 (9.53/0.71)
|   |   |   |   |   |   |   |   |   |   |   |   volacid > 0.4: 5 (11.17/0.35)
|   |   |   |   |   |   |   |   |   |   freesulfur > 51.5
|   |   |   |   |   |   |   |   |   |   |   fixedacid <= 7.6
|   |   |   |   |   |   |   |   |   |   |   |   chlorides <= 0.041
|   |   |   |   |   |   |   |   |   |   |   |   |   fixedacid <= 6.3: 6 (1.69)
|   |   |   |   |   |   |   |   |   |   |   |   |   fixedacid > 6.3: 5 (4.84)
|   |   |   |   |   |   |   |   |   |   |   |   chlorides > 0.041: 6 (30.9/5.65)
|   |   |   |   |   |   |   |   |   |   |   fixedacid > 7.6: 5 (3.15)
|   |   |   |   |   |   |   |   |   chlorides > 0.054
|   |   |   |   |   |   |   |   |   |   residualsugar <= 1.45: 6 (9.21/4.13)
|   |   |   |   |   |   |   |   |   |   residualsugar > 1.45: 5 (39.06/2.05)
|   |   |   |   |   alcohol > 10.133333
|   |   |   |   |   |   citricacid <= 0.4
|   |   |   |   |   |   |   pH <= 3.34
|   |   |   |   |   |   |   |   fixedacid <= 7.15: 6 (14.16/4.56)
|   |   |   |   |   |   |   |   fixedacid > 7.15
|   |   |   |   |   |   |   |   |   volacid <= 0.245: 6 (2.79)
|   |   |   |   |   |   |   |   |   volacid > 0.245: 5 (18.61/2.12)
|   |   |   |   |   |   |   pH > 3.34: 7 (4.87/1.77)
|   |   |   |   |   |   citricacid > 0.4
|   |   |   |   |   |   |   alcohol <= 10.5: 7 (7.48/0.71)
|   |   |   |   |   |   |   alcohol > 10.5: 6 (5.55/0.71)
|   |   |   |   fixedacid > 8.4
|   |   |   |   |   citricacid <= 0.27: 3 (2.09)
|   |   |   |   |   citricacid > 0.27
|   |   |   |   |   |   sulphates <= 0.54: 6 (2.12)
|   |   |   |   |   |   sulphates > 0.54: 5 (4.49)
|   |   pH > 3.44
|   |   |   freesulfur <= 85
|   |   |   |   pH <= 3.61
|   |   |   |   |   residualsugar <= 1.35: 6 (4.56)
|   |   |   |   |   residualsugar > 1.35
|   |   |   |   |   |   volacid <= 0.265
|   |   |   |   |   |   |   fixedacid <= 7.4
|   |   |   |   |   |   |   |   sulphates <= 0.41: 5 (2.44)
|   |   |   |   |   |   |   |   sulphates > 0.41: 7 (14.47/3.89)
|   |   |   |   |   |   |   fixedacid > 7.4: 5 (2.79/0.35)
|   |   |   |   |   |   volacid > 0.265
|   |   |   |   |   |   |   citricacid <= 0.24: 4 (1.06/0.35)
|   |   |   |   |   |   |   citricacid > 0.24: 6 (3.15)
|   |   |   |   pH > 3.61: 4 (2.44/0.35)
|   |   |   freesulfur > 85
|   |   |   |   fixedacid <= 6.4: 4 (2.09)
|   |   |   |   fixedacid > 6.4: 3 (1.69)
alcohol > 10.8
|   chlorides <= 0.021
|   |   pH <= 3.4
|   |   |   density <= 0.98882: 5 (3.78)
|   |   |   density > 0.98882
|   |   |   |   citricacid <= 0.32
|   |   |   |   |   alcohol <= 12.25
|   |   |   |   |   |   citricacid <= 0.27: 7 (1.69)
|   |   |   |   |   |   citricacid > 0.27: 6 (3.15)
|   |   |   |   |   alcohol > 12.25: 7 (5.55)
|   |   |   |   citricacid > 0.32: 6 (8.34)
|   |   pH > 3.4: 9 (10.0)
|   chlorides > 0.021
|   |   freesulfur <= 10
|   |   |   alcohol <= 12.3
|   |   |   |   chlorides <= 0.033: 4 (7.99/1.41)
|   |   |   |   chlorides > 0.033
|   |   |   |   |   residualsugar <= 7.9
|   |   |   |   |   |   residualsugar <= 1.2: 6 (1.77/0.71)
|   |   |   |   |   |   residualsugar > 1.2: 5 (9.33/1.41)
|   |   |   |   |   residualsugar > 7.9: 6 (3.39)
|   |   |   alcohol > 12.3
|   |   |   |   volacid <= 0.46: 3 (2.79/0.71)
|   |   |   |   volacid > 0.46: 8 (1.69)
|   |   freesulfur > 10
|   |   |   sulphates <= 0.26: 8 (6.26)
|   |   |   sulphates > 0.26
|   |   |   |   fixedacid <= 7.8
|   |   |   |   |   pH <= 3.36
|   |   |   |   |   |   volacid <= 0.45
|   |   |   |   |   |   |   volacid <= 0.125
|   |   |   |   |   |   |   |   fixedacid <= 6: 8 (4.17)
|   |   |   |   |   |   |   |   fixedacid > 6: 7 (6.22/0.35)
|   |   |   |   |   |   |   volacid > 0.125
|   |   |   |   |   |   |   |   sulphates <= 0.34
|   |   |   |   |   |   |   |   |   density <= 0.9929: 6 (25.06/3.81)
|   |   |   |   |   |   |   |   |   density > 0.9929
|   |   |   |   |   |   |   |   |   |   sulphates <= 0.3: 6 (1.06)
|   |   |   |   |   |   |   |   |   |   sulphates > 0.3: 8 (7.13/0.35)
|   |   |   |   |   |   |   |   sulphates > 0.34
|   |   |   |   |   |   |   |   |   chlorides <= 0.027
|   |   |   |   |   |   |   |   |   |   density <= 0.98953
|   |   |   |   |   |   |   |   |   |   |   residualsugar <= 3.5: 7 (5.79/0.35)
|   |   |   |   |   |   |   |   |   |   |   residualsugar > 3.5: 6 (2.09)
|   |   |   |   |   |   |   |   |   |   density > 0.98953: 6 (23.93/0.71)
|   |   |   |   |   |   |   |   |   chlorides > 0.027
|   |   |   |   |   |   |   |   |   |   alcohol <= 12.05
|   |   |   |   |   |   |   |   |   |   |   fixedacid <= 5.8: 6 (8.73/0.35)
|   |   |   |   |   |   |   |   |   |   |   fixedacid > 5.8
|   |   |   |   |   |   |   |   |   |   |   |   pH <= 3.21
|   |   |   |   |   |   |   |   |   |   |   |   |   residualsugar <= 1.45
|   |   |   |   |   |   |   |   |   |   |   |   |   |   density <= 0.99021: 6 (6.97)
|   |   |   |   |   |   |   |   |   |   |   |   |   |   density > 0.99021
|   |   |   |   |   |   |   |   |   |   |   |   |   |   |   freesulfur <= 12: 7 (1.69)
|   |   |   |   |   |   |   |   |   |   |   |   |   |   |   freesulfur > 12
|   |   |   |   |   |   |   |   |   |   |   |   |   |   |   |   freesulfur <= 37
|   |   |   |   |   |   |   |   |   |   |   |   |   |   |   |   |   alcohol <= 10.9: 6 (2.09)
|   |   |   |   |   |   |   |   |   |   |   |   |   |   |   |   |   alcohol > 10.9
|   |   |   |   |   |   |   |   |   |   |   |   |   |   |   |   |   |   volacid <= 0.16: 6 (1.06)
|   |   |   |   |   |   |   |   |   |   |   |   |   |   |   |   |   |   volacid > 0.16: 5 (10.31/0.71)
|   |   |   |   |   |   |   |   |   |   |   |   |   |   |   |   freesulfur > 37: 7 (1.41/0.35)
|   |   |   |   |   |   |   |   |   |   |   |   |   residualsugar > 1.45
|   |   |   |   |   |   |   |   |   |   |   |   |   |   pH <= 2.92: 5 (1.69)
|   |   |   |   |   |   |   |   |   |   |   |   |   |   pH > 2.92
|   |   |   |   |   |   |   |   |   |   |   |   |   |   |   sulphates <= 0.42
|   |   |   |   |   |   |   |   |   |   |   |   |   |   |   |   pH <= 3.13: 6 (17.75)
|   |   |   |   |   |   |   |   |   |   |   |   |   |   |   |   pH > 3.13
|   |   |   |   |   |   |   |   |   |   |   |   |   |   |   |   |   sulphates <= 0.36: 6 (6.61)
|   |   |   |   |   |   |   |   |   |   |   |   |   |   |   |   |   sulphates > 0.36
|   |   |   |   |   |   |   |   |   |   |   |   |   |   |   |   |   |   fixedacid <= 6.8
|   |   |   |   |   |   |   |   |   |   |   |   |   |   |   |   |   |   |   sulphates <= 0.37: 7 (1.69)
|   |   |   |   |   |   |   |   |   |   |   |   |   |   |   |   |   |   |   sulphates > 0.37: 6 (6.22)
|   |   |   |   |   |   |   |   |   |   |   |   |   |   |   |   |   |   fixedacid > 6.8: 7 (5.79)
|   |   |   |   |   |   |   |   |   |   |   |   |   |   |   sulphates > 0.42: 7 (41.04/18.45)
|   |   |   |   |   |   |   |   |   |   |   |   pH > 3.21
|   |   |   |   |   |   |   |   |   |   |   |   |   alcohol <= 11.5
|   |   |   |   |   |   |   |   |   |   |   |   |   |   residualsugar <= 1.35
|   |   |   |   |   |   |   |   |   |   |   |   |   |   |   volacid <= 0.15: 5 (1.69)
|   |   |   |   |   |   |   |   |   |   |   |   |   |   |   volacid > 0.15: 6 (4.91)
|   |   |   |   |   |   |   |   |   |   |   |   |   |   residualsugar > 1.35
|   |   |   |   |   |   |   |   |   |   |   |   |   |   |   sulphates <= 0.39
|   |   |   |   |   |   |   |   |   |   |   |   |   |   |   |   citricacid <= 0.35: 5 (4.13)
|   |   |   |   |   |   |   |   |   |   |   |   |   |   |   |   citricacid > 0.35: 8 (1.69)
|   |   |   |   |   |   |   |   |   |   |   |   |   |   |   sulphates > 0.39
|   |   |   |   |   |   |   |   |   |   |   |   |   |   |   |   alcohol <= 10.9: 5 (2.05/0.35)
|   |   |   |   |   |   |   |   |   |   |   |   |   |   |   |   alcohol > 10.9
|   |   |   |   |   |   |   |   |   |   |   |   |   |   |   |   |   chlorides <= 0.028: 5 (1.69)
|   |   |   |   |   |   |   |   |   |   |   |   |   |   |   |   |   chlorides > 0.028
|   |   |   |   |   |   |   |   |   |   |   |   |   |   |   |   |   |   volacid <= 0.225
|   |   |   |   |   |   |   |   |   |   |   |   |   |   |   |   |   |   |   totalsulfur <= 121: 8 (6.18/0.71)
|   |   |   |   |   |   |   |   |   |   |   |   |   |   |   |   |   |   |   totalsulfur > 121: 7 (4.13/0.35)
|   |   |   |   |   |   |   |   |   |   |   |   |   |   |   |   |   |   volacid > 0.225
|   |   |   |   |   |   |   |   |   |   |   |   |   |   |   |   |   |   |   pH <= 3.24: 6 (1.41)
|   |   |   |   |   |   |   |   |   |   |   |   |   |   |   |   |   |   |   pH > 3.24: 7 (15.04/0.35)
|   |   |   |   |   |   |   |   |   |   |   |   |   alcohol > 11.5
|   |   |   |   |   |   |   |   |   |   |   |   |   |   volacid <= 0.295
|   |   |   |   |   |   |   |   |   |   |   |   |   |   |   citricacid <= 0.26: 7 (1.69)
|   |   |   |   |   |   |   |   |   |   |   |   |   |   |   citricacid > 0.26: 6 (8.03)
|   |   |   |   |   |   |   |   |   |   |   |   |   |   volacid > 0.295: 7 (2.4)
|   |   |   |   |   |   |   |   |   |   alcohol > 12.05
|   |   |   |   |   |   |   |   |   |   |   freesulfur <= 55
|   |   |   |   |   |   |   |   |   |   |   |   alcohol <= 12.1
|   |   |   |   |   |   |   |   |   |   |   |   |   pH <= 3.31: 7 (9.05)
|   |   |   |   |   |   |   |   |   |   |   |   |   pH > 3.31: 8 (2.09)
|   |   |   |   |   |   |   |   |   |   |   |   alcohol > 12.1
|   |   |   |   |   |   |   |   |   |   |   |   |   chlorides <= 0.043
|   |   |   |   |   |   |   |   |   |   |   |   |   |   sulphates <= 0.77
|   |   |   |   |   |   |   |   |   |   |   |   |   |   |   alcohol <= 13.4
|   |   |   |   |   |   |   |   |   |   |   |   |   |   |   |   fixedacid <= 6.1
|   |   |   |   |   |   |   |   |   |   |   |   |   |   |   |   |   alcohol <= 12.6: 6 (13.93)
|   |   |   |   |   |   |   |   |   |   |   |   |   |   |   |   |   alcohol > 12.6: 7 (1.06)
|   |   |   |   |   |   |   |   |   |   |   |   |   |   |   |   fixedacid > 6.1
|   |   |   |   |   |   |   |   |   |   |   |   |   |   |   |   |   totalsulfur <= 80: 7 (5.43)
|   |   |   |   |   |   |   |   |   |   |   |   |   |   |   |   |   totalsulfur > 80
|   |   |   |   |   |   |   |   |   |   |   |   |   |   |   |   |   |   volacid <= 0.39
|   |   |   |   |   |   |   |   |   |   |   |   |   |   |   |   |   |   |   citricacid <= 0.26: 7 (6.85/0.35)
|   |   |   |   |   |   |   |   |   |   |   |   |   |   |   |   |   |   |   citricacid > 0.26
|   |   |   |   |   |   |   |   |   |   |   |   |   |   |   |   |   |   |   |   alcohol <= 12.4
|   |   |   |   |   |   |   |   |   |   |   |   |   |   |   |   |   |   |   |   |   residualsugar <= 2: 7 (5.79/0.35)
|   |   |   |   |   |   |   |   |   |   |   |   |   |   |   |   |   |   |   |   |   residualsugar > 2
|   |   |   |   |   |   |   |   |   |   |   |   |   |   |   |   |   |   |   |   |   |   fixedacid <= 7: 6 (6.61/0.35)
|   |   |   |   |   |   |   |   |   |   |   |   |   |   |   |   |   |   |   |   |   |   fixedacid > 7: 7 (2.75/0.35)
|   |   |   |   |   |   |   |   |   |   |   |   |   |   |   |   |   |   |   |   alcohol > 12.4
|   |   |   |   |   |   |   |   |   |   |   |   |   |   |   |   |   |   |   |   |   chlorides <= 0.03: 8 (3.5/1.06)
|   |   |   |   |   |   |   |   |   |   |   |   |   |   |   |   |   |   |   |   |   chlorides > 0.03
|   |   |   |   |   |   |   |   |   |   |   |   |   |   |   |   |   |   |   |   |   |   sulphates <= 0.38: 8 (3.15/1.06)
|   |   |   |   |   |   |   |   |   |   |   |   |   |   |   |   |   |   |   |   |   |   sulphates > 0.38: 6 (16.4/2.83)
|   |   |   |   |   |   |   |   |   |   |   |   |   |   |   |   |   |   volacid > 0.39: 6 (10.46/0.35)
|   |   |   |   |   |   |   |   |   |   |   |   |   |   |   alcohol > 13.4: 7 (5.43)
|   |   |   |   |   |   |   |   |   |   |   |   |   |   sulphates > 0.77: 8 (2.09)
|   |   |   |   |   |   |   |   |   |   |   |   |   chlorides > 0.043
|   |   |   |   |   |   |   |   |   |   |   |   |   |   volacid <= 0.28
|   |   |   |   |   |   |   |   |   |   |   |   |   |   |   sulphates <= 0.52: 8 (4.53)
|   |   |   |   |   |   |   |   |   |   |   |   |   |   |   sulphates > 0.52: 5 (1.69)
|   |   |   |   |   |   |   |   |   |   |   |   |   |   volacid > 0.28
|   |   |   |   |   |   |   |   |   |   |   |   |   |   |   volacid <= 0.295: 7 (1.69)
|   |   |   |   |   |   |   |   |   |   |   |   |   |   |   volacid > 0.295: 6 (3.15/0.35)
|   |   |   |   |   |   |   |   |   |   |   freesulfur > 55: 8 (4.17)
|   |   |   |   |   |   volacid > 0.45
|   |   |   |   |   |   |   density <= 0.98934
|   |   |   |   |   |   |   |   fixedacid <= 6.4: 8 (3.39)
|   |   |   |   |   |   |   |   fixedacid > 6.4: 4 (2.09)
|   |   |   |   |   |   |   density > 0.98934
|   |   |   |   |   |   |   |   freesulfur <= 41
|   |   |   |   |   |   |   |   |   density <= 0.9937
|   |   |   |   |   |   |   |   |   |   pH <= 3.12: 6 (2.44)
|   |   |   |   |   |   |   |   |   |   pH > 3.12: 7 (7.24/0.71)
|   |   |   |   |   |   |   |   |   density > 0.9937: 8 (1.69)
|   |   |   |   |   |   |   |   freesulfur > 41: 5 (2.09)
|   |   |   |   |   pH > 3.36
|   |   |   |   |   |   residualsugar <= 5.15
|   |   |   |   |   |   |   residualsugar <= 0.8: 3 (1.69)
|   |   |   |   |   |   |   residualsugar > 0.8
|   |   |   |   |   |   |   |   sulphates <= 0.73
|   |   |   |   |   |   |   |   |   sulphates <= 0.59
|   |   |   |   |   |   |   |   |   |   chlorides <= 0.031: 7 (6.93/1.06)
|   |   |   |   |   |   |   |   |   |   chlorides > 0.031
|   |   |   |   |   |   |   |   |   |   |   pH <= 3.53: 5 (14.8/2.75)
|   |   |   |   |   |   |   |   |   |   |   pH > 3.53: 7 (2.44/0.35)
|   |   |   |   |   |   |   |   |   sulphates > 0.59: 7 (7.32)
|   |   |   |   |   |   |   |   sulphates > 0.73
|   |   |   |   |   |   |   |   |   density <= 0.99078: 8 (2.44)
|   |   |   |   |   |   |   |   |   density > 0.99078: 6 (2.79/0.35)
|   |   |   |   |   |   residualsugar > 5.15: 6 (7.0/0.71)
|   |   |   |   fixedacid > 7.8
|   |   |   |   |   totalsulfur <= 175
|   |   |   |   |   |   sulphates <= 0.33
|   |   |   |   |   |   |   residualsugar <= 1.15: 3 (1.69)
|   |   |   |   |   |   |   residualsugar > 1.15: 7 (5.55/0.71)
|   |   |   |   |   |   sulphates > 0.33
|   |   |   |   |   |   |   freesulfur <= 26
|   |   |   |   |   |   |   |   alcohol <= 11.85
|   |   |   |   |   |   |   |   |   volacid <= 0.385: 5 (11.1/0.35)
|   |   |   |   |   |   |   |   |   volacid > 0.385: 6 (1.69)
|   |   |   |   |   |   |   |   alcohol > 11.85: 6 (3.46/0.35)
|   |   |   |   |   |   |   freesulfur > 26
|   |   |   |   |   |   |   |   totalsulfur <= 151
|   |   |   |   |   |   |   |   |   chlorides <= 0.036
|   |   |   |   |   |   |   |   |   |   chlorides <= 0.026: 6 (1.06)
|   |   |   |   |   |   |   |   |   |   chlorides > 0.026: 7 (8.03/0.71)
|   |   |   |   |   |   |   |   |   chlorides > 0.036
|   |   |   |   |   |   |   |   |   |   alcohol <= 11: 4 (4.17)
|   |   |   |   |   |   |   |   |   |   alcohol > 11: 6 (2.12/0.35)
|   |   |   |   |   |   |   |   totalsulfur > 151: 5 (4.88/0.71)
|   |   |   |   |   totalsulfur > 175
|   |   |   |   |   |   fixedacid <= 8.7: 8 (2.09)
|   |   |   |   |   |   fixedacid > 8.7: 3 (2.09)

Number of Leaves  : 	192

Size of the tree : 	383


Weight: 2.22

J48 pruned tree
------------------

alcohol <= 11.55
|   volacid <= 0.265
|   |   fixedacid <= 9.1
|   |   |   citricacid <= 0.2
|   |   |   |   alcohol <= 10.9: 5 (16.6/1.96)
|   |   |   |   alcohol > 10.9: 7 (1.16)
|   |   |   citricacid > 0.2
|   |   |   |   volacid <= 0.25
|   |   |   |   |   alcohol <= 10.1
|   |   |   |   |   |   alcohol <= 9
|   |   |   |   |   |   |   residualsugar <= 10.1
|   |   |   |   |   |   |   |   density <= 0.99663: 5 (5.15/0.2)
|   |   |   |   |   |   |   |   density > 0.99663: 4 (1.8)
|   |   |   |   |   |   |   residualsugar > 10.1
|   |   |   |   |   |   |   |   totalsulfur <= 191
|   |   |   |   |   |   |   |   |   volacid <= 0.16: 7 (2.35/0.2)
|   |   |   |   |   |   |   |   |   volacid > 0.16: 6 (23.88/6.19)
|   |   |   |   |   |   |   |   totalsulfur > 191
|   |   |   |   |   |   |   |   |   fixedacid <= 7.4: 7 (3.99)
|   |   |   |   |   |   |   |   |   fixedacid > 7.4: 8 (1.13/0.2)
|   |   |   |   |   |   alcohol > 9
|   |   |   |   |   |   |   sulphates <= 0.88
|   |   |   |   |   |   |   |   freesulfur <= 72
|   |   |   |   |   |   |   |   |   citricacid <= 0.33
|   |   |   |   |   |   |   |   |   |   citricacid <= 0.3
|   |   |   |   |   |   |   |   |   |   |   freesulfur <= 35
|   |   |   |   |   |   |   |   |   |   |   |   fixedacid <= 5.5: 5 (2.0)
|   |   |   |   |   |   |   |   |   |   |   |   fixedacid > 5.5: 6 (29.12/1.16)
|   |   |   |   |   |   |   |   |   |   |   freesulfur > 35
|   |   |   |   |   |   |   |   |   |   |   |   density <= 0.99524
|   |   |   |   |   |   |   |   |   |   |   |   |   density <= 0.99383: 5 (1.16)
|   |   |   |   |   |   |   |   |   |   |   |   |   density > 0.99383: 6 (8.1)
|   |   |   |   |   |   |   |   |   |   |   |   density > 0.99524: 5 (16.56/4.43)
|   |   |   |   |   |   |   |   |   |   citricacid > 0.3: 6 (25.42/3.76)
|   |   |   |   |   |   |   |   |   citricacid > 0.33
|   |   |   |   |   |   |   |   |   |   residualsugar <= 15.1
|   |   |   |   |   |   |   |   |   |   |   sulphates <= 0.41
|   |   |   |   |   |   |   |   |   |   |   |   freesulfur <= 42: 5 (5.67)
|   |   |   |   |   |   |   |   |   |   |   |   freesulfur > 42: 7 (3.64/1.55)
|   |   |   |   |   |   |   |   |   |   |   sulphates > 0.41
|   |   |   |   |   |   |   |   |   |   |   |   citricacid <= 0.56
|   |   |   |   |   |   |   |   |   |   |   |   |   freesulfur <= 22
|   |   |   |   |   |   |   |   |   |   |   |   |   |   density <= 0.99257: 7 (1.16)
|   |   |   |   |   |   |   |   |   |   |   |   |   |   density > 0.99257: 5 (7.87/0.39)
|   |   |   |   |   |   |   |   |   |   |   |   |   freesulfur > 22
|   |   |   |   |   |   |   |   |   |   |   |   |   |   volacid <= 0.245
|   |   |   |   |   |   |   |   |   |   |   |   |   |   |   sulphates <= 0.43: 5 (3.25)
|   |   |   |   |   |   |   |   |   |   |   |   |   |   |   sulphates > 0.43
|   |   |   |   |   |   |   |   |   |   |   |   |   |   |   |   citricacid <= 0.49
|   |   |   |   |   |   |   |   |   |   |   |   |   |   |   |   |   density <= 0.9967: 6 (17.49/1.55)
|   |   |   |   |   |   |   |   |   |   |   |   |   |   |   |   |   density > 0.9967: 5 (3.45/0.2)
|   |   |   |   |   |   |   |   |   |   |   |   |   |   |   |   citricacid > 0.49: 5 (3.15)
|   |   |   |   |   |   |   |   |   |   |   |   |   |   volacid > 0.245: 5 (7.71/0.78)
|   |   |   |   |   |   |   |   |   |   |   |   citricacid > 0.56
|   |   |   |   |   |   |   |   |   |   |   |   |   alcohol <= 10: 6 (4.19)
|   |   |   |   |   |   |   |   |   |   |   |   |   alcohol > 10: 7 (1.16)
|   |   |   |   |   |   |   |   |   |   residualsugar > 15.1: 6 (5.54)
|   |   |   |   |   |   |   |   freesulfur > 72
|   |   |   |   |   |   |   |   |   freesulfur <= 85: 6 (6.5/0.2)
|   |   |   |   |   |   |   |   |   freesulfur > 85: 3 (1.13/0.2)
|   |   |   |   |   |   |   sulphates > 0.88: 7 (2.19)
|   |   |   |   |   alcohol > 10.1
|   |   |   |   |   |   pH <= 3.26
|   |   |   |   |   |   |   volacid <= 0.155
|   |   |   |   |   |   |   |   sulphates <= 0.39: 8 (2.74)
|   |   |   |   |   |   |   |   sulphates > 0.39
|   |   |   |   |   |   |   |   |   chlorides <= 0.041
|   |   |   |   |   |   |   |   |   |   alcohol <= 10.5: 6 (2.39/0.39)
|   |   |   |   |   |   |   |   |   |   alcohol > 10.5: 7 (4.95)
|   |   |   |   |   |   |   |   |   chlorides > 0.041: 6 (9.59/0.39)
|   |   |   |   |   |   |   volacid > 0.155
|   |   |   |   |   |   |   |   fixedacid <= 8.2
|   |   |   |   |   |   |   |   |   alcohol <= 10.8
|   |   |   |   |   |   |   |   |   |   sulphates <= 0.55
|   |   |   |   |   |   |   |   |   |   |   pH <= 3.06
|   |   |   |   |   |   |   |   |   |   |   |   freesulfur <= 30: 7 (2.07/0.2)
|   |   |   |   |   |   |   |   |   |   |   |   freesulfur > 30: 6 (2.19)
|   |   |   |   |   |   |   |   |   |   |   pH > 3.06
|   |   |   |   |   |   |   |   |   |   |   |   density <= 0.99348
|   |   |   |   |   |   |   |   |   |   |   |   |   alcohol <= 10.6
|   |   |   |   |   |   |   |   |   |   |   |   |   |   residualsugar <= 1.9: 5 (6.19/1.35)
|   |   |   |   |   |   |   |   |   |   |   |   |   |   residualsugar > 1.9: 6 (2.39)
|   |   |   |   |   |   |   |   |   |   |   |   |   alcohol > 10.6: 6 (6.09/1.13)
|   |   |   |   |   |   |   |   |   |   |   |   density > 0.99348
|   |   |   |   |   |   |   |   |   |   |   |   |   density <= 0.99475: 5 (11.18)
|   |   |   |   |   |   |   |   |   |   |   |   |   density > 0.99475
|   |   |   |   |   |   |   |   |   |   |   |   |   |   alcohol <= 10.7: 6 (5.19)
|   |   |   |   |   |   |   |   |   |   |   |   |   |   alcohol > 10.7: 5 (2.31)
|   |   |   |   |   |   |   |   |   |   sulphates > 0.55
|   |   |   |   |   |   |   |   |   |   |   totalsulfur <= 100: 8 (2.0/0.2)
|   |   |   |   |   |   |   |   |   |   |   totalsulfur > 100
|   |   |   |   |   |   |   |   |   |   |   |   density <= 0.9944: 6 (5.54/0.2)
|   |   |   |   |   |   |   |   |   |   |   |   density > 0.9944: 7 (4.46/0.78)
|   |   |   |   |   |   |   |   |   alcohol > 10.8
|   |   |   |   |   |   |   |   |   |   citricacid <= 0.33
|   |   |   |   |   |   |   |   |   |   |   residualsugar <= 7.5
|   |   |   |   |   |   |   |   |   |   |   |   alcohol <= 10.9: 7 (1.16)
|   |   |   |   |   |   |   |   |   |   |   |   alcohol > 10.9: 6 (45.87/2.82)
|   |   |   |   |   |   |   |   |   |   |   residualsugar > 7.5: 7 (2.07/0.94)
|   |   |   |   |   |   |   |   |   |   citricacid > 0.33
|   |   |   |   |   |   |   |   |   |   |   volacid <= 0.19
|   |   |   |   |   |   |   |   |   |   |   |   fixedacid <= 7: 6 (2.98/0.39)
|   |   |   |   |   |   |   |   |   |   |   |   fixedacid > 7
|   |   |   |   |   |   |   |   |   |   |   |   |   sulphates <= 0.66: 7 (4.56/0.2)
|   |   |   |   |   |   |   |   |   |   |   |   |   sulphates > 0.66: 5 (1.16)
|   |   |   |   |   |   |   |   |   |   |   volacid > 0.19
|   |   |   |   |   |   |   |   |   |   |   |   residualsugar <= 1.5
|   |   |   |   |   |   |   |   |   |   |   |   |   citricacid <= 0.4: 6 (1.35)
|   |   |   |   |   |   |   |   |   |   |   |   |   citricacid > 0.4: 5 (4.62)
|   |   |   |   |   |   |   |   |   |   |   |   residualsugar > 1.5: 6 (17.8/2.49)
|   |   |   |   |   |   |   |   fixedacid > 8.2
|   |   |   |   |   |   |   |   |   pH <= 3.03: 4 (1.74/0.59)
|   |   |   |   |   |   |   |   |   pH > 3.03
|   |   |   |   |   |   |   |   |   |   freesulfur <= 24: 5 (2.7)
|   |   |   |   |   |   |   |   |   |   freesulfur > 24: 7 (2.96)
|   |   |   |   |   |   pH > 3.26
|   |   |   |   |   |   |   volacid <= 0.155: 6 (6.93/0.94)
|   |   |   |   |   |   |   volacid > 0.155
|   |   |   |   |   |   |   |   chlorides <= 0.05
|   |   |   |   |   |   |   |   |   pH <= 3.41
|   |   |   |   |   |   |   |   |   |   residualsugar <= 7: 7 (33.48/6.31)
|   |   |   |   |   |   |   |   |   |   residualsugar > 7
|   |   |   |   |   |   |   |   |   |   |   totalsulfur <= 129: 8 (1.13/0.2)
|   |   |   |   |   |   |   |   |   |   |   totalsulfur > 129: 6 (4.41/0.94)
|   |   |   |   |   |   |   |   |   pH > 3.41
|   |   |   |   |   |   |   |   |   |   freesulfur <= 27: 6 (2.78/0.2)
|   |   |   |   |   |   |   |   |   |   freesulfur > 27
|   |   |   |   |   |   |   |   |   |   |   volacid <= 0.21
|   |   |   |   |   |   |   |   |   |   |   |   alcohol <= 11.1: 7 (6.11/0.59)
|   |   |   |   |   |   |   |   |   |   |   |   alcohol > 11.1: 5 (2.31)
|   |   |   |   |   |   |   |   |   |   |   volacid > 0.21: 5 (4.09)
|   |   |   |   |   |   |   |   chlorides > 0.05
|   |   |   |   |   |   |   |   |   chlorides <= 0.057
|   |   |   |   |   |   |   |   |   |   chlorides <= 0.051: 3 (1.33/0.39)
|   |   |   |   |   |   |   |   |   |   chlorides > 0.051: 6 (5.79)
|   |   |   |   |   |   |   |   |   chlorides > 0.057: 5 (2.29/0.2)
|   |   |   |   volacid > 0.25
|   |   |   |   |   freesulfur <= 12
|   |   |   |   |   |   chlorides <= 0.048: 4 (3.15/0.2)
|   |   |   |   |   |   chlorides > 0.048: 5 (2.19)
|   |   |   |   |   freesulfur > 12
|   |   |   |   |   |   volacid <= 0.255: 4 (1.35/0.2)
|   |   |   |   |   |   volacid > 0.255
|   |   |   |   |   |   |   citricacid <= 0.24: 5 (3.15/1.16)
|   |   |   |   |   |   |   citricacid > 0.24
|   |   |   |   |   |   |   |   pH <= 3.46: 6 (51.14/7.0)
|   |   |   |   |   |   |   |   pH > 3.46: 4 (1.35/0.2)
|   |   fixedacid > 9.1
|   |   |   chlorides <= 0.039: 3 (2.7/0.39)
|   |   |   chlorides > 0.039
|   |   |   |   fixedacid <= 9.3: 4 (3.6)
|   |   |   |   fixedacid > 9.3: 5 (5.35)
|   volacid > 0.265
|   |   sulphates <= 0.31
|   |   |   sulphates <= 0.29: 5 (3.45/1.13)
|   |   |   sulphates > 0.29: 4 (12.92/0.2)
|   |   sulphates > 0.31
|   |   |   residualsugar <= 1.15
|   |   |   |   chlorides <= 0.072
|   |   |   |   |   freesulfur <= 6: 4 (5.79)
|   |   |   |   |   freesulfur > 6: 5 (24.63/4.58)
|   |   |   |   chlorides > 0.072: 4 (8.63)
|   |   |   residualsugar > 1.15
|   |   |   |   alcohol <= 10.133333
|   |   |   |   |   freesulfur <= 22
|   |   |   |   |   |   totalsulfur <= 163
|   |   |   |   |   |   |   citricacid <= 0.3
|   |   |   |   |   |   |   |   residualsugar <= 11.6: 5 (19.42/2.07)
|   |   |   |   |   |   |   |   residualsugar > 11.6: 6 (2.49/1.13)
|   |   |   |   |   |   |   citricacid > 0.3
|   |   |   |   |   |   |   |   chlorides <= 0.068: 6 (12.89/1.37)
|   |   |   |   |   |   |   |   chlorides > 0.068: 5 (1.8)
|   |   |   |   |   |   totalsulfur > 163
|   |   |   |   |   |   |   totalsulfur <= 172: 6 (13.16/0.2)
|   |   |   |   |   |   |   totalsulfur > 172
|   |   |   |   |   |   |   |   citricacid <= 0.37: 4 (3.84)
|   |   |   |   |   |   |   |   citricacid > 0.37: 6 (1.16)
|   |   |   |   |   freesulfur > 22
|   |   |   |   |   |   volacid <= 0.295
|   |   |   |   |   |   |   freesulfur <= 46
|   |   |   |   |   |   |   |   fixedacid <= 6.5: 4 (14.13/5.5)
|   |   |   |   |   |   |   |   fixedacid > 6.5
|   |   |   |   |   |   |   |   |   residualsugar <= 14.2: 6 (5.93/0.39)
|   |   |   |   |   |   |   |   |   residualsugar > 14.2: 5 (1.88)
|   |   |   |   |   |   |   freesulfur > 46: 6 (27.2/2.7)
|   |   |   |   |   |   volacid > 0.295
|   |   |   |   |   |   |   freesulfur <= 34
|   |   |   |   |   |   |   |   sulphates <= 0.45
|   |   |   |   |   |   |   |   |   alcohol <= 9.2: 6 (2.07/0.2)
|   |   |   |   |   |   |   |   |   alcohol > 9.2: 5 (10.48)
|   |   |   |   |   |   |   |   sulphates > 0.45
|   |   |   |   |   |   |   |   |   sulphates <= 0.58
|   |   |   |   |   |   |   |   |   |   pH <= 3.11
|   |   |   |   |   |   |   |   |   |   |   citricacid <= 0.38: 5 (3.86)
|   |   |   |   |   |   |   |   |   |   |   citricacid > 0.38: 6 (2.27)
|   |   |   |   |   |   |   |   |   |   pH > 3.11
|   |   |   |   |   |   |   |   |   |   |   freesulfur <= 27: 5 (3.25/0.94)
|   |   |   |   |   |   |   |   |   |   |   freesulfur > 27
|   |   |   |   |   |   |   |   |   |   |   |   citricacid <= 0.45: 6 (24.64/0.59)
|   |   |   |   |   |   |   |   |   |   |   |   citricacid > 0.45: 5 (1.16)
|   |   |   |   |   |   |   |   |   sulphates > 0.58: 5 (4.6)
|   |   |   |   |   |   |   freesulfur > 34: 5 (85.5/23.54)
|   |   |   |   alcohol > 10.133333
|   |   |   |   |   density <= 0.99146: 6 (15.43/2.27)
|   |   |   |   |   density > 0.99146
|   |   |   |   |   |   alcohol <= 11.066667
|   |   |   |   |   |   |   freesulfur <= 49
|   |   |   |   |   |   |   |   volacid <= 0.595
|   |   |   |   |   |   |   |   |   sulphates <= 0.59
|   |   |   |   |   |   |   |   |   |   citricacid <= 0.14: 7 (1.8)
|   |   |   |   |   |   |   |   |   |   citricacid > 0.14: 6 (45.99/12.96)
|   |   |   |   |   |   |   |   |   sulphates > 0.59
|   |   |   |   |   |   |   |   |   |   sulphates <= 0.74: 5 (11.66/3.13)
|   |   |   |   |   |   |   |   |   |   sulphates > 0.74: 7 (1.8)
|   |   |   |   |   |   |   |   volacid > 0.595
|   |   |   |   |   |   |   |   |   fixedacid <= 7: 4 (1.8)
|   |   |   |   |   |   |   |   |   fixedacid > 7: 5 (1.8)
|   |   |   |   |   |   |   freesulfur > 49
|   |   |   |   |   |   |   |   alcohol <= 10.6: 5 (7.03/1.33)
|   |   |   |   |   |   |   |   alcohol > 10.6: 7 (2.66/0.2)
|   |   |   |   |   |   alcohol > 11.066667
|   |   |   |   |   |   |   freesulfur <= 30
|   |   |   |   |   |   |   |   volacid <= 0.315
|   |   |   |   |   |   |   |   |   chlorides <= 0.026: 7 (1.16)
|   |   |   |   |   |   |   |   |   chlorides > 0.026: 5 (23.68/0.94)
|   |   |   |   |   |   |   |   volacid > 0.315
|   |   |   |   |   |   |   |   |   citricacid <= 0.24: 5 (2.96)
|   |   |   |   |   |   |   |   |   citricacid > 0.24: 6 (4.07/0.94)
|   |   |   |   |   |   |   freesulfur > 30
|   |   |   |   |   |   |   |   chlorides <= 0.032: 7 (3.23/0.2)
|   |   |   |   |   |   |   |   chlorides > 0.032: 6 (5.07/2.1)
alcohol > 11.55
|   chlorides <= 0.022
|   |   pH <= 3.4
|   |   |   density <= 0.98882: 5 (2.1)
|   |   |   density > 0.98882
|   |   |   |   volacid <= 0.335: 6 (8.86/1.53)
|   |   |   |   volacid > 0.335
|   |   |   |   |   freesulfur <= 11.5: 3 (1.16)
|   |   |   |   |   freesulfur > 11.5: 7 (2.68)
|   |   pH > 3.4: 9 (5.54)
|   chlorides > 0.022
|   |   fixedacid <= 5.4
|   |   |   residualsugar <= 1.2: 7 (2.74)
|   |   |   residualsugar > 1.2: 8 (14.45/2.51)
|   |   fixedacid > 5.4
|   |   |   freesulfur <= 11.5
|   |   |   |   chlorides <= 0.034
|   |   |   |   |   chlorides <= 0.029: 6 (3.9/0.94)
|   |   |   |   |   chlorides > 0.029: 4 (3.25)
|   |   |   |   chlorides > 0.034
|   |   |   |   |   freesulfur <= 4: 5 (1.33/0.39)
|   |   |   |   |   freesulfur > 4: 6 (10.53/0.39)
|   |   |   freesulfur > 11.5
|   |   |   |   residualsugar <= 1.7
|   |   |   |   |   volacid <= 0.48
|   |   |   |   |   |   freesulfur <= 18: 3 (2.82/1.88)
|   |   |   |   |   |   freesulfur > 18
|   |   |   |   |   |   |   totalsulfur <= 122
|   |   |   |   |   |   |   |   sulphates <= 0.58: 6 (44.16/2.82)
|   |   |   |   |   |   |   |   sulphates > 0.58
|   |   |   |   |   |   |   |   |   citricacid <= 0.32: 5 (1.16)
|   |   |   |   |   |   |   |   |   citricacid > 0.32: 7 (1.53/0.39)
|   |   |   |   |   |   |   totalsulfur > 122
|   |   |   |   |   |   |   |   freesulfur <= 34: 6 (2.7)
|   |   |   |   |   |   |   |   freesulfur > 34
|   |   |   |   |   |   |   |   |   fixedacid <= 7.5: 7 (4.78/0.2)
|   |   |   |   |   |   |   |   |   fixedacid > 7.5: 5 (1.16)
|   |   |   |   |   volacid > 0.48: 4 (2.1/0.94)
|   |   |   |   residualsugar > 1.7
|   |   |   |   |   volacid <= 0.12: 8 (4.11)
|   |   |   |   |   volacid > 0.12
|   |   |   |   |   |   sulphates <= 0.26: 8 (3.47)
|   |   |   |   |   |   sulphates > 0.26
|   |   |   |   |   |   |   density <= 0.9919
|   |   |   |   |   |   |   |   totalsulfur <= 94
|   |   |   |   |   |   |   |   |   sulphates <= 0.62
|   |   |   |   |   |   |   |   |   |   fixedacid <= 5.9: 7 (2.0)
|   |   |   |   |   |   |   |   |   |   fixedacid > 5.9
|   |   |   |   |   |   |   |   |   |   |   density <= 0.98953: 7 (1.8)
|   |   |   |   |   |   |   |   |   |   |   density > 0.98953: 6 (22.76/1.13)
|   |   |   |   |   |   |   |   |   sulphates > 0.62: 7 (4.54)
|   |   |   |   |   |   |   |   totalsulfur > 94
|   |   |   |   |   |   |   |   |   citricacid <= 0.12: 5 (2.29/1.13)
|   |   |   |   |   |   |   |   |   citricacid > 0.12
|   |   |   |   |   |   |   |   |   |   volacid <= 0.19
|   |   |   |   |   |   |   |   |   |   |   totalsulfur <= 148: 6 (4.82/0.2)
|   |   |   |   |   |   |   |   |   |   |   totalsulfur > 148: 8 (1.16)
|   |   |   |   |   |   |   |   |   |   volacid > 0.19
|   |   |   |   |   |   |   |   |   |   |   sulphates <= 0.31: 6 (3.47)
|   |   |   |   |   |   |   |   |   |   |   sulphates > 0.31
|   |   |   |   |   |   |   |   |   |   |   |   volacid <= 0.39
|   |   |   |   |   |   |   |   |   |   |   |   |   citricacid <= 0.34: 7 (58.44/10.43)
|   |   |   |   |   |   |   |   |   |   |   |   |   citricacid > 0.34
|   |   |   |   |   |   |   |   |   |   |   |   |   |   totalsulfur <= 121
|   |   |   |   |   |   |   |   |   |   |   |   |   |   |   fixedacid <= 7
|   |   |   |   |   |   |   |   |   |   |   |   |   |   |   |   alcohol <= 12.3: 7 (2.07)
|   |   |   |   |   |   |   |   |   |   |   |   |   |   |   |   alcohol > 12.3: 8 (3.86/0.2)
|   |   |   |   |   |   |   |   |   |   |   |   |   |   |   fixedacid > 7: 7 (4.81)
|   |   |   |   |   |   |   |   |   |   |   |   |   |   totalsulfur > 121: 6 (4.6)
|   |   |   |   |   |   |   |   |   |   |   |   volacid > 0.39
|   |   |   |   |   |   |   |   |   |   |   |   |   fixedacid <= 7.4: 6 (10.36/0.59)
|   |   |   |   |   |   |   |   |   |   |   |   |   fixedacid > 7.4
|   |   |   |   |   |   |   |   |   |   |   |   |   |   totalsulfur <= 97: 8 (1.8)
|   |   |   |   |   |   |   |   |   |   |   |   |   |   totalsulfur > 97: 7 (4.93)
|   |   |   |   |   |   |   density > 0.9919
|   |   |   |   |   |   |   |   totalsulfur <= 101
|   |   |   |   |   |   |   |   |   freesulfur <= 18: 6 (1.8)
|   |   |   |   |   |   |   |   |   freesulfur > 18: 7 (4.06/0.59)
|   |   |   |   |   |   |   |   totalsulfur > 101
|   |   |   |   |   |   |   |   |   citricacid <= 0.25: 6 (4.95)
|   |   |   |   |   |   |   |   |   citricacid > 0.25
|   |   |   |   |   |   |   |   |   |   fixedacid <= 7.15
|   |   |   |   |   |   |   |   |   |   |   chlorides <= 0.045: 8 (11.26/1.18)
|   |   |   |   |   |   |   |   |   |   |   chlorides > 0.045: 6 (2.7)
|   |   |   |   |   |   |   |   |   |   fixedacid > 7.15
|   |   |   |   |   |   |   |   |   |   |   sulphates <= 0.48
|   |   |   |   |   |   |   |   |   |   |   |   totalsulfur <= 171: 6 (4.58/0.59)
|   |   |   |   |   |   |   |   |   |   |   |   totalsulfur > 171: 8 (1.16)
|   |   |   |   |   |   |   |   |   |   |   sulphates > 0.48: 5 (2.51/0.2)

Number of Leaves  : 	161

Size of the tree : 	321


Weight: 1.97

J48 pruned tree
------------------

alcohol <= 10.9
|   volacid <= 0.24
|   |   volacid <= 0.11
|   |   |   citricacid <= 0.41
|   |   |   |   residualsugar <= 4.75: 7 (3.84)
|   |   |   |   residualsugar > 4.75: 6 (1.36)
|   |   |   citricacid > 0.41: 4 (4.74)
|   |   volacid > 0.11
|   |   |   alcohol <= 8.8
|   |   |   |   chlorides <= 0.051
|   |   |   |   |   fixedacid <= 8.1: 5 (9.64/0.78)
|   |   |   |   |   fixedacid > 8.1: 7 (1.6)
|   |   |   |   chlorides > 0.051
|   |   |   |   |   alcohol <= 8.7: 6 (1.36/0.33)
|   |   |   |   |   alcohol > 8.7: 8 (9.77/0.22)
|   |   |   alcohol > 8.8
|   |   |   |   volacid <= 0.12
|   |   |   |   |   citricacid <= 0.27: 5 (5.51/0.11)
|   |   |   |   |   citricacid > 0.27
|   |   |   |   |   |   citricacid <= 0.29: 8 (3.84)
|   |   |   |   |   |   citricacid > 0.29: 6 (1.36)
|   |   |   |   volacid > 0.12
|   |   |   |   |   fixedacid <= 7.8
|   |   |   |   |   |   sulphates <= 0.63
|   |   |   |   |   |   |   volacid <= 0.15
|   |   |   |   |   |   |   |   alcohol <= 10.3
|   |   |   |   |   |   |   |   |   totalsulfur <= 145: 6 (10.52/1.07)
|   |   |   |   |   |   |   |   |   totalsulfur > 145: 5 (2.35/0.67)
|   |   |   |   |   |   |   |   alcohol > 10.3
|   |   |   |   |   |   |   |   |   alcohol <= 10.4: 8 (2.63)
|   |   |   |   |   |   |   |   |   alcohol > 10.4
|   |   |   |   |   |   |   |   |   |   citricacid <= 0.42: 6 (4.1)
|   |   |   |   |   |   |   |   |   |   citricacid > 0.42: 7 (1.56/0.53)
|   |   |   |   |   |   |   volacid > 0.15
|   |   |   |   |   |   |   |   sulphates <= 0.35
|   |   |   |   |   |   |   |   |   volacid <= 0.175: 5 (5.16)
|   |   |   |   |   |   |   |   |   volacid > 0.175
|   |   |   |   |   |   |   |   |   |   volacid <= 0.21: 6 (4.43/0.66)
|   |   |   |   |   |   |   |   |   |   volacid > 0.21: 5 (2.33/0.11)
|   |   |   |   |   |   |   |   sulphates > 0.35
|   |   |   |   |   |   |   |   |   citricacid <= 0.29
|   |   |   |   |   |   |   |   |   |   residualsugar <= 12.55: 6 (31.13/8.24)
|   |   |   |   |   |   |   |   |   |   residualsugar > 12.55: 5 (6.65/1.67)
|   |   |   |   |   |   |   |   |   citricacid > 0.29
|   |   |   |   |   |   |   |   |   |   fixedacid <= 7.5
|   |   |   |   |   |   |   |   |   |   |   freesulfur <= 17: 6 (6.59)
|   |   |   |   |   |   |   |   |   |   |   freesulfur > 17
|   |   |   |   |   |   |   |   |   |   |   |   fixedacid <= 6.4
|   |   |   |   |   |   |   |   |   |   |   |   |   pH <= 3.3: 5 (10.49/3.62)
|   |   |   |   |   |   |   |   |   |   |   |   |   pH > 3.3
|   |   |   |   |   |   |   |   |   |   |   |   |   |   pH <= 3.33: 7 (2.05)
|   |   |   |   |   |   |   |   |   |   |   |   |   |   pH > 3.33
|   |   |   |   |   |   |   |   |   |   |   |   |   |   |   citricacid <= 0.31: 5 (1.07/0.53)
|   |   |   |   |   |   |   |   |   |   |   |   |   |   |   citricacid > 0.31: 6 (6.36/0.66)
|   |   |   |   |   |   |   |   |   |   |   |   fixedacid > 6.4
|   |   |   |   |   |   |   |   |   |   |   |   |   citricacid <= 0.32
|   |   |   |   |   |   |   |   |   |   |   |   |   |   totalsulfur <= 109: 7 (9.15)
|   |   |   |   |   |   |   |   |   |   |   |   |   |   totalsulfur > 109
|   |   |   |   |   |   |   |   |   |   |   |   |   |   |   fixedacid <= 6.5: 7 (3.96)
|   |   |   |   |   |   |   |   |   |   |   |   |   |   |   fixedacid > 6.5: 6 (8.41/0.53)
|   |   |   |   |   |   |   |   |   |   |   |   |   citricacid > 0.32: 6 (41.69/20.78)
|   |   |   |   |   |   |   |   |   |   fixedacid > 7.5
|   |   |   |   |   |   |   |   |   |   |   sulphates <= 0.48: 5 (6.07/0.53)
|   |   |   |   |   |   |   |   |   |   |   sulphates > 0.48: 6 (2.68/0.66)
|   |   |   |   |   |   sulphates > 0.63
|   |   |   |   |   |   |   totalsulfur <= 100
|   |   |   |   |   |   |   |   totalsulfur <= 87: 6 (1.8/0.66)
|   |   |   |   |   |   |   |   totalsulfur > 87: 8 (5.53/0.66)
|   |   |   |   |   |   |   totalsulfur > 100
|   |   |   |   |   |   |   |   density <= 0.99383
|   |   |   |   |   |   |   |   |   chlorides <= 0.052: 7 (5.87/0.11)
|   |   |   |   |   |   |   |   |   chlorides > 0.052: 6 (1.03)
|   |   |   |   |   |   |   |   density > 0.99383: 6 (8.22/1.07)
|   |   |   |   |   fixedacid > 7.8
|   |   |   |   |   |   freesulfur <= 38
|   |   |   |   |   |   |   volacid <= 0.19
|   |   |   |   |   |   |   |   fixedacid <= 9.4
|   |   |   |   |   |   |   |   |   residualsugar <= 1.8: 6 (2.96/0.11)
|   |   |   |   |   |   |   |   |   residualsugar > 1.8: 4 (3.74/0.66)
|   |   |   |   |   |   |   |   fixedacid > 9.4: 5 (1.32)
|   |   |   |   |   |   |   volacid > 0.19: 5 (8.09/1.32)
|   |   |   |   |   |   freesulfur > 38: 6 (14.95/1.07)
|   volacid > 0.24
|   |   totalsulfur <= 118
|   |   |   pH <= 3.39
|   |   |   |   sulphates <= 0.41
|   |   |   |   |   residualsugar <= 10.7
|   |   |   |   |   |   volacid <= 0.275
|   |   |   |   |   |   |   fixedacid <= 5.6: 5 (1.6)
|   |   |   |   |   |   |   fixedacid > 5.6
|   |   |   |   |   |   |   |   residualsugar <= 2.6: 4 (1.03)
|   |   |   |   |   |   |   |   residualsugar > 2.6: 6 (5.53)
|   |   |   |   |   |   volacid > 0.275
|   |   |   |   |   |   |   citricacid <= 0.16
|   |   |   |   |   |   |   |   freesulfur <= 22: 4 (2.16/0.33)
|   |   |   |   |   |   |   |   freesulfur > 22: 6 (4.38)
|   |   |   |   |   |   |   citricacid > 0.16
|   |   |   |   |   |   |   |   chlorides <= 0.039: 5 (2.92/0.8)
|   |   |   |   |   |   |   |   chlorides > 0.039: 4 (25.0/1.25)
|   |   |   |   |   residualsugar > 10.7: 6 (5.9)
|   |   |   |   sulphates > 0.41
|   |   |   |   |   pH <= 3.01
|   |   |   |   |   |   citricacid <= 0.36: 6 (1.56/0.53)
|   |   |   |   |   |   citricacid > 0.36: 4 (3.84)
|   |   |   |   |   pH > 3.01
|   |   |   |   |   |   volacid <= 0.265
|   |   |   |   |   |   |   fixedacid <= 7.4: 6 (3.11/0.11)
|   |   |   |   |   |   |   fixedacid > 7.4: 5 (1.68/0.66)
|   |   |   |   |   |   volacid > 0.265: 5 (25.57/4.41)
|   |   |   pH > 3.39
|   |   |   |   residualsugar <= 1.55: 6 (2.85/1.03)
|   |   |   |   residualsugar > 1.55: 7 (3.84)
|   |   totalsulfur > 118
|   |   |   alcohol <= 10.133333
|   |   |   |   fixedacid <= 5.5
|   |   |   |   |   fixedacid <= 4.9: 5 (6.05)
|   |   |   |   |   fixedacid > 4.9
|   |   |   |   |   |   totalsulfur <= 155: 6 (1.83)
|   |   |   |   |   |   totalsulfur > 155: 4 (4.92)
|   |   |   |   fixedacid > 5.5
|   |   |   |   |   chlorides <= 0.031
|   |   |   |   |   |   citricacid <= 0.28: 7 (4.74)
|   |   |   |   |   |   citricacid > 0.28
|   |   |   |   |   |   |   fixedacid <= 6.5: 5 (3.84)
|   |   |   |   |   |   |   fixedacid > 6.5: 6 (7.0)
|   |   |   |   |   chlorides > 0.031
|   |   |   |   |   |   freesulfur <= 35
|   |   |   |   |   |   |   freesulfur <= 34
|   |   |   |   |   |   |   |   density <= 0.99825
|   |   |   |   |   |   |   |   |   freesulfur <= 9
|   |   |   |   |   |   |   |   |   |   volacid <= 0.37: 6 (4.74)
|   |   |   |   |   |   |   |   |   |   volacid > 0.37: 4 (1.98)
|   |   |   |   |   |   |   |   |   freesulfur > 9
|   |   |   |   |   |   |   |   |   |   alcohol <= 9.1: 6 (8.95/0.88)
|   |   |   |   |   |   |   |   |   |   alcohol > 9.1: 5 (51.39/20.95)
|   |   |   |   |   |   |   |   density > 0.99825
|   |   |   |   |   |   |   |   |   residualsugar <= 13.4: 4 (4.49)
|   |   |   |   |   |   |   |   |   residualsugar > 13.4
|   |   |   |   |   |   |   |   |   |   alcohol <= 9: 6 (1.56)
|   |   |   |   |   |   |   |   |   |   alcohol > 9: 5 (3.74)
|   |   |   |   |   |   |   freesulfur > 34
|   |   |   |   |   |   |   |   sulphates <= 0.53
|   |   |   |   |   |   |   |   |   pH <= 3.08: 7 (1.83)
|   |   |   |   |   |   |   |   |   pH > 3.08
|   |   |   |   |   |   |   |   |   |   chlorides <= 0.036: 6 (1.03)
|   |   |   |   |   |   |   |   |   |   chlorides > 0.036: 5 (3.12)
|   |   |   |   |   |   |   |   sulphates > 0.53: 4 (4.92)
|   |   |   |   |   |   freesulfur > 35
|   |   |   |   |   |   |   pH <= 3.52
|   |   |   |   |   |   |   |   volacid <= 0.295
|   |   |   |   |   |   |   |   |   residualsugar <= 12.6
|   |   |   |   |   |   |   |   |   |   residualsugar <= 7.1
|   |   |   |   |   |   |   |   |   |   |   pH <= 3.15: 5 (3.82/0.88)
|   |   |   |   |   |   |   |   |   |   |   pH > 3.15: 6 (9.78)
|   |   |   |   |   |   |   |   |   |   residualsugar > 7.1
|   |   |   |   |   |   |   |   |   |   |   fixedacid <= 7.7
|   |   |   |   |   |   |   |   |   |   |   |   freesulfur <= 65: 5 (46.73/6.03)
|   |   |   |   |   |   |   |   |   |   |   |   freesulfur > 65: 6 (3.24/0.53)
|   |   |   |   |   |   |   |   |   |   |   fixedacid > 7.7: 6 (1.91)
|   |   |   |   |   |   |   |   |   residualsugar > 12.6
|   |   |   |   |   |   |   |   |   |   citricacid <= 0.25: 3 (6.79/2.05)
|   |   |   |   |   |   |   |   |   |   citricacid > 0.25: 6 (25.53/3.44)
|   |   |   |   |   |   |   |   volacid > 0.295
|   |   |   |   |   |   |   |   |   chlorides <= 0.055
|   |   |   |   |   |   |   |   |   |   fixedacid <= 5.8: 5 (3.08)
|   |   |   |   |   |   |   |   |   |   fixedacid > 5.8
|   |   |   |   |   |   |   |   |   |   |   volacid <= 0.47: 6 (115.96/19.57)
|   |   |   |   |   |   |   |   |   |   |   volacid > 0.47: 5 (2.93)
|   |   |   |   |   |   |   |   |   chlorides > 0.055: 5 (8.42)
|   |   |   |   |   |   |   pH > 3.52: 4 (2.88/1.56)
|   |   |   alcohol > 10.133333
|   |   |   |   chlorides <= 0.043
|   |   |   |   |   density <= 0.99248: 7 (4.61/0.66)
|   |   |   |   |   density > 0.99248
|   |   |   |   |   |   pH <= 3.44
|   |   |   |   |   |   |   alcohol <= 10.6: 6 (20.84/1.34)
|   |   |   |   |   |   |   alcohol > 10.6: 7 (3.62/1.8)
|   |   |   |   |   |   pH > 3.44: 7 (1.83)
|   |   |   |   chlorides > 0.043
|   |   |   |   |   citricacid <= 0.42
|   |   |   |   |   |   volacid <= 0.51
|   |   |   |   |   |   |   sulphates <= 0.74: 5 (25.85/6.49)
|   |   |   |   |   |   |   sulphates > 0.74: 7 (1.03)
|   |   |   |   |   |   volacid > 0.51: 4 (1.03)
|   |   |   |   |   citricacid > 0.42
|   |   |   |   |   |   residualsugar <= 10.3: 6 (3.08/0.11)
|   |   |   |   |   |   residualsugar > 10.3: 7 (3.84)
alcohol > 10.9
|   freesulfur <= 10
|   |   volacid <= 0.51
|   |   |   density <= 0.99322
|   |   |   |   residualsugar <= 1.15: 4 (3.27/0.33)
|   |   |   |   residualsugar > 1.15: 6 (13.8/3.46)
|   |   |   density > 0.99322: 5 (7.76/0.53)
|   |   volacid > 0.51: 8 (3.84)
|   freesulfur > 10
|   |   fixedacid <= 8.2
|   |   |   chlorides <= 0.022
|   |   |   |   pH <= 3.4
|   |   |   |   |   citricacid <= 0.32
|   |   |   |   |   |   sulphates <= 0.35: 6 (2.65/0.53)
|   |   |   |   |   |   sulphates > 0.35
|   |   |   |   |   |   |   alcohol <= 13.2: 7 (7.67)
|   |   |   |   |   |   |   alcohol > 13.2: 5 (1.32/0.66)
|   |   |   |   |   citricacid > 0.32: 6 (3.52/0.11)
|   |   |   |   pH > 3.4: 9 (3.16)
|   |   |   chlorides > 0.022
|   |   |   |   alcohol <= 12.5
|   |   |   |   |   residualsugar <= 3.15
|   |   |   |   |   |   pH <= 3.23
|   |   |   |   |   |   |   chlorides <= 0.041: 6 (52.06/11.44)
|   |   |   |   |   |   |   chlorides > 0.041
|   |   |   |   |   |   |   |   pH <= 3.09
|   |   |   |   |   |   |   |   |   chlorides <= 0.043: 7 (3.84)
|   |   |   |   |   |   |   |   |   chlorides > 0.043: 6 (8.54)
|   |   |   |   |   |   |   |   pH > 3.09
|   |   |   |   |   |   |   |   |   sulphates <= 0.54
|   |   |   |   |   |   |   |   |   |   pH <= 3.12: 6 (2.16)
|   |   |   |   |   |   |   |   |   |   pH > 3.12
|   |   |   |   |   |   |   |   |   |   |   fixedacid <= 7.2
|   |   |   |   |   |   |   |   |   |   |   |   fixedacid <= 6.3: 6 (1.31/0.53)
|   |   |   |   |   |   |   |   |   |   |   |   fixedacid > 6.3: 7 (16.04)
|   |   |   |   |   |   |   |   |   |   |   fixedacid > 7.2: 6 (1.34/0.53)
|   |   |   |   |   |   |   |   |   sulphates > 0.54
|   |   |   |   |   |   |   |   |   |   sulphates <= 0.7: 5 (10.18/0.88)
|   |   |   |   |   |   |   |   |   |   sulphates > 0.7: 7 (3.21)
|   |   |   |   |   |   pH > 3.23
|   |   |   |   |   |   |   sulphates <= 0.49
|   |   |   |   |   |   |   |   chlorides <= 0.027
|   |   |   |   |   |   |   |   |   alcohol <= 12.4: 6 (1.14)
|   |   |   |   |   |   |   |   |   alcohol > 12.4: 7 (8.58)
|   |   |   |   |   |   |   |   chlorides > 0.027
|   |   |   |   |   |   |   |   |   density <= 0.99126
|   |   |   |   |   |   |   |   |   |   fixedacid <= 5.6
|   |   |   |   |   |   |   |   |   |   |   fixedacid <= 5.3: 8 (1.03)
|   |   |   |   |   |   |   |   |   |   |   fixedacid > 5.3: 5 (4.5)
|   |   |   |   |   |   |   |   |   |   fixedacid > 5.6: 6 (12.84/2.8)
|   |   |   |   |   |   |   |   |   density > 0.99126
|   |   |   |   |   |   |   |   |   |   totalsulfur <= 164: 5 (28.38/0.65)
|   |   |   |   |   |   |   |   |   |   totalsulfur > 164: 6 (1.57)
|   |   |   |   |   |   |   sulphates > 0.49
|   |   |   |   |   |   |   |   volacid <= 0.21
|   |   |   |   |   |   |   |   |   chlorides <= 0.046
|   |   |   |   |   |   |   |   |   |   citricacid <= 0.39: 8 (12.17/0.88)
|   |   |   |   |   |   |   |   |   |   citricacid > 0.39: 5 (1.68)
|   |   |   |   |   |   |   |   |   chlorides > 0.046: 7 (1.98)
|   |   |   |   |   |   |   |   volacid > 0.21
|   |   |   |   |   |   |   |   |   citricacid <= 0.25: 6 (3.66)
|   |   |   |   |   |   |   |   |   citricacid > 0.25
|   |   |   |   |   |   |   |   |   |   citricacid <= 0.31: 7 (8.72)
|   |   |   |   |   |   |   |   |   |   citricacid > 0.31: 6 (3.27/1.18)
|   |   |   |   |   residualsugar > 3.15
|   |   |   |   |   |   density <= 0.99479
|   |   |   |   |   |   |   totalsulfur <= 115
|   |   |   |   |   |   |   |   citricacid <= 0.26: 6 (3.48/0.22)
|   |   |   |   |   |   |   |   citricacid > 0.26
|   |   |   |   |   |   |   |   |   citricacid <= 0.44: 7 (37.38/6.9)
|   |   |   |   |   |   |   |   |   citricacid > 0.44: 6 (3.9/0.53)
|   |   |   |   |   |   |   totalsulfur > 115
|   |   |   |   |   |   |   |   freesulfur <= 23
|   |   |   |   |   |   |   |   |   citricacid <= 0.29: 6 (6.34)
|   |   |   |   |   |   |   |   |   citricacid > 0.29: 7 (6.79)
|   |   |   |   |   |   |   |   freesulfur > 23
|   |   |   |   |   |   |   |   |   sulphates <= 0.32
|   |   |   |   |   |   |   |   |   |   volacid <= 0.265: 7 (5.32/0.33)
|   |   |   |   |   |   |   |   |   |   volacid > 0.265: 6 (1.6)
|   |   |   |   |   |   |   |   |   sulphates > 0.32
|   |   |   |   |   |   |   |   |   |   residualsugar <= 4
|   |   |   |   |   |   |   |   |   |   |   alcohol <= 11.433333: 7 (1.18)
|   |   |   |   |   |   |   |   |   |   |   alcohol > 11.433333: 6 (12.5/0.91)
|   |   |   |   |   |   |   |   |   |   residualsugar > 4
|   |   |   |   |   |   |   |   |   |   |   citricacid <= 0.25: 5 (2.92/1.36)
|   |   |   |   |   |   |   |   |   |   |   citricacid > 0.25
|   |   |   |   |   |   |   |   |   |   |   |   pH <= 3.28
|   |   |   |   |   |   |   |   |   |   |   |   |   chlorides <= 0.031: 8 (9.72/0.11)
|   |   |   |   |   |   |   |   |   |   |   |   |   chlorides > 0.031
|   |   |   |   |   |   |   |   |   |   |   |   |   |   pH <= 3.21
|   |   |   |   |   |   |   |   |   |   |   |   |   |   |   totalsulfur <= 124: 7 (1.56/0.11)
|   |   |   |   |   |   |   |   |   |   |   |   |   |   |   totalsulfur > 124: 6 (20.84/4.86)
|   |   |   |   |   |   |   |   |   |   |   |   |   |   pH > 3.21
|   |   |   |   |   |   |   |   |   |   |   |   |   |   |   fixedacid <= 6.5: 6 (3.02/0.53)
|   |   |   |   |   |   |   |   |   |   |   |   |   |   |   fixedacid > 6.5: 8 (14.53/0.8)
|   |   |   |   |   |   |   |   |   |   |   |   pH > 3.28: 6 (5.31/1.83)
|   |   |   |   |   |   density > 0.99479
|   |   |   |   |   |   |   pH <= 3.05: 5 (4.92)
|   |   |   |   |   |   |   pH > 3.05
|   |   |   |   |   |   |   |   fixedacid <= 7: 6 (1.54)
|   |   |   |   |   |   |   |   fixedacid > 7: 8 (2.87/1.31)
|   |   |   |   alcohol > 12.5
|   |   |   |   |   citricacid <= 0.39
|   |   |   |   |   |   citricacid <= 0.19: 7 (10.03/0.65)
|   |   |   |   |   |   citricacid > 0.19
|   |   |   |   |   |   |   sulphates <= 0.26: 8 (1.98)
|   |   |   |   |   |   |   sulphates > 0.26
|   |   |   |   |   |   |   |   fixedacid <= 5.6
|   |   |   |   |   |   |   |   |   alcohol <= 13: 8 (2.34)
|   |   |   |   |   |   |   |   |   alcohol > 13: 7 (2.22/0.66)
|   |   |   |   |   |   |   |   fixedacid > 5.6
|   |   |   |   |   |   |   |   |   fixedacid <= 5.9: 6 (5.51/0.11)
|   |   |   |   |   |   |   |   |   fixedacid > 5.9
|   |   |   |   |   |   |   |   |   |   volacid <= 0.35: 7 (26.44/6.48)
|   |   |   |   |   |   |   |   |   |   volacid > 0.35: 6 (12.05/3.78)
|   |   |   |   |   citricacid > 0.39
|   |   |   |   |   |   fixedacid <= 6.9: 8 (5.53)
|   |   |   |   |   |   fixedacid > 6.9: 6 (1.19/0.53)
|   |   fixedacid > 8.2
|   |   |   citricacid <= 0.23: 4 (4.74)
|   |   |   citricacid > 0.23
|   |   |   |   fixedacid <= 9.1
|   |   |   |   |   alcohol <= 11.433333: 7 (2.34)
|   |   |   |   |   alcohol > 11.433333: 5 (5.74/3.09)
|   |   |   |   fixedacid > 9.1: 6 (3.24/0.66)

Number of Leaves  : 	157

Size of the tree : 	313


Weight: 1.75

J48 pruned tree
------------------

alcohol <= 10.4
|   volacid <= 0.25
|   |   pH <= 2.94
|   |   |   alcohol <= 8.8
|   |   |   |   fixedacid <= 7.3: 8 (2.83)
|   |   |   |   fixedacid > 7.3: 7 (2.26)
|   |   |   alcohol > 8.8
|   |   |   |   citricacid <= 0.4
|   |   |   |   |   density <= 0.9992: 6 (9.47)
|   |   |   |   |   density > 0.9992: 3 (2.22)
|   |   |   |   citricacid > 0.4
|   |   |   |   |   fixedacid <= 6: 4 (2.78)
|   |   |   |   |   fixedacid > 6: 5 (1.24/0.07)
|   |   pH > 2.94
|   |   |   citricacid <= 0.27
|   |   |   |   freesulfur <= 108
|   |   |   |   |   citricacid <= 0.16: 5 (6.59)
|   |   |   |   |   citricacid > 0.16
|   |   |   |   |   |   pH <= 3.37
|   |   |   |   |   |   |   pH <= 3.26
|   |   |   |   |   |   |   |   chlorides <= 0.07: 6 (18.35/4.55)
|   |   |   |   |   |   |   |   chlorides > 0.07: 5 (3.13/0.07)
|   |   |   |   |   |   |   pH > 3.26: 5 (19.18/2.66)
|   |   |   |   |   |   pH > 3.37: 6 (8.3/0.6)
|   |   |   |   freesulfur > 108: 3 (1.8)
|   |   |   citricacid > 0.27
|   |   |   |   fixedacid <= 6.4
|   |   |   |   |   alcohol <= 10.1: 6 (26.16/4.81)
|   |   |   |   |   alcohol > 10.1
|   |   |   |   |   |   freesulfur <= 32: 7 (2.18/0.98)
|   |   |   |   |   |   freesulfur > 32: 5 (2.35/0.13)
|   |   |   |   fixedacid > 6.4
|   |   |   |   |   citricacid <= 0.3
|   |   |   |   |   |   pH <= 2.97: 7 (1.88)
|   |   |   |   |   |   pH > 2.97
|   |   |   |   |   |   |   sulphates <= 0.48
|   |   |   |   |   |   |   |   pH <= 3.26
|   |   |   |   |   |   |   |   |   pH <= 3.13: 6 (1.31)
|   |   |   |   |   |   |   |   |   pH > 3.13: 8 (5.45/0.45)
|   |   |   |   |   |   |   |   pH > 3.26: 6 (3.5/1.38)
|   |   |   |   |   |   |   sulphates > 0.48
|   |   |   |   |   |   |   |   totalsulfur <= 170
|   |   |   |   |   |   |   |   |   freesulfur <= 16: 8 (1.07/0.47)
|   |   |   |   |   |   |   |   |   freesulfur > 16: 6 (6.68)
|   |   |   |   |   |   |   |   totalsulfur > 170
|   |   |   |   |   |   |   |   |   alcohol <= 10.133333: 5 (7.27/0.07)
|   |   |   |   |   |   |   |   |   alcohol > 10.133333: 6 (2.78)
|   |   |   |   |   citricacid > 0.3
|   |   |   |   |   |   fixedacid <= 7.6
|   |   |   |   |   |   |   citricacid <= 0.38
|   |   |   |   |   |   |   |   citricacid <= 0.32
|   |   |   |   |   |   |   |   |   chlorides <= 0.058
|   |   |   |   |   |   |   |   |   |   pH <= 3.44
|   |   |   |   |   |   |   |   |   |   |   freesulfur <= 25: 7 (2.92/0.67)
|   |   |   |   |   |   |   |   |   |   |   freesulfur > 25: 6 (4.5)
|   |   |   |   |   |   |   |   |   |   pH > 3.44: 7 (4.58)
|   |   |   |   |   |   |   |   |   chlorides > 0.058: 5 (2.26)
|   |   |   |   |   |   |   |   citricacid > 0.32
|   |   |   |   |   |   |   |   |   sulphates <= 0.6: 5 (38.05/4.59)
|   |   |   |   |   |   |   |   |   sulphates > 0.6: 7 (5.71/0.6)
|   |   |   |   |   |   |   citricacid > 0.38
|   |   |   |   |   |   |   |   citricacid <= 0.65
|   |   |   |   |   |   |   |   |   pH <= 3.36: 7 (24.77/4.77)
|   |   |   |   |   |   |   |   |   pH > 3.36: 5 (3.49/0.67)
|   |   |   |   |   |   |   |   citricacid > 0.65: 5 (3.64/0.47)
|   |   |   |   |   |   fixedacid > 7.6
|   |   |   |   |   |   |   fixedacid <= 9.1: 6 (14.17/5.75)
|   |   |   |   |   |   |   fixedacid > 9.1
|   |   |   |   |   |   |   |   fixedacid <= 9.3: 4 (1.2)
|   |   |   |   |   |   |   |   fixedacid > 9.3: 5 (2.89)
|   volacid > 0.25
|   |   totalsulfur <= 91
|   |   |   fixedacid <= 7.8
|   |   |   |   fixedacid <= 6.8: 4 (4.22/1.36)
|   |   |   |   fixedacid > 6.8: 5 (6.93)
|   |   |   fixedacid > 7.8: 4 (4.86/0.07)
|   |   totalsulfur > 91
|   |   |   chlorides <= 0.068
|   |   |   |   alcohol <= 10.3
|   |   |   |   |   pH <= 3.36
|   |   |   |   |   |   freesulfur <= 39
|   |   |   |   |   |   |   citricacid <= 0.5
|   |   |   |   |   |   |   |   density <= 0.9982
|   |   |   |   |   |   |   |   |   fixedacid <= 5.1: 5 (3.55)
|   |   |   |   |   |   |   |   |   fixedacid > 5.1
|   |   |   |   |   |   |   |   |   |   residualsugar <= 1.55
|   |   |   |   |   |   |   |   |   |   |   pH <= 3.27: 6 (34.51/1.75)
|   |   |   |   |   |   |   |   |   |   |   pH > 3.27: 5 (2.06)
|   |   |   |   |   |   |   |   |   |   residualsugar > 1.55
