AdaBoostM1: Base classifiers and their weights: 

J48 pruned tree
------------------

alcohol <= 10.8
|   volacid <= 0.25
|   |   alcohol <= 8.9
|   |   |   freesulfur <= 36
|   |   |   |   fixedacid <= 7.2: 5 (3.0/1.0)
|   |   |   |   fixedacid > 7.2: 7 (12.0)
|   |   |   freesulfur > 36
|   |   |   |   chlorides <= 0.051
|   |   |   |   |   alcohol <= 8: 3 (1.0)
|   |   |   |   |   alcohol > 8
|   |   |   |   |   |   fixedacid <= 6.3: 6 (6.0)
|   |   |   |   |   |   fixedacid > 6.3
|   |   |   |   |   |   |   sulphates <= 0.43: 5 (9.0)
|   |   |   |   |   |   |   sulphates > 0.43
|   |   |   |   |   |   |   |   residualsugar <= 13.8
|   |   |   |   |   |   |   |   |   density <= 0.99642: 6 (1.0)
|   |   |   |   |   |   |   |   |   density > 0.99642: 5 (4.0)
|   |   |   |   |   |   |   |   residualsugar > 13.8: 6 (3.0)
|   |   |   |   chlorides > 0.051
|   |   |   |   |   citricacid <= 0.28: 8 (8.0)
|   |   |   |   |   citricacid > 0.28
|   |   |   |   |   |   totalsulfur <= 198
|   |   |   |   |   |   |   volacid <= 0.175: 8 (1.0)
|   |   |   |   |   |   |   volacid > 0.175: 6 (8.0)
|   |   |   |   |   |   totalsulfur > 198: 8 (2.0)
|   |   alcohol > 8.9
|   |   |   fixedacid <= 8.2
|   |   |   |   freesulfur <= 15.5
|   |   |   |   |   freesulfur <= 13
|   |   |   |   |   |   chlorides <= 0.039
|   |   |   |   |   |   |   fixedacid <= 8.1: 5 (8.0)
|   |   |   |   |   |   |   fixedacid > 8.1: 8 (1.0)
|   |   |   |   |   |   chlorides > 0.039
|   |   |   |   |   |   |   freesulfur <= 6: 4 (1.0)
|   |   |   |   |   |   |   freesulfur > 6
|   |   |   |   |   |   |   |   volacid <= 0.235
|   |   |   |   |   |   |   |   |   residualsugar <= 1.5: 5 (1.0)
|   |   |   |   |   |   |   |   |   residualsugar > 1.5: 6 (6.0)
|   |   |   |   |   |   |   |   volacid > 0.235: 5 (2.0)
|   |   |   |   |   freesulfur > 13
|   |   |   |   |   |   citricacid <= 0.29: 8 (3.0)
|   |   |   |   |   |   citricacid > 0.29
|   |   |   |   |   |   |   volacid <= 0.235: 6 (4.0)
|   |   |   |   |   |   |   volacid > 0.235: 7 (1.0)
|   |   |   |   freesulfur > 15.5
|   |   |   |   |   volacid <= 0.215
|   |   |   |   |   |   sulphates <= 0.38
|   |   |   |   |   |   |   citricacid <= 0.44
|   |   |   |   |   |   |   |   alcohol <= 10.4
|   |   |   |   |   |   |   |   |   density <= 0.99228: 5 (1.0)
|   |   |   |   |   |   |   |   |   density > 0.99228: 6 (32.0/2.0)
|   |   |   |   |   |   |   |   alcohol > 10.4
|   |   |   |   |   |   |   |   |   alcohol <= 10.6: 6 (2.0/1.0)
|   |   |   |   |   |   |   |   |   alcohol > 10.6
|   |   |   |   |   |   |   |   |   |   fixedacid <= 5.7: 6 (1.0)
|   |   |   |   |   |   |   |   |   |   fixedacid > 5.7: 5 (3.0)
|   |   |   |   |   |   |   citricacid > 0.44: 4 (3.0/2.0)
|   |   |   |   |   |   sulphates > 0.38
|   |   |   |   |   |   |   sulphates <= 0.39
|   |   |   |   |   |   |   |   pH <= 3.17
|   |   |   |   |   |   |   |   |   totalsulfur <= 118: 8 (1.0)
|   |   |   |   |   |   |   |   |   totalsulfur > 118: 7 (9.0)
|   |   |   |   |   |   |   |   pH > 3.17
|   |   |   |   |   |   |   |   |   pH <= 3.31: 5 (3.0)
|   |   |   |   |   |   |   |   |   pH > 3.31: 6 (2.0)
|   |   |   |   |   |   |   sulphates > 0.39
|   |   |   |   |   |   |   |   density <= 0.99385
|   |   |   |   |   |   |   |   |   fixedacid <= 5.9
|   |   |   |   |   |   |   |   |   |   alcohol <= 9.7: 5 (1.0)
|   |   |   |   |   |   |   |   |   |   alcohol > 9.7: 6 (10.0)
|   |   |   |   |   |   |   |   |   fixedacid > 5.9
|   |   |   |   |   |   |   |   |   |   citricacid <= 0.22
|   |   |   |   |   |   |   |   |   |   |   alcohol <= 10.15: 5 (2.0)
|   |   |   |   |   |   |   |   |   |   |   alcohol > 10.15: 6 (4.0)
|   |   |   |   |   |   |   |   |   |   citricacid > 0.22
|   |   |   |   |   |   |   |   |   |   |   alcohol <= 9.7
|   |   |   |   |   |   |   |   |   |   |   |   sulphates <= 0.75: 6 (8.0/1.0)
|   |   |   |   |   |   |   |   |   |   |   |   sulphates > 0.75: 7 (1.0)
|   |   |   |   |   |   |   |   |   |   |   alcohol > 9.7
|   |   |   |   |   |   |   |   |   |   |   |   residualsugar <= 1.35
|   |   |   |   |   |   |   |   |   |   |   |   |   residualsugar <= 1.15
|   |   |   |   |   |   |   |   |   |   |   |   |   |   freesulfur <= 46: 7 (5.0)
|   |   |   |   |   |   |   |   |   |   |   |   |   |   freesulfur > 46: 6 (3.0)
|   |   |   |   |   |   |   |   |   |   |   |   |   residualsugar > 1.15
|   |   |   |   |   |   |   |   |   |   |   |   |   |   volacid <= 0.145: 7 (2.0)
|   |   |   |   |   |   |   |   |   |   |   |   |   |   volacid > 0.145
|   |   |   |   |   |   |   |   |   |   |   |   |   |   |   freesulfur <= 29
|   |   |   |   |   |   |   |   |   |   |   |   |   |   |   |   volacid <= 0.155: 5 (1.0)
|   |   |   |   |   |   |   |   |   |   |   |   |   |   |   |   volacid > 0.155: 6 (7.0)
|   |   |   |   |   |   |   |   |   |   |   |   |   |   |   freesulfur > 29: 5 (3.0)
|   |   |   |   |   |   |   |   |   |   |   |   residualsugar > 1.35: 7 (35.0/10.0)
|   |   |   |   |   |   |   |   density > 0.99385
|   |   |   |   |   |   |   |   |   alcohol <= 9
|   |   |   |   |   |   |   |   |   |   fixedacid <= 7.8
|   |   |   |   |   |   |   |   |   |   |   residualsugar <= 14.35: 5 (3.0)
|   |   |   |   |   |   |   |   |   |   |   residualsugar > 14.35: 6 (1.0)
|   |   |   |   |   |   |   |   |   |   fixedacid > 7.8: 4 (1.0)
|   |   |   |   |   |   |   |   |   alcohol > 9: 6 (103.0/34.0)
|   |   |   |   |   volacid > 0.215
|   |   |   |   |   |   citricacid <= 0.49
|   |   |   |   |   |   |   sulphates <= 0.44
|   |   |   |   |   |   |   |   residualsugar <= 13.6
|   |   |   |   |   |   |   |   |   density <= 0.9956: 6 (22.0/7.0)
|   |   |   |   |   |   |   |   |   density > 0.9956
|   |   |   |   |   |   |   |   |   |   volacid <= 0.225: 6 (1.0)
|   |   |   |   |   |   |   |   |   |   volacid > 0.225: 5 (18.0/1.0)
|   |   |   |   |   |   |   |   residualsugar > 13.6
|   |   |   |   |   |   |   |   |   citricacid <= 0.39: 6 (7.0)
|   |   |   |   |   |   |   |   |   citricacid > 0.39: 7 (1.0)
|   |   |   |   |   |   |   sulphates > 0.44
|   |   |   |   |   |   |   |   pH <= 3.52: 6 (128.0/37.0)
|   |   |   |   |   |   |   |   pH > 3.52: 5 (3.0/1.0)
|   |   |   |   |   |   citricacid > 0.49
|   |   |   |   |   |   |   citricacid <= 0.65: 5 (8.0)
|   |   |   |   |   |   |   citricacid > 0.65: 6 (1.0)
|   |   |   fixedacid > 8.2
|   |   |   |   fixedacid <= 10.7
|   |   |   |   |   freesulfur <= 35
|   |   |   |   |   |   totalsulfur <= 65: 6 (5.0)
|   |   |   |   |   |   totalsulfur > 65
|   |   |   |   |   |   |   volacid <= 0.205
|   |   |   |   |   |   |   |   totalsulfur <= 112
|   |   |   |   |   |   |   |   |   fixedacid <= 8.4: 5 (1.0)
|   |   |   |   |   |   |   |   |   fixedacid > 8.4: 4 (3.0)
|   |   |   |   |   |   |   |   totalsulfur > 112
|   |   |   |   |   |   |   |   |   freesulfur <= 21: 6 (2.0)
|   |   |   |   |   |   |   |   |   freesulfur > 21
|   |   |   |   |   |   |   |   |   |   pH <= 3.09: 5 (4.0)
|   |   |   |   |   |   |   |   |   |   pH > 3.09: 6 (3.0/1.0)
|   |   |   |   |   |   |   volacid > 0.205: 5 (7.0)
|   |   |   |   |   freesulfur > 35
|   |   |   |   |   |   chlorides <= 0.059: 6 (11.0)
|   |   |   |   |   |   chlorides > 0.059: 5 (1.0)
|   |   |   |   fixedacid > 10.7: 3 (1.0)
|   volacid > 0.25
|   |   pH <= 3.31
|   |   |   freesulfur <= 14
|   |   |   |   totalsulfur <= 75
|   |   |   |   |   fixedacid <= 7.8
|   |   |   |   |   |   residualsugar <= 2.1: 5 (3.0)
|   |   |   |   |   |   residualsugar > 2.1: 6 (4.0)
|   |   |   |   |   fixedacid > 7.8
|   |   |   |   |   |   fixedacid <= 9: 4 (3.0)
|   |   |   |   |   |   fixedacid > 9: 6 (1.0)
|   |   |   |   totalsulfur > 75
|   |   |   |   |   freesulfur <= 9
|   |   |   |   |   |   residualsugar <= 2.9
|   |   |   |   |   |   |   alcohol <= 9: 5 (2.0)
|   |   |   |   |   |   |   alcohol > 9
|   |   |   |   |   |   |   |   alcohol <= 10.55
|   |   |   |   |   |   |   |   |   freesulfur <= 8: 4 (7.0/1.0)
|   |   |   |   |   |   |   |   |   freesulfur > 8: 6 (1.0)
|   |   |   |   |   |   |   |   alcohol > 10.55: 5 (1.0)
|   |   |   |   |   |   residualsugar > 2.9
|   |   |   |   |   |   |   volacid <= 0.51: 5 (7.0)
|   |   |   |   |   |   |   volacid > 0.51: 4 (1.0)
|   |   |   |   |   freesulfur > 9: 5 (28.0/3.0)
|   |   |   freesulfur > 14
|   |   |   |   alcohol <= 10.7
|   |   |   |   |   volacid <= 0.3
|   |   |   |   |   |   pH <= 3.08
|   |   |   |   |   |   |   pH <= 3.06
|   |   |   |   |   |   |   |   freesulfur <= 27: 5 (6.0)
|   |   |   |   |   |   |   |   freesulfur > 27
|   |   |   |   |   |   |   |   |   volacid <= 0.285
|   |   |   |   |   |   |   |   |   |   sulphates <= 0.62: 6 (15.0/1.0)
|   |   |   |   |   |   |   |   |   |   sulphates > 0.62: 5 (1.0)
|   |   |   |   |   |   |   |   |   volacid > 0.285
|   |   |   |   |   |   |   |   |   |   residualsugar <= 13.2
|   |   |   |   |   |   |   |   |   |   |   fixedacid <= 6.6: 5 (2.0)
|   |   |   |   |   |   |   |   |   |   |   fixedacid > 6.6: 6 (7.0)
|   |   |   |   |   |   |   |   |   |   residualsugar > 13.2: 5 (3.0)
|   |   |   |   |   |   |   pH > 3.06
|   |   |   |   |   |   |   |   freesulfur <= 42: 7 (7.0/2.0)
|   |   |   |   |   |   |   |   freesulfur > 42: 5 (8.0/4.0)
|   |   |   |   |   |   pH > 3.08
|   |   |   |   |   |   |   alcohol <= 10.133333
|   |   |   |   |   |   |   |   fixedacid <= 8: 5 (112.0/46.0)
|   |   |   |   |   |   |   |   fixedacid > 8: 6 (9.0/1.0)
|   |   |   |   |   |   |   alcohol > 10.133333
|   |   |   |   |   |   |   |   pH <= 3.19
|   |   |   |   |   |   |   |   |   volacid <= 0.295
|   |   |   |   |   |   |   |   |   |   citricacid <= 0.44: 5 (12.0/3.0)
|   |   |   |   |   |   |   |   |   |   citricacid > 0.44: 6 (1.0)
|   |   |   |   |   |   |   |   |   volacid > 0.295: 6 (2.0/1.0)
|   |   |   |   |   |   |   |   pH > 3.19
|   |   |   |   |   |   |   |   |   citricacid <= 0.52: 6 (9.0/2.0)
|   |   |   |   |   |   |   |   |   citricacid > 0.52: 7 (1.0)
|   |   |   |   |   volacid > 0.3: 5 (264.0/82.0)
|   |   |   |   alcohol > 10.7: 6 (11.0/3.0)
|   |   pH > 3.31
|   |   |   alcohol <= 10.4
|   |   |   |   chlorides <= 0.055
|   |   |   |   |   chlorides <= 0.039
|   |   |   |   |   |   residualsugar <= 6
|   |   |   |   |   |   |   chlorides <= 0.038: 5 (4.0)
|   |   |   |   |   |   |   chlorides > 0.038: 4 (1.0)
|   |   |   |   |   |   residualsugar > 6
|   |   |   |   |   |   |   sulphates <= 0.45: 5 (2.0/1.0)
|   |   |   |   |   |   |   sulphates > 0.45
|   |   |   |   |   |   |   |   chlorides <= 0.038: 6 (7.0/1.0)
|   |   |   |   |   |   |   |   chlorides > 0.038: 7 (1.0)
|   |   |   |   |   chlorides > 0.039: 6 (33.0/11.0)
|   |   |   |   chlorides > 0.055
|   |   |   |   |   citricacid <= 0.2: 4 (5.0)
|   |   |   |   |   citricacid > 0.2
|   |   |   |   |   |   citricacid <= 0.44: 5 (9.0/2.0)
|   |   |   |   |   |   citricacid > 0.44: 4 (1.0)
|   |   |   alcohol > 10.4
|   |   |   |   freesulfur <= 65
|   |   |   |   |   fixedacid <= 6.5
|   |   |   |   |   |   totalsulfur <= 107: 6 (2.0)
|   |   |   |   |   |   totalsulfur > 107: 7 (8.0)
|   |   |   |   |   fixedacid > 6.5
|   |   |   |   |   |   chlorides <= 0.047: 6 (4.0)
|   |   |   |   |   |   chlorides > 0.047: 4 (1.0)
|   |   |   |   freesulfur > 65: 3 (2.0/1.0)
alcohol > 10.8
|   freesulfur <= 10
|   |   residualsugar <= 4.4
|   |   |   citricacid <= 0.25: 4 (3.0)
|   |   |   citricacid > 0.25
|   |   |   |   sulphates <= 0.35
|   |   |   |   |   chlorides <= 0.042: 4 (4.0)
|   |   |   |   |   chlorides > 0.042: 6 (3.0/1.0)
|   |   |   |   sulphates > 0.35
|   |   |   |   |   residualsugar <= 0.8: 4 (1.0)
|   |   |   |   |   residualsugar > 0.8: 6 (20.0/6.0)
|   |   residualsugar > 4.4
|   |   |   chlorides <= 0.034
|   |   |   |   chlorides <= 0.029: 3 (2.0/1.0)
|   |   |   |   chlorides > 0.029: 5 (3.0)
|   |   |   chlorides > 0.034
|   |   |   |   freesulfur <= 7: 6 (3.0/1.0)
|   |   |   |   freesulfur > 7
|   |   |   |   |   freesulfur <= 9: 7 (3.0)
|   |   |   |   |   freesulfur > 9: 6 (1.0)
|   freesulfur > 10
|   |   fixedacid <= 8.1
|   |   |   alcohol <= 12.066667
|   |   |   |   residualsugar <= 0.95
|   |   |   |   |   residualsugar <= 0.8: 3 (2.0/1.0)
|   |   |   |   |   residualsugar > 0.8
|   |   |   |   |   |   chlorides <= 0.031: 6 (1.0)
|   |   |   |   |   |   chlorides > 0.031: 5 (3.0)
|   |   |   |   residualsugar > 0.95
|   |   |   |   |   fixedacid <= 5.4
|   |   |   |   |   |   fixedacid <= 5.1: 6 (8.0)
|   |   |   |   |   |   fixedacid > 5.1: 8 (3.0)
|   |   |   |   |   fixedacid > 5.4
|   |   |   |   |   |   pH <= 3.01: 6 (25.0/4.0)
|   |   |   |   |   |   pH > 3.01
|   |   |   |   |   |   |   residualsugar <= 6.95
|   |   |   |   |   |   |   |   pH <= 3.24
|   |   |   |   |   |   |   |   |   volacid <= 0.13: 7 (6.0)
|   |   |   |   |   |   |   |   |   volacid > 0.13
|   |   |   |   |   |   |   |   |   |   totalsulfur <= 96
|   |   |   |   |   |   |   |   |   |   |   citricacid <= 0.47
|   |   |   |   |   |   |   |   |   |   |   |   volacid <= 0.16: 6 (2.0/1.0)
|   |   |   |   |   |   |   |   |   |   |   |   volacid > 0.16
|   |   |   |   |   |   |   |   |   |   |   |   |   totalsulfur <= 59: 5 (1.0)
|   |   |   |   |   |   |   |   |   |   |   |   |   totalsulfur > 59: 6 (26.0)
|   |   |   |   |   |   |   |   |   |   |   citricacid > 0.47: 7 (3.0/1.0)
|   |   |   |   |   |   |   |   |   |   totalsulfur > 96
|   |   |   |   |   |   |   |   |   |   |   fixedacid <= 6.5
|   |   |   |   |   |   |   |   |   |   |   |   sulphates <= 0.72: 6 (29.0/7.0)
|   |   |   |   |   |   |   |   |   |   |   |   sulphates > 0.72: 7 (3.0)
|   |   |   |   |   |   |   |   |   |   |   fixedacid > 6.5
|   |   |   |   |   |   |   |   |   |   |   |   volacid <= 0.16: 6 (6.0)
|   |   |   |   |   |   |   |   |   |   |   |   volacid > 0.16
|   |   |   |   |   |   |   |   |   |   |   |   |   alcohol <= 11.9
|   |   |   |   |   |   |   |   |   |   |   |   |   |   chlorides <= 0.036
|   |   |   |   |   |   |   |   |   |   |   |   |   |   |   residualsugar <= 1.2: 7 (2.0)
|   |   |   |   |   |   |   |   |   |   |   |   |   |   |   residualsugar > 1.2
|   |   |   |   |   |   |   |   |   |   |   |   |   |   |   |   fixedacid <= 7.8
|   |   |   |   |   |   |   |   |   |   |   |   |   |   |   |   |   pH <= 3.05: 5 (1.0)
|   |   |   |   |   |   |   |   |   |   |   |   |   |   |   |   |   pH > 3.05
|   |   |   |   |   |   |   |   |   |   |   |   |   |   |   |   |   |   volacid <= 0.45: 6 (14.0)
|   |   |   |   |   |   |   |   |   |   |   |   |   |   |   |   |   |   volacid > 0.45: 5 (1.0)
|   |   |   |   |   |   |   |   |   |   |   |   |   |   |   |   fixedacid > 7.8: 7 (1.0)
|   |   |   |   |   |   |   |   |   |   |   |   |   |   chlorides > 0.036
|   |   |   |   |   |   |   |   |   |   |   |   |   |   |   chlorides <= 0.04: 7 (10.0/3.0)
|   |   |   |   |   |   |   |   |   |   |   |   |   |   |   chlorides > 0.04
|   |   |   |   |   |   |   |   |   |   |   |   |   |   |   |   alcohol <= 11.3
|   |   |   |   |   |   |   |   |   |   |   |   |   |   |   |   |   fixedacid <= 7.3
|   |   |   |   |   |   |   |   |   |   |   |   |   |   |   |   |   |   alcohol <= 10.9: 7 (2.0)
|   |   |   |   |   |   |   |   |   |   |   |   |   |   |   |   |   |   alcohol > 10.9
|   |   |   |   |   |   |   |   |   |   |   |   |   |   |   |   |   |   |   fixedacid <= 7: 6 (11.0/3.0)
|   |   |   |   |   |   |   |   |   |   |   |   |   |   |   |   |   |   |   fixedacid > 7: 7 (8.0/2.0)
|   |   |   |   |   |   |   |   |   |   |   |   |   |   |   |   |   fixedacid > 7.3: 5 (6.0/2.0)
|   |   |   |   |   |   |   |   |   |   |   |   |   |   |   |   alcohol > 11.3
|   |   |   |   |   |   |   |   |   |   |   |   |   |   |   |   |   residualsugar <= 3.4: 5 (7.0)
|   |   |   |   |   |   |   |   |   |   |   |   |   |   |   |   |   residualsugar > 3.4: 6 (2.0)
|   |   |   |   |   |   |   |   |   |   |   |   |   alcohol > 11.9
|   |   |   |   |   |   |   |   |   |   |   |   |   |   residualsugar <= 2.3: 5 (2.0)
|   |   |   |   |   |   |   |   |   |   |   |   |   |   residualsugar > 2.3: 7 (4.0)
|   |   |   |   |   |   |   |   pH > 3.24
|   |   |   |   |   |   |   |   |   sulphates <= 0.57
|   |   |   |   |   |   |   |   |   |   chlorides <= 0.038
|   |   |   |   |   |   |   |   |   |   |   residualsugar <= 2.5
|   |   |   |   |   |   |   |   |   |   |   |   density <= 0.99132
|   |   |   |   |   |   |   |   |   |   |   |   |   volacid <= 0.295
|   |   |   |   |   |   |   |   |   |   |   |   |   |   freesulfur <= 34
|   |   |   |   |   |   |   |   |   |   |   |   |   |   |   pH <= 3.27: 7 (2.0/1.0)
|   |   |   |   |   |   |   |   |   |   |   |   |   |   |   pH > 3.27: 6 (9.0)
|   |   |   |   |   |   |   |   |   |   |   |   |   |   freesulfur > 34: 7 (5.0/2.0)
|   |   |   |   |   |   |   |   |   |   |   |   |   volacid > 0.295
|   |   |   |   |   |   |   |   |   |   |   |   |   |   pH <= 3.36: 7 (3.0)
|   |   |   |   |   |   |   |   |   |   |   |   |   |   pH > 3.36: 8 (1.0)
|   |   |   |   |   |   |   |   |   |   |   |   density > 0.99132
|   |   |   |   |   |   |   |   |   |   |   |   |   density <= 0.99186: 5 (6.0/2.0)
|   |   |   |   |   |   |   |   |   |   |   |   |   density > 0.99186
|   |   |   |   |   |   |   |   |   |   |   |   |   |   pH <= 3.28: 5 (1.0)
|   |   |   |   |   |   |   |   |   |   |   |   |   |   pH > 3.28: 6 (4.0)
|   |   |   |   |   |   |   |   |   |   |   residualsugar > 2.5
|   |   |   |   |   |   |   |   |   |   |   |   chlorides <= 0.026: 6 (2.0)
|   |   |   |   |   |   |   |   |   |   |   |   chlorides > 0.026: 7 (15.0/2.0)
|   |   |   |   |   |   |   |   |   |   chlorides > 0.038: 6 (31.0/8.0)
|   |   |   |   |   |   |   |   |   sulphates > 0.57: 7 (32.0/10.0)
|   |   |   |   |   |   |   residualsugar > 6.95
|   |   |   |   |   |   |   |   residualsugar <= 7.1
|   |   |   |   |   |   |   |   |   sulphates <= 0.33: 5 (1.0)
|   |   |   |   |   |   |   |   |   sulphates > 0.33: 8 (3.0)
|   |   |   |   |   |   |   |   residualsugar > 7.1
|   |   |   |   |   |   |   |   |   pH <= 3.27
|   |   |   |   |   |   |   |   |   |   citricacid <= 0.32
|   |   |   |   |   |   |   |   |   |   |   citricacid <= 0.28
|   |   |   |   |   |   |   |   |   |   |   |   chlorides <= 0.053
|   |   |   |   |   |   |   |   |   |   |   |   |   pH <= 3.17: 7 (7.0)
|   |   |   |   |   |   |   |   |   |   |   |   |   pH > 3.17: 8 (2.0)
|   |   |   |   |   |   |   |   |   |   |   |   chlorides > 0.053: 6 (2.0)
|   |   |   |   |   |   |   |   |   |   |   citricacid > 0.28
|   |   |   |   |   |   |   |   |   |   |   |   citricacid <= 0.31
|   |   |   |   |   |   |   |   |   |   |   |   |   citricacid <= 0.29: 8 (1.0)
|   |   |   |   |   |   |   |   |   |   |   |   |   citricacid > 0.29: 6 (5.0)
|   |   |   |   |   |   |   |   |   |   |   |   citricacid > 0.31
|   |   |   |   |   |   |   |   |   |   |   |   |   fixedacid <= 6: 6 (1.0)
|   |   |   |   |   |   |   |   |   |   |   |   |   fixedacid > 6: 8 (4.0)
|   |   |   |   |   |   |   |   |   |   citricacid > 0.32
|   |   |   |   |   |   |   |   |   |   |   sulphates <= 0.41
|   |   |   |   |   |   |   |   |   |   |   |   fixedacid <= 7.8: 6 (9.0)
|   |   |   |   |   |   |   |   |   |   |   |   fixedacid > 7.8: 7 (2.0)
|   |   |   |   |   |   |   |   |   |   |   sulphates > 0.41
|   |   |   |   |   |   |   |   |   |   |   |   citricacid <= 0.33: 6 (1.0)
|   |   |   |   |   |   |   |   |   |   |   |   citricacid > 0.33
|   |   |   |   |   |   |   |   |   |   |   |   |   freesulfur <= 18: 5 (1.0)
|   |   |   |   |   |   |   |   |   |   |   |   |   freesulfur > 18: 7 (6.0)
|   |   |   |   |   |   |   |   |   pH > 3.27: 6 (9.0)
|   |   |   alcohol > 12.066667
|   |   |   |   freesulfur <= 55
|   |   |   |   |   fixedacid <= 5.4
|   |   |   |   |   |   totalsulfur <= 115
|   |   |   |   |   |   |   citricacid <= 0.32
|   |   |   |   |   |   |   |   alcohol <= 13.7
|   |   |   |   |   |   |   |   |   sulphates <= 0.35: 6 (1.0)
|   |   |   |   |   |   |   |   |   sulphates > 0.35: 7 (6.0)
|   |   |   |   |   |   |   |   alcohol > 13.7: 6 (1.0)
|   |   |   |   |   |   |   citricacid > 0.32: 8 (1.0)
|   |   |   |   |   |   totalsulfur > 115
|   |   |   |   |   |   |   freesulfur <= 46
|   |   |   |   |   |   |   |   freesulfur <= 26: 7 (1.0)
|   |   |   |   |   |   |   |   freesulfur > 26: 8 (7.0)
|   |   |   |   |   |   |   freesulfur > 46: 7 (2.0)
|   |   |   |   |   fixedacid > 5.4
|   |   |   |   |   |   sulphates <= 0.33
|   |   |   |   |   |   |   sulphates <= 0.26: 8 (3.0)
|   |   |   |   |   |   |   sulphates > 0.26
|   |   |   |   |   |   |   |   volacid <= 0.16: 8 (2.0)
|   |   |   |   |   |   |   |   volacid > 0.16
|   |   |   |   |   |   |   |   |   citricacid <= 0.43: 6 (14.0/1.0)
|   |   |   |   |   |   |   |   |   citricacid > 0.43: 8 (1.0)
|   |   |   |   |   |   sulphates > 0.33
|   |   |   |   |   |   |   totalsulfur <= 169
|   |   |   |   |   |   |   |   freesulfur <= 21
|   |   |   |   |   |   |   |   |   residualsugar <= 1.65
|   |   |   |   |   |   |   |   |   |   alcohol <= 12.6: 6 (3.0/1.0)
|   |   |   |   |   |   |   |   |   |   alcohol > 12.6
|   |   |   |   |   |   |   |   |   |   |   volacid <= 0.48: 7 (5.0)
|   |   |   |   |   |   |   |   |   |   |   volacid > 0.48: 4 (1.0)
|   |   |   |   |   |   |   |   |   residualsugar > 1.65: 6 (32.0/13.0)
|   |   |   |   |   |   |   |   freesulfur > 21
|   |   |   |   |   |   |   |   |   sulphates <= 0.52
|   |   |   |   |   |   |   |   |   |   totalsulfur <= 95: 6 (21.0/7.0)
|   |   |   |   |   |   |   |   |   |   totalsulfur > 95
|   |   |   |   |   |   |   |   |   |   |   residualsugar <= 8.9
|   |   |   |   |   |   |   |   |   |   |   |   alcohol <= 12.1
|   |   |   |   |   |   |   |   |   |   |   |   |   residualsugar <= 6.6: 7 (8.0)
|   |   |   |   |   |   |   |   |   |   |   |   |   residualsugar > 6.6: 8 (1.0)
|   |   |   |   |   |   |   |   |   |   |   |   alcohol > 12.1
|   |   |   |   |   |   |   |   |   |   |   |   |   freesulfur <= 22: 8 (1.0)
|   |   |   |   |   |   |   |   |   |   |   |   |   freesulfur > 22
|   |   |   |   |   |   |   |   |   |   |   |   |   |   alcohol <= 12.25
|   |   |   |   |   |   |   |   |   |   |   |   |   |   |   fixedacid <= 7
|   |   |   |   |   |   |   |   |   |   |   |   |   |   |   |   chlorides <= 0.031: 7 (2.0)
|   |   |   |   |   |   |   |   |   |   |   |   |   |   |   |   chlorides > 0.031: 6 (8.0/1.0)
|   |   |   |   |   |   |   |   |   |   |   |   |   |   |   fixedacid > 7: 7 (3.0/1.0)
|   |   |   |   |   |   |   |   |   |   |   |   |   |   alcohol > 12.25
|   |   |   |   |   |   |   |   |   |   |   |   |   |   |   residualsugar <= 2.9
|   |   |   |   |   |   |   |   |   |   |   |   |   |   |   |   freesulfur <= 34: 6 (23.0/7.0)
|   |   |   |   |   |   |   |   |   |   |   |   |   |   |   |   freesulfur > 34
|   |   |   |   |   |   |   |   |   |   |   |   |   |   |   |   |   residualsugar <= 1.25: 6 (2.0)
|   |   |   |   |   |   |   |   |   |   |   |   |   |   |   |   |   residualsugar > 1.25
|   |   |   |   |   |   |   |   |   |   |   |   |   |   |   |   |   |   totalsulfur <= 117: 6 (3.0)
|   |   |   |   |   |   |   |   |   |   |   |   |   |   |   |   |   |   totalsulfur > 117: 7 (12.0)
|   |   |   |   |   |   |   |   |   |   |   |   |   |   |   residualsugar > 2.9: 7 (17.0/3.0)
|   |   |   |   |   |   |   |   |   |   |   residualsugar > 8.9
|   |   |   |   |   |   |   |   |   |   |   |   fixedacid <= 6.5: 7 (1.0)
|   |   |   |   |   |   |   |   |   |   |   |   fixedacid > 6.5: 8 (3.0)
|   |   |   |   |   |   |   |   |   sulphates > 0.52
|   |   |   |   |   |   |   |   |   |   sulphates <= 0.77: 7 (49.0/13.0)
|   |   |   |   |   |   |   |   |   |   sulphates > 0.77: 5 (2.0/1.0)
|   |   |   |   |   |   |   totalsulfur > 169: 6 (8.0/2.0)
|   |   |   |   freesulfur > 55
|   |   |   |   |   pH <= 3.2: 8 (3.0)
|   |   |   |   |   pH > 3.2: 5 (2.0/1.0)
|   |   fixedacid > 8.1
|   |   |   alcohol <= 11
|   |   |   |   chlorides <= 0.037: 7 (4.0/2.0)
|   |   |   |   chlorides > 0.037: 4 (3.0/1.0)
|   |   |   alcohol > 11
|   |   |   |   residualsugar <= 1.15
|   |   |   |   |   residualsugar <= 1.1: 6 (4.0)
|   |   |   |   |   residualsugar > 1.1: 3 (1.0)
|   |   |   |   residualsugar > 1.15
|   |   |   |   |   chlorides <= 0.041
|   |   |   |   |   |   sulphates <= 0.64
|   |   |   |   |   |   |   density <= 0.99165: 7 (4.0)
|   |   |   |   |   |   |   density > 0.99165: 5 (10.0/5.0)
|   |   |   |   |   |   sulphates > 0.64: 6 (2.0)
|   |   |   |   |   chlorides > 0.041: 6 (11.0/2.0)

Number of Leaves  : 	216

Size of the tree : 	431


Weight: 1.35

J48 pruned tree
------------------

alcohol <= 10.9
|   volacid <= 0.25
|   |   fixedacid <= 9.1
|   |   |   freesulfur <= 62
|   |   |   |   citricacid <= 0.25
|   |   |   |   |   pH <= 3.35
|   |   |   |   |   |   freesulfur <= 23
|   |   |   |   |   |   |   pH <= 2.98: 6 (1.26)
|   |   |   |   |   |   |   pH > 2.98: 5 (11.05/0.63)
|   |   |   |   |   |   freesulfur > 23
|   |   |   |   |   |   |   totalsulfur <= 123: 6 (11.34)
|   |   |   |   |   |   |   totalsulfur > 123
|   |   |   |   |   |   |   |   chlorides <= 0.059
|   |   |   |   |   |   |   |   |   alcohol <= 9.4: 5 (6.11)
|   |   |   |   |   |   |   |   |   alcohol > 9.4
|   |   |   |   |   |   |   |   |   |   chlorides <= 0.048: 5 (11.15/2.52)
|   |   |   |   |   |   |   |   |   |   chlorides > 0.048: 6 (4.94/0.63)
|   |   |   |   |   |   |   |   chlorides > 0.059: 6 (3.78)
|   |   |   |   |   pH > 3.35
|   |   |   |   |   |   fixedacid <= 6.6: 6 (6.3)
|   |   |   |   |   |   fixedacid > 6.6: 7 (3.78/1.26)
|   |   |   |   citricacid > 0.25
|   |   |   |   |   alcohol <= 8.9
|   |   |   |   |   |   freesulfur <= 36
|   |   |   |   |   |   |   fixedacid <= 7.2
|   |   |   |   |   |   |   |   fixedacid <= 7: 5 (1.26)
|   |   |   |   |   |   |   |   fixedacid > 7: 6 (2.42)
|   |   |   |   |   |   |   fixedacid > 7.2: 7 (7.56)
|   |   |   |   |   |   freesulfur > 36
|   |   |   |   |   |   |   chlorides <= 0.051
|   |   |   |   |   |   |   |   fixedacid <= 6.3: 6 (2.52)
|   |   |   |   |   |   |   |   fixedacid > 6.3
|   |   |   |   |   |   |   |   |   sulphates <= 0.55: 5 (6.3)
|   |   |   |   |   |   |   |   |   sulphates > 0.55: 6 (1.26)
|   |   |   |   |   |   |   chlorides > 0.051
|   |   |   |   |   |   |   |   citricacid <= 0.28: 8 (5.04)
|   |   |   |   |   |   |   |   citricacid > 0.28
|   |   |   |   |   |   |   |   |   totalsulfur <= 198: 6 (5.67/0.63)
|   |   |   |   |   |   |   |   |   totalsulfur > 198: 8 (1.26)
|   |   |   |   |   alcohol > 8.9
|   |   |   |   |   |   volacid <= 0.155
|   |   |   |   |   |   |   sulphates <= 0.38
|   |   |   |   |   |   |   |   pH <= 3.19: 8 (6.11/1.26)
|   |   |   |   |   |   |   |   pH > 3.19: 6 (5.67)
|   |   |   |   |   |   |   sulphates > 0.38
|   |   |   |   |   |   |   |   alcohol <= 10.133333
|   |   |   |   |   |   |   |   |   density <= 0.99555
|   |   |   |   |   |   |   |   |   |   freesulfur <= 36: 5 (14.11/3.15)
|   |   |   |   |   |   |   |   |   |   freesulfur > 36
|   |   |   |   |   |   |   |   |   |   |   alcohol <= 9.7: 6 (3.78/0.63)
|   |   |   |   |   |   |   |   |   |   |   alcohol > 9.7: 7 (2.52/0.63)
|   |   |   |   |   |   |   |   |   density > 0.99555
|   |   |   |   |   |   |   |   |   |   alcohol <= 9.5: 7 (9.26/0.63)
|   |   |   |   |   |   |   |   |   |   alcohol > 9.5: 5 (1.26/0.63)
|   |   |   |   |   |   |   |   alcohol > 10.133333
|   |   |   |   |   |   |   |   |   alcohol <= 10.6
|   |   |   |   |   |   |   |   |   |   totalsulfur <= 113: 8 (2.52/0.63)
|   |   |   |   |   |   |   |   |   |   totalsulfur > 113: 6 (6.2)
|   |   |   |   |   |   |   |   |   alcohol > 10.6
|   |   |   |   |   |   |   |   |   |   totalsulfur <= 109: 6 (1.89)
|   |   |   |   |   |   |   |   |   |   totalsulfur > 109: 7 (4.31)
|   |   |   |   |   |   volacid > 0.155
|   |   |   |   |   |   |   fixedacid <= 7.5
|   |   |   |   |   |   |   |   sulphates <= 0.63
|   |   |   |   |   |   |   |   |   fixedacid <= 6.45
|   |   |   |   |   |   |   |   |   |   volacid <= 0.205
|   |   |   |   |   |   |   |   |   |   |   sulphates <= 0.47
|   |   |   |   |   |   |   |   |   |   |   |   volacid <= 0.175: 5 (9.79/0.63)
|   |   |   |   |   |   |   |   |   |   |   |   volacid > 0.175
|   |   |   |   |   |   |   |   |   |   |   |   |   fixedacid <= 5.8
|   |   |   |   |   |   |   |   |   |   |   |   |   |   sulphates <= 0.43: 7 (5.48)
|   |   |   |   |   |   |   |   |   |   |   |   |   |   sulphates > 0.43: 4 (1.26/0.63)
|   |   |   |   |   |   |   |   |   |   |   |   |   fixedacid > 5.8: 6 (2.52/0.63)
|   |   |   |   |   |   |   |   |   |   |   sulphates > 0.47: 6 (10.71/1.89)
|   |   |   |   |   |   |   |   |   |   volacid > 0.205
|   |   |   |   |   |   |   |   |   |   |   chlorides <= 0.063: 5 (38.82/10.71)
|   |   |   |   |   |   |   |   |   |   |   chlorides > 0.063: 6 (2.52)
|   |   |   |   |   |   |   |   |   fixedacid > 6.45
|   |   |   |   |   |   |   |   |   |   fixedacid <= 6.5
|   |   |   |   |   |   |   |   |   |   |   pH <= 3.27: 6 (1.89)
|   |   |   |   |   |   |   |   |   |   |   pH > 3.27: 7 (6.11)
|   |   |   |   |   |   |   |   |   |   fixedacid > 6.5
|   |   |   |   |   |   |   |   |   |   |   fixedacid <= 7.4
|   |   |   |   |   |   |   |   |   |   |   |   chlorides <= 0.045
|   |   |   |   |   |   |   |   |   |   |   |   |   fixedacid <= 6.6
|   |   |   |   |   |   |   |   |   |   |   |   |   |   freesulfur <= 32: 7 (5.48)
|   |   |   |   |   |   |   |   |   |   |   |   |   |   freesulfur > 32: 5 (8.53/0.63)
|   |   |   |   |   |   |   |   |   |   |   |   |   fixedacid > 6.6
|   |   |   |   |   |   |   |   |   |   |   |   |   |   pH <= 3.23
|   |   |   |   |   |   |   |   |   |   |   |   |   |   |   totalsulfur <= 153
|   |   |   |   |   |   |   |   |   |   |   |   |   |   |   |   citricacid <= 0.46
|   |   |   |   |   |   |   |   |   |   |   |   |   |   |   |   |   freesulfur <= 20: 7 (6.74/0.63)
|   |   |   |   |   |   |   |   |   |   |   |   |   |   |   |   |   freesulfur > 20
|   |   |   |   |   |   |   |   |   |   |   |   |   |   |   |   |   |   volacid <= 0.215
|   |   |   |   |   |   |   |   |   |   |   |   |   |   |   |   |   |   |   totalsulfur <= 123: 6 (7.46/2.52)
|   |   |   |   |   |   |   |   |   |   |   |   |   |   |   |   |   |   |   totalsulfur > 123: 7 (7.37)
|   |   |   |   |   |   |   |   |   |   |   |   |   |   |   |   |   |   volacid > 0.215: 6 (5.67)
|   |   |   |   |   |   |   |   |   |   |   |   |   |   |   |   citricacid > 0.46: 6 (4.31)
|   |   |   |   |   |   |   |   |   |   |   |   |   |   |   totalsulfur > 153: 6 (11.34)
|   |   |   |   |   |   |   |   |   |   |   |   |   |   pH > 3.23
|   |   |   |   |   |   |   |   |   |   |   |   |   |   |   volacid <= 0.205: 5 (7.37/2.52)
|   |   |   |   |   |   |   |   |   |   |   |   |   |   |   volacid > 0.205: 6 (5.67/0.63)
|   |   |   |   |   |   |   |   |   |   |   |   chlorides > 0.045
|   |   |   |   |   |   |   |   |   |   |   |   |   freesulfur <= 46
|   |   |   |   |   |   |   |   |   |   |   |   |   |   citricacid <= 0.27: 6 (4.41/0.63)
|   |   |   |   |   |   |   |   |   |   |   |   |   |   citricacid > 0.27: 5 (58.41/19.43)
|   |   |   |   |   |   |   |   |   |   |   |   |   freesulfur > 46
|   |   |   |   |   |   |   |   |   |   |   |   |   |   sulphates <= 0.47
|   |   |   |   |   |   |   |   |   |   |   |   |   |   |   volacid <= 0.215: 7 (1.26)
|   |   |   |   |   |   |   |   |   |   |   |   |   |   |   volacid > 0.215
|   |   |   |   |   |   |   |   |   |   |   |   |   |   |   |   residualsugar <= 13.1: 5 (3.15)
|   |   |   |   |   |   |   |   |   |   |   |   |   |   |   |   residualsugar > 13.1: 6 (3.15/0.63)
|   |   |   |   |   |   |   |   |   |   |   |   |   |   sulphates > 0.47
|   |   |   |   |   |   |   |   |   |   |   |   |   |   |   chlorides <= 0.062: 7 (15.8/1.26)
|   |   |   |   |   |   |   |   |   |   |   |   |   |   |   chlorides > 0.062: 6 (1.26)
|   |   |   |   |   |   |   |   |   |   |   fixedacid > 7.4
|   |   |   |   |   |   |   |   |   |   |   |   totalsulfur <= 164
|   |   |   |   |   |   |   |   |   |   |   |   |   residualsugar <= 5.6: 6 (1.89)
|   |   |   |   |   |   |   |   |   |   |   |   |   residualsugar > 5.6: 7 (4.85)
|   |   |   |   |   |   |   |   |   |   |   |   totalsulfur > 164: 6 (2.52)
|   |   |   |   |   |   |   |   sulphates > 0.63
|   |   |   |   |   |   |   |   |   sulphates <= 0.64
|   |   |   |   |   |   |   |   |   |   residualsugar <= 2.4: 8 (3.05)
|   |   |   |   |   |   |   |   |   |   residualsugar > 2.4: 4 (3.68/1.26)
|   |   |   |   |   |   |   |   |   sulphates > 0.64
|   |   |   |   |   |   |   |   |   |   chlorides <= 0.041
|   |   |   |   |   |   |   |   |   |   |   sulphates <= 0.68: 6 (1.89)
|   |   |   |   |   |   |   |   |   |   |   sulphates > 0.68
|   |   |   |   |   |   |   |   |   |   |   |   volacid <= 0.19: 6 (1.89/0.63)
|   |   |   |   |   |   |   |   |   |   |   |   volacid > 0.19: 7 (8.53)
|   |   |   |   |   |   |   |   |   |   chlorides > 0.041
|   |   |   |   |   |   |   |   |   |   |   density <= 0.9935: 7 (1.89/0.63)
|   |   |   |   |   |   |   |   |   |   |   density > 0.9935
|   |   |   |   |   |   |   |   |   |   |   |   volacid <= 0.235
|   |   |   |   |   |   |   |   |   |   |   |   |   totalsulfur <= 172
|   |   |   |   |   |   |   |   |   |   |   |   |   |   residualsugar <= 1.45: 6 (1.26)
|   |   |   |   |   |   |   |   |   |   |   |   |   |   residualsugar > 1.45: 5 (7.9/0.63)
|   |   |   |   |   |   |   |   |   |   |   |   |   totalsulfur > 172: 6 (1.89)
|   |   |   |   |   |   |   |   |   |   |   |   volacid > 0.235: 6 (2.52)
|   |   |   |   |   |   |   fixedacid > 7.5
|   |   |   |   |   |   |   |   freesulfur <= 39
|   |   |   |   |   |   |   |   |   chlorides <= 0.035: 6 (2.52/1.26)
|   |   |   |   |   |   |   |   |   chlorides > 0.035
|   |   |   |   |   |   |   |   |   |   alcohol <= 9.6
|   |   |   |   |   |   |   |   |   |   |   pH <= 3.2: 5 (10.33)
|   |   |   |   |   |   |   |   |   |   |   pH > 3.2: 4 (1.26/0.63)
|   |   |   |   |   |   |   |   |   |   alcohol > 9.6
|   |   |   |   |   |   |   |   |   |   |   residualsugar <= 1.7: 5 (5.67/0.63)
|   |   |   |   |   |   |   |   |   |   |   residualsugar > 1.7
|   |   |   |   |   |   |   |   |   |   |   |   totalsulfur <= 143
|   |   |   |   |   |   |   |   |   |   |   |   |   totalsulfur <= 122: 6 (3.78/0.63)
|   |   |   |   |   |   |   |   |   |   |   |   |   totalsulfur > 122: 5 (4.94)
|   |   |   |   |   |   |   |   |   |   |   |   totalsulfur > 143: 6 (4.94)
|   |   |   |   |   |   |   |   freesulfur > 39: 6 (18.08/3.05)
|   |   |   freesulfur > 62
|   |   |   |   volacid <= 0.175
|   |   |   |   |   fixedacid <= 7.1: 6 (3.15/0.63)
|   |   |   |   |   fixedacid > 7.1: 7 (4.31/0.63)
|   |   |   |   volacid > 0.175
|   |   |   |   |   alcohol <= 10.133333
|   |   |   |   |   |   pH <= 3.32
|   |   |   |   |   |   |   totalsulfur <= 219.5: 5 (28.12/3.78)
|   |   |   |   |   |   |   totalsulfur > 219.5: 6 (2.52)
|   |   |   |   |   |   pH > 3.32: 3 (4.31/1.26)
|   |   |   |   |   alcohol > 10.133333: 6 (2.52/0.63)
|   |   fixedacid > 9.1
|   |   |   fixedacid <= 9.3: 4 (4.31/0.63)
|   |   |   fixedacid > 9.3
|   |   |   |   pH <= 2.94: 6 (3.15/0.63)
|   |   |   |   pH > 2.94: 5 (5.57/0.63)
|   volacid > 0.25
|   |   fixedacid <= 8.4
|   |   |   volacid <= 0.445
|   |   |   |   pH <= 3.34
|   |   |   |   |   freesulfur <= 14
|   |   |   |   |   |   alcohol <= 9.4: 5 (9.45/0.63)
|   |   |   |   |   |   alcohol > 9.4
|   |   |   |   |   |   |   pH <= 3.03: 4 (3.68)
|   |   |   |   |   |   |   pH > 3.03
|   |   |   |   |   |   |   |   fixedacid <= 7.9: 5 (16.28/8.09)
|   |   |   |   |   |   |   |   fixedacid > 7.9: 4 (3.05)
|   |   |   |   |   freesulfur > 14
|   |   |   |   |   |   alcohol <= 10.133333
|   |   |   |   |   |   |   chlorides <= 0.048
|   |   |   |   |   |   |   |   alcohol <= 9.4
|   |   |   |   |   |   |   |   |   pH <= 3.21
|   |   |   |   |   |   |   |   |   |   alcohol <= 9.1
|   |   |   |   |   |   |   |   |   |   |   alcohol <= 8.9
|   |   |   |   |   |   |   |   |   |   |   |   volacid <= 0.42
|   |   |   |   |   |   |   |   |   |   |   |   |   pH <= 3.06
|   |   |   |   |   |   |   |   |   |   |   |   |   |   alcohol <= 8.6: 5 (1.26)
|   |   |   |   |   |   |   |   |   |   |   |   |   |   alcohol > 8.6: 6 (5.04/1.26)
|   |   |   |   |   |   |   |   |   |   |   |   |   pH > 3.06: 5 (8.82)
|   |   |   |   |   |   |   |   |   |   |   |   volacid > 0.42: 6 (4.85)
|   |   |   |   |   |   |   |   |   |   |   alcohol > 8.9
|   |   |   |   |   |   |   |   |   |   |   |   freesulfur <= 46: 5 (3.15)
|   |   |   |   |   |   |   |   |   |   |   |   freesulfur > 46
|   |   |   |   |   |   |   |   |   |   |   |   |   volacid <= 0.27: 5 (1.26)
|   |   |   |   |   |   |   |   |   |   |   |   |   volacid > 0.27: 6 (21.28/1.26)
|   |   |   |   |   |   |   |   |   |   alcohol > 9.1
|   |   |   |   |   |   |   |   |   |   |   residualsugar <= 7.6
|   |   |   |   |   |   |   |   |   |   |   |   alcohol <= 9.3
|   |   |   |   |   |   |   |   |   |   |   |   |   residualsugar <= 7.4: 5 (3.15)
|   |   |   |   |   |   |   |   |   |   |   |   |   residualsugar > 7.4: 6 (2.42)
|   |   |   |   |   |   |   |   |   |   |   |   alcohol > 9.3
|   |   |   |   |   |   |   |   |   |   |   |   |   sulphates <= 0.45: 6 (5.48)
|   |   |   |   |   |   |   |   |   |   |   |   |   sulphates > 0.45: 5 (1.26)
|   |   |   |   |   |   |   |   |   |   |   residualsugar > 7.6: 5 (15.12)
|   |   |   |   |   |   |   |   |   pH > 3.21
|   |   |   |   |   |   |   |   |   |   fixedacid <= 6.2: 5 (3.15)
|   |   |   |   |   |   |   |   |   |   fixedacid > 6.2: 6 (16.43)
|   |   |   |   |   |   |   |   alcohol > 9.4
|   |   |   |   |   |   |   |   |   pH <= 3.3: 6 (124.49/20.16)
|   |   |   |   |   |   |   |   |   pH > 3.3
|   |   |   |   |   |   |   |   |   |   chlorides <= 0.04: 5 (4.31)
|   |   |   |   |   |   |   |   |   |   chlorides > 0.04: 6 (1.26)
|   |   |   |   |   |   |   chlorides > 0.048
|   |   |   |   |   |   |   |   totalsulfur <= 87: 4 (2.42)
|   |   |   |   |   |   |   |   totalsulfur > 87
|   |   |   |   |   |   |   |   |   volacid <= 0.315
|   |   |   |   |   |   |   |   |   |   volacid <= 0.295
|   |   |   |   |   |   |   |   |   |   |   alcohol <= 9.1
|   |   |   |   |   |   |   |   |   |   |   |   residualsugar <= 14.35
|   |   |   |   |   |   |   |   |   |   |   |   |   totalsulfur <= 164
|   |   |   |   |   |   |   |   |   |   |   |   |   |   freesulfur <= 36: 5 (1.26)
|   |   |   |   |   |   |   |   |   |   |   |   |   |   freesulfur > 36: 6 (3.68)
|   |   |   |   |   |   |   |   |   |   |   |   |   totalsulfur > 164: 5 (5.04)
|   |   |   |   |   |   |   |   |   |   |   |   residualsugar > 14.35: 7 (1.89)
|   |   |   |   |   |   |   |   |   |   |   alcohol > 9.1
|   |   |   |   |   |   |   |   |   |   |   |   freesulfur <= 28: 5 (3.15)
|   |   |   |   |   |   |   |   |   |   |   |   freesulfur > 28: 6 (49.59/9.98)
|   |   |   |   |   |   |   |   |   |   volacid > 0.295
|   |   |   |   |   |   |   |   |   |   |   sulphates <= 0.49
|   |   |   |   |   |   |   |   |   |   |   |   fixedacid <= 6.9: 5 (6.3)
|   |   |   |   |   |   |   |   |   |   |   |   fixedacid > 6.9: 6 (7.9/0.63)
|   |   |   |   |   |   |   |   |   |   |   sulphates > 0.49
|   |   |   |   |   |   |   |   |   |   |   |   pH <= 3.13: 5 (4.41/0.63)
|   |   |   |   |   |   |   |   |   |   |   |   pH > 3.13: 4 (8.53/1.26)
|   |   |   |   |   |   |   |   |   volacid > 0.315
|   |   |   |   |   |   |   |   |   |   alcohol <= 9.7
|   |   |   |   |   |   |   |   |   |   |   chlorides <= 0.052: 5 (11.34)
|   |   |   |   |   |   |   |   |   |   |   chlorides > 0.052
|   |   |   |   |   |   |   |   |   |   |   |   alcohol <= 9.2
|   |   |   |   |   |   |   |   |   |   |   |   |   pH <= 3.08: 5 (3.78)
|   |   |   |   |   |   |   |   |   |   |   |   |   pH > 3.08
|   |   |   |   |   |   |   |   |   |   |   |   |   |   pH <= 3.12: 6 (9.7)
|   |   |   |   |   |   |   |   |   |   |   |   |   |   pH > 3.12
|   |   |   |   |   |   |   |   |   |   |   |   |   |   |   freesulfur <= 35
|   |   |   |   |   |   |   |   |   |   |   |   |   |   |   |   totalsulfur <= 114: 5 (1.89)
|   |   |   |   |   |   |   |   |   |   |   |   |   |   |   |   totalsulfur > 114: 6 (12.12)
|   |   |   |   |   |   |   |   |   |   |   |   |   |   |   freesulfur > 35: 5 (5.04)
|   |   |   |   |   |   |   |   |   |   |   |   alcohol > 9.2
|   |   |   |   |   |   |   |   |   |   |   |   |   chlorides <= 0.06
|   |   |   |   |   |   |   |   |   |   |   |   |   |   sulphates <= 0.5
|   |   |   |   |   |   |   |   |   |   |   |   |   |   |   residualsugar <= 3.9: 6 (4.85)
|   |   |   |   |   |   |   |   |   |   |   |   |   |   |   residualsugar > 3.9: 5 (7.56)
|   |   |   |   |   |   |   |   |   |   |   |   |   |   sulphates > 0.5: 6 (5.48/0.63)
|   |   |   |   |   |   |   |   |   |   |   |   |   chlorides > 0.06: 5 (11.34)
|   |   |   |   |   |   |   |   |   |   alcohol > 9.7
|   |   |   |   |   |   |   |   |   |   |   citricacid <= 0.2: 5 (1.26)
|   |   |   |   |   |   |   |   |   |   |   citricacid > 0.2: 6 (16.43/1.89)
|   |   |   |   |   |   alcohol > 10.133333
|   |   |   |   |   |   |   volacid <= 0.305
|   |   |   |   |   |   |   |   fixedacid <= 6.7
|   |   |   |   |   |   |   |   |   density <= 0.9935
|   |   |   |   |   |   |   |   |   |   freesulfur <= 38.5: 4 (4.85)
|   |   |   |   |   |   |   |   |   |   freesulfur > 38.5: 6 (2.52/0.63)
|   |   |   |   |   |   |   |   |   density > 0.9935: 6 (9.26)
|   |   |   |   |   |   |   |   fixedacid > 6.7
|   |   |   |   |   |   |   |   |   fixedacid <= 7.7
|   |   |   |   |   |   |   |   |   |   alcohol <= 10.7: 5 (10.08/3.78)
|   |   |   |   |   |   |   |   |   |   alcohol > 10.7: 6 (1.89)
|   |   |   |   |   |   |   |   |   fixedacid > 7.7
|   |   |   |   |   |   |   |   |   |   density <= 0.995: 6 (1.89/0.63)
|   |   |   |   |   |   |   |   |   |   density > 0.995: 7 (6.74/1.26)
|   |   |   |   |   |   |   volacid > 0.305
|   |   |   |   |   |   |   |   alcohol <= 10.3
|   |   |   |   |   |   |   |   |   freesulfur <= 34
|   |   |   |   |   |   |   |   |   |   freesulfur <= 26: 5 (1.89)
|   |   |   |   |   |   |   |   |   |   freesulfur > 26: 6 (7.9/0.63)
|   |   |   |   |   |   |   |   |   freesulfur > 34: 5 (3.15)
|   |   |   |   |   |   |   |   alcohol > 10.3
|   |   |   |   |   |   |   |   |   freesulfur <= 26
|   |   |   |   |   |   |   |   |   |   alcohol <= 10.55
|   |   |   |   |   |   |   |   |   |   |   pH <= 3.13: 5 (1.26)
|   |   |   |   |   |   |   |   |   |   |   pH > 3.13: 6 (8.53/0.63)
|   |   |   |   |   |   |   |   |   |   alcohol > 10.55: 5 (2.52)
|   |   |   |   |   |   |   |   |   freesulfur > 26: 6 (25.5)
|   |   |   |   pH > 3.34
|   |   |   |   |   alcohol <= 9.633333
|   |   |   |   |   |   pH <= 3.48
|   |   |   |   |   |   |   pH <= 3.42: 5 (18.32/1.26)
|   |   |   |   |   |   |   pH > 3.42: 6 (2.52/0.63)
|   |   |   |   |   |   pH > 3.48: 4 (3.15)
|   |   |   |   |   alcohol > 9.633333
|   |   |   |   |   |   totalsulfur <= 216
|   |   |   |   |   |   |   fixedacid <= 6.45
|   |   |   |   |   |   |   |   totalsulfur <= 112: 6 (2.52/0.63)
|   |   |   |   |   |   |   |   totalsulfur > 112
|   |   |   |   |   |   |   |   |   citricacid <= 0.15: 5 (6.11/0.63)
|   |   |   |   |   |   |   |   |   citricacid > 0.15: 7 (9.89/0.63)
|   |   |   |   |   |   |   fixedacid > 6.45: 6 (10.61/1.26)
|   |   |   |   |   |   totalsulfur > 216: 5 (3.05/0.63)
|   |   |   volacid > 0.445
|   |   |   |   pH <= 3.01
|   |   |   |   |   citricacid <= 0.34: 6 (9.16/0.63)
|   |   |   |   |   citricacid > 0.34: 5 (1.89)
|   |   |   |   pH > 3.01
|   |   |   |   |   fixedacid <= 6.6
|   |   |   |   |   |   density <= 0.99252: 4 (5.48)
|   |   |   |   |   |   density > 0.99252
|   |   |   |   |   |   |   totalsulfur <= 191
|   |   |   |   |   |   |   |   freesulfur <= 18: 5 (2.52/0.63)
|   |   |   |   |   |   |   |   freesulfur > 18: 6 (14.11/1.89)
|   |   |   |   |   |   |   totalsulfur > 191
|   |   |   |   |   |   |   |   totalsulfur <= 205: 5 (3.68)
|   |   |   |   |   |   |   |   totalsulfur > 205: 4 (6.11/1.26)
|   |   |   |   |   fixedacid > 6.6
|   |   |   |   |   |   freesulfur <= 27
|   |   |   |   |   |   |   density <= 0.99438: 5 (2.52)
|   |   |   |   |   |   |   density > 0.99438: 4 (12.94/3.15)
|   |   |   |   |   |   freesulfur > 27: 5 (8.82)
|   |   fixedacid > 8.4
|   |   |   citricacid <= 0.24: 3 (2.42)
|   |   |   citricacid > 0.24
|   |   |   |   pH <= 3.17
|   |   |   |   |   volacid <= 0.335
|   |   |   |   |   |   chlorides <= 0.044: 6 (8.0/0.63)
|   |   |   |   |   |   chlorides > 0.044: 5 (6.2)
|   |   |   |   |   volacid > 0.335
|   |   |   |   |   |   chlorides <= 0.035: 5 (3.68)
|   |   |   |   |   |   chlorides > 0.035: 4 (9.16/0.63)
|   |   |   |   pH > 3.17
|   |   |   |   |   fixedacid <= 8.9: 6 (3.68)
|   |   |   |   |   fixedacid > 8.9: 9 (2.42)
alcohol > 10.9
|   freesulfur <= 10
|   |   volacid <= 0.315
|   |   |   pH <= 3.06: 4 (1.89/1.26)
|   |   |   pH > 3.06
|   |   |   |   alcohol <= 11.733333: 5 (17.06/1.26)
|   |   |   |   alcohol > 11.733333
|   |   |   |   |   alcohol <= 12.15: 6 (5.04)
|   |   |   |   |   alcohol > 12.15
|   |   |   |   |   |   sulphates <= 0.39: 4 (1.26/0.63)
|   |   |   |   |   |   sulphates > 0.39: 5 (4.85)
|   |   volacid > 0.315
|   |   |   volacid <= 0.48
|   |   |   |   alcohol <= 11.85: 4 (4.41/1.26)
|   |   |   |   alcohol > 11.85: 6 (5.04/1.89)
|   |   |   volacid > 0.48: 8 (3.05/0.63)
|   freesulfur > 10
|   |   pH <= 2.92
|   |   |   fixedacid <= 9.2
|   |   |   |   density <= 0.99066: 6 (3.15/1.26)
|   |   |   |   density > 0.99066: 5 (7.9/0.63)
|   |   |   fixedacid > 9.2: 3 (2.42)
|   |   pH > 2.92
|   |   |   pH <= 3.4
|   |   |   |   totalsulfur <= 158
|   |   |   |   |   residualsugar <= 1.15
|   |   |   |   |   |   freesulfur <= 52
|   |   |   |   |   |   |   sulphates <= 0.32: 3 (1.26/0.63)
|   |   |   |   |   |   |   sulphates > 0.32: 6 (28.16/6.93)
|   |   |   |   |   |   freesulfur > 52: 7 (4.31)
|   |   |   |   |   residualsugar > 1.15
|   |   |   |   |   |   fixedacid <= 7.3
|   |   |   |   |   |   |   alcohol <= 12.066667
|   |   |   |   |   |   |   |   fixedacid <= 6.5
|   |   |   |   |   |   |   |   |   freesulfur <= 15.5
|   |   |   |   |   |   |   |   |   |   residualsugar <= 3.9
|   |   |   |   |   |   |   |   |   |   |   fixedacid <= 6: 8 (4.31)
|   |   |   |   |   |   |   |   |   |   |   fixedacid > 6: 6 (1.26)
|   |   |   |   |   |   |   |   |   |   residualsugar > 3.9: 7 (2.42)
|   |   |   |   |   |   |   |   |   freesulfur > 15.5
|   |   |   |   |   |   |   |   |   |   fixedacid <= 6.3
|   |   |   |   |   |   |   |   |   |   |   freesulfur <= 46: 6 (38.14/10.61)
|   |   |   |   |   |   |   |   |   |   |   freesulfur > 46
|   |   |   |   |   |   |   |   |   |   |   |   freesulfur <= 62: 7 (8.09/1.89)
|   |   |   |   |   |   |   |   |   |   |   |   freesulfur > 62: 5 (1.26/0.63)
|   |   |   |   |   |   |   |   |   |   fixedacid > 6.3
|   |   |   |   |   |   |   |   |   |   |   totalsulfur <= 147: 7 (25.88/5.04)
|   |   |   |   |   |   |   |   |   |   |   totalsulfur > 147: 8 (2.42)
|   |   |   |   |   |   |   |   fixedacid > 6.5
|   |   |   |   |   |   |   |   |   pH <= 3.33
|   |   |   |   |   |   |   |   |   |   density <= 0.99107
|   |   |   |   |   |   |   |   |   |   |   citricacid <= 0.44
|   |   |   |   |   |   |   |   |   |   |   |   freesulfur <= 45: 6 (13.13/1.89)
|   |   |   |   |   |   |   |   |   |   |   |   freesulfur > 45: 5 (3.05)
|   |   |   |   |   |   |   |   |   |   |   citricacid > 0.44: 7 (1.26)
|   |   |   |   |   |   |   |   |   |   density > 0.99107
|   |   |   |   |   |   |   |   |   |   |   fixedacid <= 6.6
|   |   |   |   |   |   |   |   |   |   |   |   freesulfur <= 36
|   |   |   |   |   |   |   |   |   |   |   |   |   citricacid <= 0.34: 5 (2.42)
|   |   |   |   |   |   |   |   |   |   |   |   |   citricacid > 0.34: 6 (2.52)
|   |   |   |   |   |   |   |   |   |   |   |   freesulfur > 36: 8 (2.42)
|   |   |   |   |   |   |   |   |   |   |   fixedacid > 6.6
|   |   |   |   |   |   |   |   |   |   |   |   sulphates <= 0.51
|   |   |   |   |   |   |   |   |   |   |   |   |   totalsulfur <= 117: 6 (6.2/0.63)
|   |   |   |   |   |   |   |   |   |   |   |   |   totalsulfur > 117
|   |   |   |   |   |   |   |   |   |   |   |   |   |   totalsulfur <= 146
|   |   |   |   |   |   |   |   |   |   |   |   |   |   |   freesulfur <= 37: 8 (8.09/1.89)
|   |   |   |   |   |   |   |   |   |   |   |   |   |   |   freesulfur > 37: 7 (2.52)
|   |   |   |   |   |   |   |   |   |   |   |   |   |   totalsulfur > 146: 6 (1.89)
|   |   |   |   |   |   |   |   |   |   |   |   sulphates > 0.51
|   |   |   |   |   |   |   |   |   |   |   |   |   sulphates <= 0.68
|   |   |   |   |   |   |   |   |   |   |   |   |   |   citricacid <= 0.34
|   |   |   |   |   |   |   |   |   |   |   |   |   |   |   totalsulfur <= 118
|   |   |   |   |   |   |   |   |   |   |   |   |   |   |   |   citricacid <= 0.26: 6 (1.26)
|   |   |   |   |   |   |   |   |   |   |   |   |   |   |   |   citricacid > 0.26: 7 (8.72/1.26)
|   |   |   |   |   |   |   |   |   |   |   |   |   |   |   totalsulfur > 118: 6 (3.78)
|   |   |   |   |   |   |   |   |   |   |   |   |   |   citricacid > 0.34: 7 (7.37/0.63)
|   |   |   |   |   |   |   |   |   |   |   |   |   sulphates > 0.68: 6 (4.94)
|   |   |   |   |   |   |   |   |   pH > 3.33
|   |   |   |   |   |   |   |   |   |   alcohol <= 11.2: 5 (2.42)
|   |   |   |   |   |   |   |   |   |   alcohol > 11.2: 7 (7.37/0.63)
|   |   |   |   |   |   |   alcohol > 12.066667
|   |   |   |   |   |   |   |   freesulfur <= 18
|   |   |   |   |   |   |   |   |   chlorides <= 0.043
|   |   |   |   |   |   |   |   |   |   totalsulfur <= 120
|   |   |   |   |   |   |   |   |   |   |   residualsugar <= 1.25: 4 (1.26/0.63)
|   |   |   |   |   |   |   |   |   |   |   residualsugar > 1.25: 7 (28.12/4.41)
|   |   |   |   |   |   |   |   |   |   totalsulfur > 120: 6 (2.52)
|   |   |   |   |   |   |   |   |   chlorides > 0.043: 5 (2.42)
|   |   |   |   |   |   |   |   freesulfur > 18
|   |   |   |   |   |   |   |   |   chlorides <= 0.044
|   |   |   |   |   |   |   |   |   |   sulphates <= 0.35
|   |   |   |   |   |   |   |   |   |   |   density <= 0.99002: 8 (8.09/1.26)
|   |   |   |   |   |   |   |   |   |   |   density > 0.99002
|   |   |   |   |   |   |   |   |   |   |   |   sulphates <= 0.33: 6 (5.67)
|   |   |   |   |   |   |   |   |   |   |   |   sulphates > 0.33: 7 (1.26/0.63)
|   |   |   |   |   |   |   |   |   |   sulphates > 0.35
|   |   |   |   |   |   |   |   |   |   |   sulphates <= 0.62
|   |   |   |   |   |   |   |   |   |   |   |   sulphates <= 0.58
|   |   |   |   |   |   |   |   |   |   |   |   |   volacid <= 0.445
|   |   |   |   |   |   |   |   |   |   |   |   |   |   density <= 0.98994
|   |   |   |   |   |   |   |   |   |   |   |   |   |   |   residualsugar <= 3.5: 7 (33.44/6.3)
|   |   |   |   |   |   |   |   |   |   |   |   |   |   |   residualsugar > 3.5: 6 (3.68/0.63)
|   |   |   |   |   |   |   |   |   |   |   |   |   |   density > 0.98994
|   |   |   |   |   |   |   |   |   |   |   |   |   |   |   chlorides <= 0.021: 8 (3.05/0.63)
|   |   |   |   |   |   |   |   |   |   |   |   |   |   |   chlorides > 0.021
|   |   |   |   |   |   |   |   |   |   |   |   |   |   |   |   volacid <= 0.39
|   |   |   |   |   |   |   |   |   |   |   |   |   |   |   |   |   fixedacid <= 6.6: 7 (12.41/0.63)
|   |   |   |   |   |   |   |   |   |   |   |   |   |   |   |   |   fixedacid > 6.6
|   |   |   |   |   |   |   |   |   |   |   |   |   |   |   |   |   |   fixedacid <= 7: 6 (8.82/3.78)
|   |   |   |   |   |   |   |   |   |   |   |   |   |   |   |   |   |   fixedacid > 7
|   |   |   |   |   |   |   |   |   |   |   |   |   |   |   |   |   |   |   chlorides <= 0.034: 7 (6.2/2.42)
|   |   |   |   |   |   |   |   |   |   |   |   |   |   |   |   |   |   |   chlorides > 0.034: 8 (5.48)
|   |   |   |   |   |   |   |   |   |   |   |   |   |   |   |   volacid > 0.39: 6 (2.52)
|   |   |   |   |   |   |   |   |   |   |   |   |   volacid > 0.445
|   |   |   |   |   |   |   |   |   |   |   |   |   |   alcohol <= 13.4
|   |   |   |   |   |   |   |   |   |   |   |   |   |   |   residualsugar <= 3.1: 8 (6.74/0.63)
|   |   |   |   |   |   |   |   |   |   |   |   |   |   |   residualsugar > 3.1: 7 (3.15)
|   |   |   |   |   |   |   |   |   |   |   |   |   |   alcohol > 13.4: 5 (1.26/0.63)
|   |   |   |   |   |   |   |   |   |   |   |   sulphates > 0.58
|   |   |   |   |   |   |   |   |   |   |   |   |   chlorides <= 0.029: 6 (6.74/0.63)
|   |   |   |   |   |   |   |   |   |   |   |   |   chlorides > 0.029
|   |   |   |   |   |   |   |   |   |   |   |   |   |   freesulfur <= 28: 7 (3.15/0.63)
|   |   |   |   |   |   |   |   |   |   |   |   |   |   freesulfur > 28: 8 (9.7)
|   |   |   |   |   |   |   |   |   |   |   sulphates > 0.62
|   |   |   |   |   |   |   |   |   |   |   |   totalsulfur <= 126: 7 (11.24/0.63)
|   |   |   |   |   |   |   |   |   |   |   |   totalsulfur > 126: 8 (4.31/0.63)
|   |   |   |   |   |   |   |   |   chlorides > 0.044
|   |   |   |   |   |   |   |   |   |   volacid <= 0.255: 8 (5.48)
|   |   |   |   |   |   |   |   |   |   volacid > 0.255: 6 (5.57)
|   |   |   |   |   |   fixedacid > 7.3
|   |   |   |   |   |   |   density <= 0.99063
|   |   |   |   |   |   |   |   fixedacid <= 7.4: 9 (2.42)
|   |   |   |   |   |   |   |   fixedacid > 7.4: 6 (3.78)
|   |   |   |   |   |   |   density > 0.99063
|   |   |   |   |   |   |   |   volacid <= 0.36
|   |   |   |   |   |   |   |   |   pH <= 3.21
|   |   |   |   |   |   |   |   |   |   alcohol <= 11.55
|   |   |   |   |   |   |   |   |   |   |   freesulfur <= 30
|   |   |   |   |   |   |   |   |   |   |   |   citricacid <= 0.44: 6 (14.83/3.78)
|   |   |   |   |   |   |   |   |   |   |   |   citricacid > 0.44: 7 (5.57/1.89)
|   |   |   |   |   |   |   |   |   |   |   freesulfur > 30: 7 (10.52/1.26)
|   |   |   |   |   |   |   |   |   |   alcohol > 11.55
|   |   |   |   |   |   |   |   |   |   |   citricacid <= 0.36
|   |   |   |   |   |   |   |   |   |   |   |   fixedacid <= 7.8: 7 (3.15)
|   |   |   |   |   |   |   |   |   |   |   |   fixedacid > 7.8
|   |   |   |   |   |   |   |   |   |   |   |   |   chlorides <= 0.031: 7 (1.26)
|   |   |   |   |   |   |   |   |   |   |   |   |   chlorides > 0.031: 6 (3.15)
|   |   |   |   |   |   |   |   |   |   |   citricacid > 0.36: 6 (11.05/0.63)
|   |   |   |   |   |   |   |   |   pH > 3.21
|   |   |   |   |   |   |   |   |   |   freesulfur <= 15.5: 5 (1.26)
|   |   |   |   |   |   |   |   |   |   freesulfur > 15.5: 6 (12.94/0.63)
|   |   |   |   |   |   |   |   volacid > 0.36
|   |   |   |   |   |   |   |   |   alcohol <= 11.633333: 6 (3.05)
|   |   |   |   |   |   |   |   |   alcohol > 11.633333
|   |   |   |   |   |   |   |   |   |   citricacid <= 0.27: 8 (3.05/0.63)
|   |   |   |   |   |   |   |   |   |   citricacid > 0.27: 7 (8.72/0.63)
|   |   |   |   totalsulfur > 158
|   |   |   |   |   density <= 0.99095
|   |   |   |   |   |   residualsugar <= 2.6
|   |   |   |   |   |   |   citricacid <= 0.36: 8 (7.27)
|   |   |   |   |   |   |   citricacid > 0.36: 5 (1.26/0.63)
|   |   |   |   |   |   residualsugar > 2.6: 6 (1.89/0.63)
|   |   |   |   |   density > 0.99095
|   |   |   |   |   |   sulphates <= 0.38
|   |   |   |   |   |   |   sulphates <= 0.36
|   |   |   |   |   |   |   |   freesulfur <= 45: 5 (1.26/0.63)
|   |   |   |   |   |   |   |   freesulfur > 45: 6 (3.15)
|   |   |   |   |   |   |   sulphates > 0.36: 8 (3.68)
|   |   |   |   |   |   sulphates > 0.38
|   |   |   |   |   |   |   chlorides <= 0.051
|   |   |   |   |   |   |   |   freesulfur <= 21
|   |   |   |   |   |   |   |   |   fixedacid <= 7.1: 5 (4.31/0.63)
|   |   |   |   |   |   |   |   |   fixedacid > 7.1: 6 (1.89)
|   |   |   |   |   |   |   |   freesulfur > 21
|   |   |   |   |   |   |   |   |   density <= 0.99479: 6 (23.65/1.89)
|   |   |   |   |   |   |   |   |   density > 0.99479: 7 (1.89/0.63)
|   |   |   |   |   |   |   chlorides > 0.051
|   |   |   |   |   |   |   |   citricacid <= 0.34: 6 (2.52)
|   |   |   |   |   |   |   |   citricacid > 0.34: 5 (4.85)
|   |   |   pH > 3.4
|   |   |   |   volacid <= 0.13: 8 (4.85)
|   |   |   |   volacid > 0.13
|   |   |   |   |   chlorides <= 0.029
|   |   |   |   |   |   chlorides <= 0.026
|   |   |   |   |   |   |   fixedacid <= 6.3: 8 (2.42)
|   |   |   |   |   |   |   fixedacid > 6.3: 9 (2.42)
|   |   |   |   |   |   chlorides > 0.026: 7 (4.31)
|   |   |   |   |   chlorides > 0.029
|   |   |   |   |   |   fixedacid <= 5.4
|   |   |   |   |   |   |   alcohol <= 12.3: 6 (3.78/1.26)
|   |   |   |   |   |   |   alcohol > 12.3: 8 (1.89)
|   |   |   |   |   |   fixedacid > 5.4
|   |   |   |   |   |   |   alcohol <= 11.1
|   |   |   |   |   |   |   |   residualsugar <= 1.25: 7 (1.89)
|   |   |   |   |   |   |   |   residualsugar > 1.25: 6 (4.41)
|   |   |   |   |   |   |   alcohol > 11.1
|   |   |   |   |   |   |   |   volacid <= 0.45
|   |   |   |   |   |   |   |   |   residualsugar <= 2.6: 5 (14.64/1.26)
|   |   |   |   |   |   |   |   |   residualsugar > 2.6: 7 (3.15/1.26)
|   |   |   |   |   |   |   |   volacid > 0.45: 6 (3.05)

Number of Leaves  : 	269

Size of the tree : 	537


Weight: 1.96

J48 pruned tree
------------------

alcohol <= 10
|   volacid <= 0.25
|   |   fixedacid <= 9.1
|   |   |   alcohol <= 8.9
|   |   |   |   freesulfur <= 36
|   |   |   |   |   fixedacid <= 7.2: 6 (2.1/0.72)
|   |   |   |   |   fixedacid > 7.2: 7 (4.31)
|   |   |   |   freesulfur > 36
|   |   |   |   |   chlorides <= 0.051
|   |   |   |   |   |   fixedacid <= 6.3: 6 (2.51/0.36)
|   |   |   |   |   |   fixedacid > 6.3: 5 (6.11/1.44)
|   |   |   |   |   chlorides > 0.051
|   |   |   |   |   |   alcohol <= 8.7: 6 (1.08)
|   |   |   |   |   |   alcohol > 8.7
|   |   |   |   |   |   |   residualsugar <= 13: 6 (1.08)
|   |   |   |   |   |   |   residualsugar > 13: 8 (6.87/0.72)
|   |   |   alcohol > 8.9
|   |   |   |   freesulfur <= 68
|   |   |   |   |   fixedacid <= 7.5
|   |   |   |   |   |   citricacid <= 0.27
|   |   |   |   |   |   |   totalsulfur <= 134
|   |   |   |   |   |   |   |   residualsugar <= 5.3
|   |   |   |   |   |   |   |   |   citricacid <= 0.26
|   |   |   |   |   |   |   |   |   |   density <= 0.99335: 6 (1.44/0.36)
|   |   |   |   |   |   |   |   |   |   density > 0.99335: 5 (5.89)
|   |   |   |   |   |   |   |   |   citricacid > 0.26: 6 (3.99/0.72)
|   |   |   |   |   |   |   |   residualsugar > 5.3: 6 (23.65)
|   |   |   |   |   |   |   totalsulfur > 134
|   |   |   |   |   |   |   |   freesulfur <= 40: 6 (9.73/0.36)
|   |   |   |   |   |   |   |   freesulfur > 40: 5 (14.14/1.44)
|   |   |   |   |   |   citricacid > 0.27
|   |   |   |   |   |   |   volacid <= 0.145
|   |   |   |   |   |   |   |   residualsugar <= 10.1
|   |   |   |   |   |   |   |   |   freesulfur <= 36: 6 (8.75)
|   |   |   |   |   |   |   |   |   freesulfur > 36
|   |   |   |   |   |   |   |   |   |   pH <= 3.26: 6 (5.47)
|   |   |   |   |   |   |   |   |   |   pH > 3.26: 7 (3.48)
|   |   |   |   |   |   |   |   residualsugar > 10.1: 8 (1.74/0.36)
|   |   |   |   |   |   |   volacid > 0.145
|   |   |   |   |   |   |   |   chlorides <= 0.042
|   |   |   |   |   |   |   |   |   pH <= 3.25
|   |   |   |   |   |   |   |   |   |   fixedacid <= 6.7
|   |   |   |   |   |   |   |   |   |   |   citricacid <= 0.33: 6 (1.44)
|   |   |   |   |   |   |   |   |   |   |   citricacid > 0.33: 5 (5.58/0.36)
|   |   |   |   |   |   |   |   |   |   fixedacid > 6.7
|   |   |   |   |   |   |   |   |   |   |   volacid <= 0.22: 7 (2.82/0.72)
|   |   |   |   |   |   |   |   |   |   |   volacid > 0.22: 6 (2.16)
|   |   |   |   |   |   |   |   |   pH > 3.25
|   |   |   |   |   |   |   |   |   |   freesulfur <= 39: 6 (1.8/0.36)
|   |   |   |   |   |   |   |   |   |   freesulfur > 39: 7 (11.0/0.36)
|   |   |   |   |   |   |   |   chlorides > 0.042
|   |   |   |   |   |   |   |   |   freesulfur <= 22
|   |   |   |   |   |   |   |   |   |   freesulfur <= 17: 6 (1.44)
|   |   |   |   |   |   |   |   |   |   freesulfur > 17
|   |   |   |   |   |   |   |   |   |   |   residualsugar <= 1.45: 7 (3.28/0.72)
|   |   |   |   |   |   |   |   |   |   |   residualsugar > 1.45: 5 (9.73/0.36)
|   |   |   |   |   |   |   |   |   freesulfur > 22
|   |   |   |   |   |   |   |   |   |   totalsulfur <= 221
|   |   |   |   |   |   |   |   |   |   |   chlorides <= 0.054: 6 (79.94/15.01)
|   |   |   |   |   |   |   |   |   |   |   chlorides > 0.054
|   |   |   |   |   |   |   |   |   |   |   |   alcohol <= 9
|   |   |   |   |   |   |   |   |   |   |   |   |   residualsugar <= 13.9: 6 (3.63)
|   |   |   |   |   |   |   |   |   |   |   |   |   residualsugar > 13.9: 7 (3.48/0.72)
|   |   |   |   |   |   |   |   |   |   |   |   alcohol > 9
|   |   |   |   |   |   |   |   |   |   |   |   |   alcohol <= 9.533333
|   |   |   |   |   |   |   |   |   |   |   |   |   |   alcohol <= 9.4: 5 (9.52/0.72)
|   |   |   |   |   |   |   |   |   |   |   |   |   |   alcohol > 9.4: 7 (1.38)
|   |   |   |   |   |   |   |   |   |   |   |   |   alcohol > 9.533333
|   |   |   |   |   |   |   |   |   |   |   |   |   |   volacid <= 0.16: 5 (2.76)
|   |   |   |   |   |   |   |   |   |   |   |   |   |   volacid > 0.16: 6 (6.55/0.36)
|   |   |   |   |   |   |   |   |   |   totalsulfur > 221
|   |   |   |   |   |   |   |   |   |   |   fixedacid <= 7: 5 (1.38)
|   |   |   |   |   |   |   |   |   |   |   fixedacid > 7: 7 (2.76)
|   |   |   |   |   fixedacid > 7.5
|   |   |   |   |   |   alcohol <= 9.9
|   |   |   |   |   |   |   alcohol <= 9.1: 5 (2.92/0.36)
|   |   |   |   |   |   |   alcohol > 9.1
|   |   |   |   |   |   |   |   chlorides <= 0.055
|   |   |   |   |   |   |   |   |   pH <= 3.09: 5 (7.74/2.87)
|   |   |   |   |   |   |   |   |   pH > 3.09: 6 (9.78/0.72)
|   |   |   |   |   |   |   |   chlorides > 0.055: 5 (3.12)
|   |   |   |   |   |   alcohol > 9.9
|   |   |   |   |   |   |   volacid <= 0.225: 5 (13.12)
|   |   |   |   |   |   |   volacid > 0.225: 6 (1.08/0.36)
|   |   |   |   freesulfur > 68
|   |   |   |   |   volacid <= 0.16: 4 (3.28/0.72)
|   |   |   |   |   volacid > 0.16
|   |   |   |   |   |   pH <= 3.48
|   |   |   |   |   |   |   volacid <= 0.225: 6 (15.7/0.36)
|   |   |   |   |   |   |   volacid > 0.225
|   |   |   |   |   |   |   |   pH <= 3.21: 5 (4.87/0.36)
|   |   |   |   |   |   |   |   pH > 3.21: 6 (2.92)
|   |   |   |   |   |   pH > 3.48: 3 (1.38)
|   |   fixedacid > 9.1
|   |   |   freesulfur <= 15.5: 3 (2.56)
|   |   |   freesulfur > 15.5
|   |   |   |   density <= 0.9956: 4 (1.74)
|   |   |   |   density > 0.9956: 5 (2.51/1.08)
|   volacid > 0.25
|   |   fixedacid <= 8.4
|   |   |   totalsulfur <= 111
|   |   |   |   sulphates <= 0.67
|   |   |   |   |   freesulfur <= 25
|   |   |   |   |   |   freesulfur <= 16
|   |   |   |   |   |   |   pH <= 3.23
|   |   |   |   |   |   |   |   alcohol <= 9.8
|   |   |   |   |   |   |   |   |   totalsulfur <= 71: 6 (2.1/0.72)
|   |   |   |   |   |   |   |   |   totalsulfur > 71: 5 (7.23)
|   |   |   |   |   |   |   |   alcohol > 9.8: 4 (1.74)
|   |   |   |   |   |   |   pH > 3.23: 4 (7.22/0.36)
|   |   |   |   |   |   freesulfur > 16: 5 (9.11)
|   |   |   |   |   freesulfur > 25
|   |   |   |   |   |   citricacid <= 0.02: 4 (1.38)
|   |   |   |   |   |   citricacid > 0.02: 6 (3.84/0.36)
|   |   |   |   sulphates > 0.67: 6 (2.56)
|   |   |   totalsulfur > 111
|   |   |   |   chlorides <= 0.048
|   |   |   |   |   pH <= 3.38
|   |   |   |   |   |   volacid <= 0.445
|   |   |   |   |   |   |   volacid <= 0.425
|   |   |   |   |   |   |   |   chlorides <= 0.035
|   |   |   |   |   |   |   |   |   volacid <= 0.39: 6 (14.69/1.08)
|   |   |   |   |   |   |   |   |   volacid > 0.39: 5 (3.28)
|   |   |   |   |   |   |   |   chlorides > 0.035
|   |   |   |   |   |   |   |   |   alcohol <= 9.7
|   |   |   |   |   |   |   |   |   |   totalsulfur <= 205
|   |   |   |   |   |   |   |   |   |   |   residualsugar <= 14.6
|   |   |   |   |   |   |   |   |   |   |   |   pH <= 3.2
|   |   |   |   |   |   |   |   |   |   |   |   |   sulphates <= 0.46
|   |   |   |   |   |   |   |   |   |   |   |   |   |   pH <= 3.09
|   |   |   |   |   |   |   |   |   |   |   |   |   |   |   freesulfur <= 49: 5 (4.71/0.36)
|   |   |   |   |   |   |   |   |   |   |   |   |   |   |   freesulfur > 49: 6 (3.84/0.36)
|   |   |   |   |   |   |   |   |   |   |   |   |   |   pH > 3.09: 5 (16.38)
|   |   |   |   |   |   |   |   |   |   |   |   |   sulphates > 0.46
|   |   |   |   |   |   |   |   |   |   |   |   |   |   chlorides <= 0.044
|   |   |   |   |   |   |   |   |   |   |   |   |   |   |   sulphates <= 0.47: 6 (1.38)
|   |   |   |   |   |   |   |   |   |   |   |   |   |   |   sulphates > 0.47: 5 (7.23)
|   |   |   |   |   |   |   |   |   |   |   |   |   |   chlorides > 0.044
|   |   |   |   |   |   |   |   |   |   |   |   |   |   |   citricacid <= 0.37: 6 (10.04/0.36)
|   |   |   |   |   |   |   |   |   |   |   |   |   |   |   citricacid > 0.37
|   |   |   |   |   |   |   |   |   |   |   |   |   |   |   |   totalsulfur <= 172: 6 (2.1)
|   |   |   |   |   |   |   |   |   |   |   |   |   |   |   |   totalsulfur > 172: 5 (3.99/0.36)
|   |   |   |   |   |   |   |   |   |   |   |   pH > 3.2
|   |   |   |   |   |   |   |   |   |   |   |   |   freesulfur <= 26: 5 (2.46)
|   |   |   |   |   |   |   |   |   |   |   |   |   freesulfur > 26
|   |   |   |   |   |   |   |   |   |   |   |   |   |   fixedacid <= 6.2: 5 (1.8)
|   |   |   |   |   |   |   |   |   |   |   |   |   |   fixedacid > 6.2: 6 (16.23)
|   |   |   |   |   |   |   |   |   |   |   residualsugar > 14.6: 5 (20.62/1.74)
|   |   |   |   |   |   |   |   |   |   totalsulfur > 205
|   |   |   |   |   |   |   |   |   |   |   alcohol <= 8.9: 5 (2.16/0.36)
|   |   |   |   |   |   |   |   |   |   |   alcohol > 8.9: 6 (25.71/2.87)
|   |   |   |   |   |   |   |   |   alcohol > 9.7
|   |   |   |   |   |   |   |   |   |   density <= 0.99567
|   |   |   |   |   |   |   |   |   |   |   freesulfur <= 21: 6 (3.12/0.36)
|   |   |   |   |   |   |   |   |   |   |   freesulfur > 21: 5 (50.54/3.12)
|   |   |   |   |   |   |   |   |   |   density > 0.99567: 6 (7.42/2.92)
|   |   |   |   |   |   |   volacid > 0.425: 6 (9.26)
|   |   |   |   |   |   volacid > 0.445: 5 (14.49/0.36)
|   |   |   |   |   pH > 3.38
|   |   |   |   |   |   fixedacid <= 6.4: 7 (3.12/0.36)
|   |   |   |   |   |   fixedacid > 6.4
|   |   |   |   |   |   |   density <= 0.9987: 6 (1.8)
|   |   |   |   |   |   |   density > 0.9987: 5 (1.38)
|   |   |   |   chlorides > 0.048
|   |   |   |   |   density <= 0.99306
|   |   |   |   |   |   chlorides <= 0.059: 6 (17.83/0.36)
|   |   |   |   |   |   chlorides > 0.059: 5 (1.44)
|   |   |   |   |   density > 0.99306
|   |   |   |   |   |   chlorides <= 0.049
|   |   |   |   |   |   |   residualsugar <= 7.6: 4 (10.56/0.36)
|   |   |   |   |   |   |   residualsugar > 7.6
|   |   |   |   |   |   |   |   sulphates <= 0.44: 5 (3.28)
|   |   |   |   |   |   |   |   sulphates > 0.44: 6 (7.68/1.08)
|   |   |   |   |   |   chlorides > 0.049
|   |   |   |   |   |   |   pH <= 3.07
|   |   |   |   |   |   |   |   pH <= 3.06
|   |   |   |   |   |   |   |   |   citricacid <= 0.22: 6 (6.25/0.36)
|   |   |   |   |   |   |   |   |   citricacid > 0.22: 5 (6.47/0.36)
|   |   |   |   |   |   |   |   pH > 3.06: 7 (4.35/0.72)
|   |   |   |   |   |   |   pH > 3.07
|   |   |   |   |   |   |   |   fixedacid <= 7.7
|   |   |   |   |   |   |   |   |   freesulfur <= 22
|   |   |   |   |   |   |   |   |   |   density <= 0.9977
|   |   |   |   |   |   |   |   |   |   |   volacid <= 0.355: 5 (1.8/0.72)
|   |   |   |   |   |   |   |   |   |   |   volacid > 0.355: 6 (4.51/0.36)
|   |   |   |   |   |   |   |   |   |   density > 0.9977: 4 (3.12)
|   |   |   |   |   |   |   |   |   freesulfur > 22
|   |   |   |   |   |   |   |   |   |   fixedacid <= 5.9
|   |   |   |   |   |   |   |   |   |   |   chlorides <= 0.095: 4 (1.74/0.36)
|   |   |   |   |   |   |   |   |   |   |   chlorides > 0.095: 6 (2.76)
|   |   |   |   |   |   |   |   |   |   fixedacid > 5.9
|   |   |   |   |   |   |   |   |   |   |   pH <= 3.18
|   |   |   |   |   |   |   |   |   |   |   |   volacid <= 0.345: 5 (52.11/5.53)
|   |   |   |   |   |   |   |   |   |   |   |   volacid > 0.345
|   |   |   |   |   |   |   |   |   |   |   |   |   sulphates <= 0.49: 5 (2.51)
|   |   |   |   |   |   |   |   |   |   |   |   |   sulphates > 0.49: 6 (9.07/2.16)
|   |   |   |   |   |   |   |   |   |   |   pH > 3.18
|   |   |   |   |   |   |   |   |   |   |   |   volacid <= 0.415
|   |   |   |   |   |   |   |   |   |   |   |   |   pH <= 3.26
|   |   |   |   |   |   |   |   |   |   |   |   |   |   totalsulfur <= 162.5: 5 (1.8)
|   |   |   |   |   |   |   |   |   |   |   |   |   |   totalsulfur > 162.5: 6 (12.14/2.46)
|   |   |   |   |   |   |   |   |   |   |   |   |   pH > 3.26
|   |   |   |   |   |   |   |   |   |   |   |   |   |   totalsulfur <= 220: 5 (11.83/1.44)
|   |   |   |   |   |   |   |   |   |   |   |   |   |   totalsulfur > 220: 6 (2.1/0.36)
|   |   |   |   |   |   |   |   |   |   |   |   volacid > 0.415
|   |   |   |   |   |   |   |   |   |   |   |   |   sulphates <= 0.56
|   |   |   |   |   |   |   |   |   |   |   |   |   |   freesulfur <= 62: 5 (14.58)
|   |   |   |   |   |   |   |   |   |   |   |   |   |   freesulfur > 62: 4 (2.1/0.72)
|   |   |   |   |   |   |   |   |   |   |   |   |   sulphates > 0.56: 4 (1.38)
|   |   |   |   |   |   |   |   fixedacid > 7.7
|   |   |   |   |   |   |   |   |   totalsulfur <= 134: 5 (2.46)
|   |   |   |   |   |   |   |   |   totalsulfur > 134: 6 (9.83/0.36)
|   |   fixedacid > 8.4
|   |   |   citricacid <= 0.25: 3 (1.38)
|   |   |   citricacid > 0.25
|   |   |   |   volacid <= 0.335: 5 (3.18/0.72)
|   |   |   |   volacid > 0.335: 4 (4.2/1.08)
alcohol > 10
|   alcohol <= 12.066667
|   |   totalsulfur <= 192
|   |   |   residualsugar <= 1.05
|   |   |   |   residualsugar <= 0.7: 3 (3.63/1.08)
|   |   |   |   residualsugar > 0.7
|   |   |   |   |   volacid <= 0.22
|   |   |   |   |   |   volacid <= 0.13: 8 (1.38)
|   |   |   |   |   |   volacid > 0.13
|   |   |   |   |   |   |   totalsulfur <= 150: 6 (8.25/0.36)
|   |   |   |   |   |   |   totalsulfur > 150: 5 (2.56)
|   |   |   |   |   volacid > 0.22
|   |   |   |   |   |   freesulfur <= 37
|   |   |   |   |   |   |   citricacid <= 0.37
|   |   |   |   |   |   |   |   residualsugar <= 0.8: 4 (1.74)
|   |   |   |   |   |   |   |   residualsugar > 0.8: 5 (10.85/0.72)
|   |   |   |   |   |   |   citricacid > 0.37: 4 (3.99/0.72)
|   |   |   |   |   |   freesulfur > 37: 7 (2.56)
|   |   |   residualsugar > 1.05
|   |   |   |   fixedacid <= 7
|   |   |   |   |   residualsugar <= 12.1
|   |   |   |   |   |   density <= 0.99366
|   |   |   |   |   |   |   residualsugar <= 7
|   |   |   |   |   |   |   |   sulphates <= 0.81
|   |   |   |   |   |   |   |   |   fixedacid <= 5.5
|   |   |   |   |   |   |   |   |   |   fixedacid <= 4.7: 5 (1.38)
|   |   |   |   |   |   |   |   |   |   fixedacid > 4.7
|   |   |   |   |   |   |   |   |   |   |   sulphates <= 0.38: 8 (2.56)
|   |   |   |   |   |   |   |   |   |   |   sulphates > 0.38: 6 (11.47/0.72)
|   |   |   |   |   |   |   |   |   fixedacid > 5.5
|   |   |   |   |   |   |   |   |   |   totalsulfur <= 67
|   |   |   |   |   |   |   |   |   |   |   volacid <= 0.295: 6 (13.46/0.72)
|   |   |   |   |   |   |   |   |   |   |   volacid > 0.295: 5 (2.92)
|   |   |   |   |   |   |   |   |   |   totalsulfur > 67
|   |   |   |   |   |   |   |   |   |   |   pH <= 3.28
|   |   |   |   |   |   |   |   |   |   |   |   alcohol <= 10.3
|   |   |   |   |   |   |   |   |   |   |   |   |   pH <= 3.21: 6 (7.68/0.72)
|   |   |   |   |   |   |   |   |   |   |   |   |   pH > 3.21: 4 (2.46/1.08)
|   |   |   |   |   |   |   |   |   |   |   |   alcohol > 10.3
|   |   |   |   |   |   |   |   |   |   |   |   |   volacid <= 0.445
|   |   |   |   |   |   |   |   |   |   |   |   |   |   alcohol <= 11.9
|   |   |   |   |   |   |   |   |   |   |   |   |   |   |   density <= 0.99288
|   |   |   |   |   |   |   |   |   |   |   |   |   |   |   |   fixedacid <= 5.7: 5 (1.74)
|   |   |   |   |   |   |   |   |   |   |   |   |   |   |   |   fixedacid > 5.7
|   |   |   |   |   |   |   |   |   |   |   |   |   |   |   |   |   chlorides <= 0.026
|   |   |   |   |   |   |   |   |   |   |   |   |   |   |   |   |   |   volacid <= 0.215: 8 (1.38)
|   |   |   |   |   |   |   |   |   |   |   |   |   |   |   |   |   |   volacid > 0.215: 6 (2.92)
|   |   |   |   |   |   |   |   |   |   |   |   |   |   |   |   |   chlorides > 0.026
|   |   |   |   |   |   |   |   |   |   |   |   |   |   |   |   |   |   fixedacid <= 6.9
|   |   |   |   |   |   |   |   |   |   |   |   |   |   |   |   |   |   |   fixedacid <= 6: 6 (17.3/3.84)
|   |   |   |   |   |   |   |   |   |   |   |   |   |   |   |   |   |   |   fixedacid > 6
|   |   |   |   |   |   |   |   |   |   |   |   |   |   |   |   |   |   |   |   freesulfur <= 49
|   |   |   |   |   |   |   |   |   |   |   |   |   |   |   |   |   |   |   |   |   freesulfur <= 19
|   |   |   |   |   |   |   |   |   |   |   |   |   |   |   |   |   |   |   |   |   |   citricacid <= 0.44: 7 (6.76/1.08)
|   |   |   |   |   |   |   |   |   |   |   |   |   |   |   |   |   |   |   |   |   |   citricacid > 0.44: 5 (1.38)
|   |   |   |   |   |   |   |   |   |   |   |   |   |   |   |   |   |   |   |   |   freesulfur > 19
|   |   |   |   |   |   |   |   |   |   |   |   |   |   |   |   |   |   |   |   |   |   freesulfur <= 29
|   |   |   |   |   |   |   |   |   |   |   |   |   |   |   |   |   |   |   |   |   |   |   sulphates <= 0.52
|   |   |   |   |   |   |   |   |   |   |   |   |   |   |   |   |   |   |   |   |   |   |   |   volacid <= 0.16: 7 (1.74)
|   |   |   |   |   |   |   |   |   |   |   |   |   |   |   |   |   |   |   |   |   |   |   |   volacid > 0.16: 6 (22.72)
|   |   |   |   |   |   |   |   |   |   |   |   |   |   |   |   |   |   |   |   |   |   |   sulphates > 0.52: 7 (4.3)
|   |   |   |   |   |   |   |   |   |   |   |   |   |   |   |   |   |   |   |   |   |   freesulfur > 29
|   |   |   |   |   |   |   |   |   |   |   |   |   |   |   |   |   |   |   |   |   |   |   volacid <= 0.175
|   |   |   |   |   |   |   |   |   |   |   |   |   |   |   |   |   |   |   |   |   |   |   |   totalsulfur <= 119: 6 (7.53)
|   |   |   |   |   |   |   |   |   |   |   |   |   |   |   |   |   |   |   |   |   |   |   |   totalsulfur > 119: 7 (1.44)
|   |   |   |   |   |   |   |   |   |   |   |   |   |   |   |   |   |   |   |   |   |   |   volacid > 0.175
|   |   |   |   |   |   |   |   |   |   |   |   |   |   |   |   |   |   |   |   |   |   |   |   density <= 0.99254
|   |   |   |   |   |   |   |   |   |   |   |   |   |   |   |   |   |   |   |   |   |   |   |   |   totalsulfur <= 108
|   |   |   |   |   |   |   |   |   |   |   |   |   |   |   |   |   |   |   |   |   |   |   |   |   |   sulphates <= 0.44: 7 (11.22)
|   |   |   |   |   |   |   |   |   |   |   |   |   |   |   |   |   |   |   |   |   |   |   |   |   |   sulphates > 0.44: 6 (4.35)
|   |   |   |   |   |   |   |   |   |   |   |   |   |   |   |   |   |   |   |   |   |   |   |   |   totalsulfur > 108: 7 (20.98/1.8)
|   |   |   |   |   |   |   |   |   |   |   |   |   |   |   |   |   |   |   |   |   |   |   |   density > 0.99254: 6 (2.46)
|   |   |   |   |   |   |   |   |   |   |   |   |   |   |   |   |   |   |   |   freesulfur > 49: 7 (8.55/0.72)
|   |   |   |   |   |   |   |   |   |   |   |   |   |   |   |   |   |   fixedacid > 6.9: 6 (5.69/1.08)
|   |   |   |   |   |   |   |   |   |   |   |   |   |   |   density > 0.99288
|   |   |   |   |   |   |   |   |   |   |   |   |   |   |   |   volacid <= 0.215: 5 (4.56/1.8)
|   |   |   |   |   |   |   |   |   |   |   |   |   |   |   |   volacid > 0.215: 6 (16.42)
|   |   |   |   |   |   |   |   |   |   |   |   |   |   alcohol > 11.9
|   |   |   |   |   |   |   |   |   |   |   |   |   |   |   chlorides <= 0.038: 6 (6.91/0.36)
|   |   |   |   |   |   |   |   |   |   |   |   |   |   |   chlorides > 0.038: 5 (4.66/0.72)
|   |   |   |   |   |   |   |   |   |   |   |   |   volacid > 0.445: 5 (3.28/0.36)
|   |   |   |   |   |   |   |   |   |   |   pH > 3.28
|   |   |   |   |   |   |   |   |   |   |   |   freesulfur <= 17
|   |   |   |   |   |   |   |   |   |   |   |   |   volacid <= 0.425
|   |   |   |   |   |   |   |   |   |   |   |   |   |   totalsulfur <= 77: 8 (2.1/0.36)
|   |   |   |   |   |   |   |   |   |   |   |   |   |   totalsulfur > 77: 6 (2.16)
|   |   |   |   |   |   |   |   |   |   |   |   |   volacid > 0.425: 5 (1.38)
|   |   |   |   |   |   |   |   |   |   |   |   freesulfur > 17
|   |   |   |   |   |   |   |   |   |   |   |   |   residualsugar <= 2.4
|   |   |   |   |   |   |   |   |   |   |   |   |   |   pH <= 3.33
|   |   |   |   |   |   |   |   |   |   |   |   |   |   |   sulphates <= 0.58: 6 (11.47/3.28)
|   |   |   |   |   |   |   |   |   |   |   |   |   |   |   sulphates > 0.58: 8 (3.48/0.72)
|   |   |   |   |   |   |   |   |   |   |   |   |   |   pH > 3.33
|   |   |   |   |   |   |   |   |   |   |   |   |   |   |   fixedacid <= 6.6
|   |   |   |   |   |   |   |   |   |   |   |   |   |   |   |   residualsugar <= 2.3
|   |   |   |   |   |   |   |   |   |   |   |   |   |   |   |   |   sulphates <= 0.48
|   |   |   |   |   |   |   |   |   |   |   |   |   |   |   |   |   |   freesulfur <= 37: 6 (5.83)
|   |   |   |   |   |   |   |   |   |   |   |   |   |   |   |   |   |   freesulfur > 37: 5 (4.66/2.1)
|   |   |   |   |   |   |   |   |   |   |   |   |   |   |   |   |   sulphates > 0.48: 7 (31.86/3.9)
|   |   |   |   |   |   |   |   |   |   |   |   |   |   |   |   residualsugar > 2.3: 5 (1.38)
|   |   |   |   |   |   |   |   |   |   |   |   |   |   |   fixedacid > 6.6
|   |   |   |   |   |   |   |   |   |   |   |   |   |   |   |   totalsulfur <= 137: 6 (2.92)
|   |   |   |   |   |   |   |   |   |   |   |   |   |   |   |   totalsulfur > 137: 5 (4.15)
|   |   |   |   |   |   |   |   |   |   |   |   |   residualsugar > 2.4: 7 (38.44/3.54)
|   |   |   |   |   |   |   |   sulphates > 0.81
|   |   |   |   |   |   |   |   |   residualsugar <= 3.2: 8 (3.48)
|   |   |   |   |   |   |   |   |   residualsugar > 3.2: 4 (1.08/0.72)
|   |   |   |   |   |   |   residualsugar > 7
|   |   |   |   |   |   |   |   volacid <= 0.225
|   |   |   |   |   |   |   |   |   pH <= 3.12: 7 (4.66/0.36)
|   |   |   |   |   |   |   |   |   pH > 3.12: 8 (5.47)
|   |   |   |   |   |   |   |   volacid > 0.225
|   |   |   |   |   |   |   |   |   citricacid <= 0.22: 4 (1.38)
|   |   |   |   |   |   |   |   |   citricacid > 0.22
|   |   |   |   |   |   |   |   |   |   freesulfur <= 34: 6 (9.07)
|   |   |   |   |   |   |   |   |   |   freesulfur > 34: 8 (2.51/1.08)
|   |   |   |   |   |   density > 0.99366
|   |   |   |   |   |   |   sulphates <= 0.35: 5 (12.59/2.46)
|   |   |   |   |   |   |   sulphates > 0.35
|   |   |   |   |   |   |   |   pH <= 3.5
|   |   |   |   |   |   |   |   |   chlorides <= 0.039
|   |   |   |   |   |   |   |   |   |   citricacid <= 0.31
|   |   |   |   |   |   |   |   |   |   |   density <= 0.99402: 5 (2.82/0.72)
|   |   |   |   |   |   |   |   |   |   |   density > 0.99402
|   |   |   |   |   |   |   |   |   |   |   |   alcohol <= 10.2: 6 (1.08/0.36)
|   |   |   |   |   |   |   |   |   |   |   |   alcohol > 10.2: 7 (11.0/0.36)
|   |   |   |   |   |   |   |   |   |   citricacid > 0.31
|   |   |   |   |   |   |   |   |   |   |   pH <= 3.19: 5 (5.68/0.36)
|   |   |   |   |   |   |   |   |   |   |   pH > 3.19: 6 (4.3)
|   |   |   |   |   |   |   |   |   chlorides > 0.039
|   |   |   |   |   |   |   |   |   |   density <= 0.99379: 5 (1.74/0.36)
|   |   |   |   |   |   |   |   |   |   density > 0.99379: 6 (31.69/3.84)
|   |   |   |   |   |   |   |   pH > 3.5
|   |   |   |   |   |   |   |   |   volacid <= 0.16: 6 (4.66/1.38)
|   |   |   |   |   |   |   |   |   volacid > 0.16: 5 (7.06/0.36)
|   |   |   |   |   residualsugar > 12.1: 6 (23.25/1.08)
|   |   |   |   fixedacid > 7
|   |   |   |   |   volacid <= 0.16
|   |   |   |   |   |   density <= 0.9947: 6 (11.68)
|   |   |   |   |   |   density > 0.9947: 7 (3.84/0.36)
|   |   |   |   |   volacid > 0.16
|   |   |   |   |   |   density <= 0.99624
|   |   |   |   |   |   |   freesulfur <= 46
|   |   |   |   |   |   |   |   chlorides <= 0.048
|   |   |   |   |   |   |   |   |   freesulfur <= 7
|   |   |   |   |   |   |   |   |   |   chlorides <= 0.033: 4 (2.92)
|   |   |   |   |   |   |   |   |   |   chlorides > 0.033: 5 (7.12/0.72)
|   |   |   |   |   |   |   |   |   freesulfur > 7
|   |   |   |   |   |   |   |   |   |   citricacid <= 0.21: 4 (2.92/0.36)
|   |   |   |   |   |   |   |   |   |   citricacid > 0.21
|   |   |   |   |   |   |   |   |   |   |   fixedacid <= 8.9
|   |   |   |   |   |   |   |   |   |   |   |   freesulfur <= 40
|   |   |   |   |   |   |   |   |   |   |   |   |   totalsulfur <= 103
|   |   |   |   |   |   |   |   |   |   |   |   |   |   totalsulfur <= 82: 7 (7.93/1.08)
|   |   |   |   |   |   |   |   |   |   |   |   |   |   totalsulfur > 82
|   |   |   |   |   |   |   |   |   |   |   |   |   |   |   pH <= 3.04
|   |   |   |   |   |   |   |   |   |   |   |   |   |   |   |   chlorides <= 0.035: 8 (3.28/0.72)
|   |   |   |   |   |   |   |   |   |   |   |   |   |   |   |   chlorides > 0.035: 6 (1.08)
|   |   |   |   |   |   |   |   |   |   |   |   |   |   |   pH > 3.04
|   |   |   |   |   |   |   |   |   |   |   |   |   |   |   |   residualsugar <= 3.75: 5 (21.29/1.8)
|   |   |   |   |   |   |   |   |   |   |   |   |   |   |   |   residualsugar > 3.75: 6 (4.35/0.72)
|   |   |   |   |   |   |   |   |   |   |   |   |   totalsulfur > 103
|   |   |   |   |   |   |   |   |   |   |   |   |   |   residualsugar <= 1.15
|   |   |   |   |   |   |   |   |   |   |   |   |   |   |   fixedacid <= 8: 5 (3.94)
|   |   |   |   |   |   |   |   |   |   |   |   |   |   |   fixedacid > 8: 4 (2.56)
|   |   |   |   |   |   |   |   |   |   |   |   |   |   residualsugar > 1.15
|   |   |   |   |   |   |   |   |   |   |   |   |   |   |   density <= 0.99175
|   |   |   |   |   |   |   |   |   |   |   |   |   |   |   |   pH <= 3.17: 6 (3.23/0.72)
|   |   |   |   |   |   |   |   |   |   |   |   |   |   |   |   pH > 3.17: 8 (2.76)
|   |   |   |   |   |   |   |   |   |   |   |   |   |   |   density > 0.99175
|   |   |   |   |   |   |   |   |   |   |   |   |   |   |   |   alcohol <= 11.3
|   |   |   |   |   |   |   |   |   |   |   |   |   |   |   |   |   volacid <= 0.445
|   |   |   |   |   |   |   |   |   |   |   |   |   |   |   |   |   |   pH <= 2.95: 5 (3.94)
|   |   |   |   |   |   |   |   |   |   |   |   |   |   |   |   |   |   pH > 2.95
|   |   |   |   |   |   |   |   |   |   |   |   |   |   |   |   |   |   |   volacid <= 0.205: 7 (11.11/1.8)
|   |   |   |   |   |   |   |   |   |   |   |   |   |   |   |   |   |   |   volacid > 0.205
|   |   |   |   |   |   |   |   |   |   |   |   |   |   |   |   |   |   |   |   sulphates <= 0.39
|   |   |   |   |   |   |   |   |   |   |   |   |   |   |   |   |   |   |   |   |   residualsugar <= 10.05: 7 (8.29/1.44)
|   |   |   |   |   |   |   |   |   |   |   |   |   |   |   |   |   |   |   |   |   residualsugar > 10.05: 6 (1.74)
|   |   |   |   |   |   |   |   |   |   |   |   |   |   |   |   |   |   |   |   sulphates > 0.39
|   |   |   |   |   |   |   |   |   |   |   |   |   |   |   |   |   |   |   |   |   sulphates <= 0.69
|   |   |   |   |   |   |   |   |   |   |   |   |   |   |   |   |   |   |   |   |   |   freesulfur <= 28
|   |   |   |   |   |   |   |   |   |   |   |   |   |   |   |   |   |   |   |   |   |   |   fixedacid <= 8.1: 5 (11.01/3.9)
|   |   |   |   |   |   |   |   |   |   |   |   |   |   |   |   |   |   |   |   |   |   |   fixedacid > 8.1: 6 (2.92/0.36)
|   |   |   |   |   |   |   |   |   |   |   |   |   |   |   |   |   |   |   |   |   |   freesulfur > 28: 6 (9.22/0.36)
|   |   |   |   |   |   |   |   |   |   |   |   |   |   |   |   |   |   |   |   |   sulphates > 0.69: 7 (2.56)
|   |   |   |   |   |   |   |   |   |   |   |   |   |   |   |   |   volacid > 0.445
|   |   |   |   |   |   |   |   |   |   |   |   |   |   |   |   |   |   sulphates <= 0.4: 5 (1.8/0.72)
|   |   |   |   |   |   |   |   |   |   |   |   |   |   |   |   |   |   sulphates > 0.4: 4 (2.76)
|   |   |   |   |   |   |   |   |   |   |   |   |   |   |   |   alcohol > 11.3: 7 (12.95/1.08)
|   |   |   |   |   |   |   |   |   |   |   |   freesulfur > 40
|   |   |   |   |   |   |   |   |   |   |   |   |   fixedacid <= 7.6: 6 (9.52/0.72)
|   |   |   |   |   |   |   |   |   |   |   |   |   fixedacid > 7.6: 5 (7.27/1.8)
|   |   |   |   |   |   |   |   |   |   |   fixedacid > 8.9
|   |   |   |   |   |   |   |   |   |   |   |   freesulfur <= 20: 5 (7.42/0.36)
|   |   |   |   |   |   |   |   |   |   |   |   freesulfur > 20
|   |   |   |   |   |   |   |   |   |   |   |   |   residualsugar <= 6.8: 6 (8.8/0.36)
|   |   |   |   |   |   |   |   |   |   |   |   |   residualsugar > 6.8: 5 (2.56)
|   |   |   |   |   |   |   |   chlorides > 0.048
|   |   |   |   |   |   |   |   |   density <= 0.99134: 5 (6.5)
|   |   |   |   |   |   |   |   |   density > 0.99134
|   |   |   |   |   |   |   |   |   |   freesulfur <= 36
|   |   |   |   |   |   |   |   |   |   |   citricacid <= 0.26: 5 (2.56)
|   |   |   |   |   |   |   |   |   |   |   citricacid > 0.26: 6 (29.29/4.26)
|   |   |   |   |   |   |   |   |   |   freesulfur > 36
|   |   |   |   |   |   |   |   |   |   |   sulphates <= 0.54: 5 (5.53)
|   |   |   |   |   |   |   |   |   |   |   sulphates > 0.54: 7 (1.08/0.36)
|   |   |   |   |   |   |   freesulfur > 46
|   |   |   |   |   |   |   |   sulphates <= 0.37: 6 (4.26)
|   |   |   |   |   |   |   |   sulphates > 0.37
|   |   |   |   |   |   |   |   |   pH <= 3.25
|   |   |   |   |   |   |   |   |   |   sulphates <= 0.61
|   |   |   |   |   |   |   |   |   |   |   fixedacid <= 8: 7 (10.85/0.36)
|   |   |   |   |   |   |   |   |   |   |   fixedacid > 8: 6 (1.44/0.36)
|   |   |   |   |   |   |   |   |   |   sulphates > 0.61: 6 (2.76)
|   |   |   |   |   |   |   |   |   pH > 3.25: 6 (3.63)
|   |   |   |   |   |   density > 0.99624
|   |   |   |   |   |   |   pH <= 3.13
|   |   |   |   |   |   |   |   citricacid <= 0.47: 4 (3.48/0.72)
|   |   |   |   |   |   |   |   citricacid > 0.47: 7 (1.38)
|   |   |   |   |   |   |   pH > 3.13
|   |   |   |   |   |   |   |   volacid <= 0.26: 6 (1.08)
|   |   |   |   |   |   |   |   volacid > 0.26
|   |   |   |   |   |   |   |   |   chlorides <= 0.041: 9 (1.38)
|   |   |   |   |   |   |   |   |   chlorides > 0.041: 5 (9.11)
|   |   totalsulfur > 192
|   |   |   freesulfur <= 101
|   |   |   |   alcohol <= 10.3
|   |   |   |   |   alcohol <= 10.2
|   |   |   |   |   |   residualsugar <= 7.6: 6 (6.04)
|   |   |   |   |   |   residualsugar > 7.6: 5 (1.74/0.36)
|   |   |   |   |   alcohol > 10.2: 5 (4.66)
|   |   |   |   alcohol > 10.3: 6 (16.59/0.36)
|   |   |   freesulfur > 101: 3 (4.3/0.36)
|   alcohol > 12.066667
|   |   totalsulfur <= 66
|   |   |   sulphates <= 0.35: 4 (3.28/0.36)
|   |   |   sulphates > 0.35
|   |   |   |   freesulfur <= 7
|   |   |   |   |   volacid <= 0.335: 5 (1.38)
|   |   |   |   |   volacid > 0.335: 3 (2.56)
|   |   |   |   freesulfur > 7: 7 (3.28/0.36)
|   |   totalsulfur > 66
|   |   |   fixedacid <= 5.4
|   |   |   |   chlorides <= 0.016: 8 (2.92/0.36)
|   |   |   |   chlorides > 0.016
|   |   |   |   |   citricacid <= 0.16: 8 (2.51/0.72)
|   |   |   |   |   citricacid > 0.16: 7 (13.1/1.44)
|   |   |   fixedacid > 5.4
|   |   |   |   pH <= 3.38
|   |   |   |   |   alcohol <= 12.1
|   |   |   |   |   |   sulphates <= 0.38: 6 (2.16)
|   |   |   |   |   |   sulphates > 0.38
|   |   |   |   |   |   |   pH <= 3.34: 7 (12.95/0.72)
|   |   |   |   |   |   |   pH > 3.34: 8 (2.56)
|   |   |   |   |   alcohol > 12.1
|   |   |   |   |   |   totalsulfur <= 136
|   |   |   |   |   |   |   sulphates <= 0.52
|   |   |   |   |   |   |   |   chlorides <= 0.024
|   |   |   |   |   |   |   |   |   alcohol <= 12.4
|   |   |   |   |   |   |   |   |   |   sulphates <= 0.45: 6 (4.66/1.38)
|   |   |   |   |   |   |   |   |   |   sulphates > 0.45: 7 (1.38)
|   |   |   |   |   |   |   |   |   alcohol > 12.4: 7 (7.27)
|   |   |   |   |   |   |   |   chlorides > 0.024
|   |   |   |   |   |   |   |   |   totalsulfur <= 132
|   |   |   |   |   |   |   |   |   |   citricacid <= 0.38
|   |   |   |   |   |   |   |   |   |   |   sulphates <= 0.38
|   |   |   |   |   |   |   |   |   |   |   |   alcohol <= 12.8
|   |   |   |   |   |   |   |   |   |   |   |   |   density <= 0.9897
|   |   |   |   |   |   |   |   |   |   |   |   |   |   fixedacid <= 5.7: 7 (1.38)
|   |   |   |   |   |   |   |   |   |   |   |   |   |   fixedacid > 5.7: 6 (22.26/0.36)
|   |   |   |   |   |   |   |   |   |   |   |   |   density > 0.9897
|   |   |   |   |   |   |   |   |   |   |   |   |   |   chlorides <= 0.034
|   |   |   |   |   |   |   |   |   |   |   |   |   |   |   alcohol <= 12.4: 6 (1.8/0.36)
|   |   |   |   |   |   |   |   |   |   |   |   |   |   |   alcohol > 12.4: 8 (5.83/0.72)
|   |   |   |   |   |   |   |   |   |   |   |   |   |   chlorides > 0.034: 7 (6.4/1.08)
|   |   |   |   |   |   |   |   |   |   |   |   alcohol > 12.8: 8 (4.2)
|   |   |   |   |   |   |   |   |   |   |   sulphates > 0.38: 6 (48.96/6.05)
|   |   |   |   |   |   |   |   |   |   citricacid > 0.38
|   |   |   |   |   |   |   |   |   |   |   alcohol <= 12.9
|   |   |   |   |   |   |   |   |   |   |   |   fixedacid <= 7.3: 8 (7.33/1.44)
|   |   |   |   |   |   |   |   |   |   |   |   fixedacid > 7.3: 6 (4.26/0.36)
|   |   |   |   |   |   |   |   |   |   |   alcohol > 12.9: 7 (3.94)
|   |   |   |   |   |   |   |   |   totalsulfur > 132: 7 (4.35/0.36)
|   |   |   |   |   |   |   sulphates > 0.52
|   |   |   |   |   |   |   |   freesulfur <= 21
|   |   |   |   |   |   |   |   |   residualsugar <= 2.7: 6 (15.61/2.1)
|   |   |   |   |   |   |   |   |   residualsugar > 2.7
|   |   |   |   |   |   |   |   |   |   freesulfur <= 18: 7 (7.63/0.72)
|   |   |   |   |   |   |   |   |   |   freesulfur > 18: 6 (3.99)
|   |   |   |   |   |   |   |   freesulfur > 21
|   |   |   |   |   |   |   |   |   sulphates <= 0.79
|   |   |   |   |   |   |   |   |   |   chlorides <= 0.029
|   |   |   |   |   |   |   |   |   |   |   pH <= 3.24: 7 (6.91)
|   |   |   |   |   |   |   |   |   |   |   pH > 3.24: 6 (5.53)
|   |   |   |   |   |   |   |   |   |   chlorides > 0.029
|   |   |   |   |   |   |   |   |   |   |   alcohol <= 12.8
|   |   |   |   |   |   |   |   |   |   |   |   sulphates <= 0.62
|   |   |   |   |   |   |   |   |   |   |   |   |   freesulfur <= 26: 7 (1.8/0.36)
|   |   |   |   |   |   |   |   |   |   |   |   |   freesulfur > 26: 8 (10.45/2.16)
|   |   |   |   |   |   |   |   |   |   |   |   sulphates > 0.62: 7 (4.35)
|   |   |   |   |   |   |   |   |   |   |   alcohol > 12.8: 7 (7.63)
|   |   |   |   |   |   |   |   |   sulphates > 0.79: 5 (2.56)
|   |   |   |   |   |   totalsulfur > 136
|   |   |   |   |   |   |   totalsulfur <= 155
|   |   |   |   |   |   |   |   residualsugar <= 2: 9 (1.38)
|   |   |   |   |   |   |   |   residualsugar > 2
|   |   |   |   |   |   |   |   |   freesulfur <= 49
|   |   |   |   |   |   |   |   |   |   totalsulfur <= 153
|   |   |   |   |   |   |   |   |   |   |   residualsugar <= 4.8: 7 (4.71)
|   |   |   |   |   |   |   |   |   |   |   residualsugar > 4.8: 6 (2.51/1.08)
|   |   |   |   |   |   |   |   |   |   totalsulfur > 153: 8 (3.12/0.36)
|   |   |   |   |   |   |   |   |   freesulfur > 49: 8 (5.11)
|   |   |   |   |   |   |   totalsulfur > 155: 6 (12.49/3.12)
|   |   |   |   pH > 3.38
|   |   |   |   |   chlorides <= 0.031
|   |   |   |   |   |   fixedacid <= 6.3
|   |   |   |   |   |   |   freesulfur <= 49: 7 (4.2)
|   |   |   |   |   |   |   freesulfur > 49: 8 (1.38)
|   |   |   |   |   |   fixedacid > 6.3: 9 (1.38)
|   |   |   |   |   chlorides > 0.031
|   |   |   |   |   |   sulphates <= 0.45: 5 (4.15)
|   |   |   |   |   |   sulphates > 0.45: 6 (4.3/0.36)

Number of Leaves  : 	271

Size of the tree : 	541


Weight: 2.32

J48 pruned tree
------------------

alcohol <= 10.9
|   volacid <= 0.25
|   |   volacid <= 0.155
|   |   |   density <= 0.99773
|   |   |   |   freesulfur <= 54
|   |   |   |   |   alcohol <= 10.3
|   |   |   |   |   |   pH <= 3.23: 6 (16.76/1.35)
|   |   |   |   |   |   pH > 3.23
|   |   |   |   |   |   |   alcohol <= 10
|   |   |   |   |   |   |   |   residualsugar <= 4.55: 5 (6.08/0.39)
|   |   |   |   |   |   |   |   residualsugar > 4.55
|   |   |   |   |   |   |   |   |   totalsulfur <= 109: 6 (4.81)
|   |   |   |   |   |   |   |   |   totalsulfur > 109: 5 (2.87/1.15)
|   |   |   |   |   |   |   alcohol > 10: 6 (4.56/0.2)
|   |   |   |   |   alcohol > 10.3
|   |   |   |   |   |   volacid <= 0.145
|   |   |   |   |   |   |   residualsugar <= 1.85: 7 (1.15)
|   |   |   |   |   |   |   residualsugar > 1.85: 6 (4.79)
|   |   |   |   |   |   volacid > 0.145: 8 (13.88/0.2)
|   |   |   |   freesulfur > 54
|   |   |   |   |   sulphates <= 0.38: 4 (1.4)
|   |   |   |   |   sulphates > 0.38: 7 (5.94/0.79)
|   |   |   density > 0.99773: 7 (11.99)
|   |   volacid > 0.155
|   |   |   totalsulfur <= 111
|   |   |   |   totalsulfur <= 105
|   |   |   |   |   density <= 0.9968
|   |   |   |   |   |   freesulfur <= 11.5
|   |   |   |   |   |   |   alcohol <= 10.7
|   |   |   |   |   |   |   |   residualsugar <= 1.8: 5 (14.38)
|   |   |   |   |   |   |   |   residualsugar > 1.8: 4 (2.39/0.39)
|   |   |   |   |   |   |   alcohol > 10.7: 6 (3.4)
|   |   |   |   |   |   freesulfur > 11.5
|   |   |   |   |   |   |   sulphates <= 0.85
|   |   |   |   |   |   |   |   chlorides <= 0.046
|   |   |   |   |   |   |   |   |   volacid <= 0.215
|   |   |   |   |   |   |   |   |   |   chlorides <= 0.03: 6 (5.15/0.2)
|   |   |   |   |   |   |   |   |   |   chlorides > 0.03
|   |   |   |   |   |   |   |   |   |   |   volacid <= 0.175: 6 (3.74/0.96)
|   |   |   |   |   |   |   |   |   |   |   volacid > 0.175
|   |   |   |   |   |   |   |   |   |   |   |   freesulfur <= 30: 7 (9.56/0.99)
|   |   |   |   |   |   |   |   |   |   |   |   freesulfur > 30: 5 (1.4)
|   |   |   |   |   |   |   |   |   volacid > 0.215
|   |   |   |   |   |   |   |   |   |   residualsugar <= 8.45
|   |   |   |   |   |   |   |   |   |   |   totalsulfur <= 97
|   |   |   |   |   |   |   |   |   |   |   |   volacid <= 0.245: 8 (6.92/1.35)
|   |   |   |   |   |   |   |   |   |   |   |   volacid > 0.245: 7 (2.0)
|   |   |   |   |   |   |   |   |   |   |   totalsulfur > 97: 6 (1.6)
|   |   |   |   |   |   |   |   |   |   residualsugar > 8.45: 5 (2.39/0.2)
|   |   |   |   |   |   |   |   chlorides > 0.046
|   |   |   |   |   |   |   |   |   totalsulfur <= 84: 6 (5.6)
|   |   |   |   |   |   |   |   |   totalsulfur > 84
|   |   |   |   |   |   |   |   |   |   citricacid <= 0.33: 6 (5.15/0.96)
|   |   |   |   |   |   |   |   |   |   citricacid > 0.33: 5 (6.02/0.99)
|   |   |   |   |   |   |   sulphates > 0.85: 5 (7.69)
|   |   |   |   |   density > 0.9968
|   |   |   |   |   |   fixedacid <= 6.8: 6 (1.4)
|   |   |   |   |   |   fixedacid > 6.8: 7 (7.69)
|   |   |   |   totalsulfur > 105
|   |   |   |   |   residualsugar <= 2.8
|   |   |   |   |   |   chlorides <= 0.046: 4 (11.69/0.59)
|   |   |   |   |   |   chlorides > 0.046: 6 (4.59/0.79)
|   |   |   |   |   residualsugar > 2.8
|   |   |   |   |   |   citricacid <= 0.28
|   |   |   |   |   |   |   residualsugar <= 6.65: 5 (2.76)
|   |   |   |   |   |   |   residualsugar > 6.65: 6 (1.18)
|   |   |   |   |   |   citricacid > 0.28: 7 (4.41/0.2)
|   |   |   totalsulfur > 111
|   |   |   |   fixedacid <= 7.7
|   |   |   |   |   freesulfur <= 26
|   |   |   |   |   |   citricacid <= 0.21: 5 (2.76)
|   |   |   |   |   |   citricacid > 0.21
|   |   |   |   |   |   |   residualsugar <= 1.05: 5 (2.0)
|   |   |   |   |   |   |   residualsugar > 1.05: 6 (35.27/3.26)
|   |   |   |   |   freesulfur > 26
|   |   |   |   |   |   alcohol <= 10
|   |   |   |   |   |   |   alcohol <= 8: 3 (2.0)
|   |   |   |   |   |   |   alcohol > 8
|   |   |   |   |   |   |   |   volacid <= 0.205
|   |   |   |   |   |   |   |   |   residualsugar <= 1.35: 7 (3.6/0.2)
|   |   |   |   |   |   |   |   |   residualsugar > 1.35
|   |   |   |   |   |   |   |   |   |   alcohol <= 8.8: 8 (2.96/1.38)
|   |   |   |   |   |   |   |   |   |   alcohol > 8.8
|   |   |   |   |   |   |   |   |   |   |   fixedacid <= 7.4
|   |   |   |   |   |   |   |   |   |   |   |   fixedacid <= 6.45
|   |   |   |   |   |   |   |   |   |   |   |   |   density <= 0.99381: 7 (1.35/0.59)
|   |   |   |   |   |   |   |   |   |   |   |   |   density > 0.99381: 5 (2.67/0.2)
|   |   |   |   |   |   |   |   |   |   |   |   fixedacid > 6.45: 6 (31.02/3.8)
|   |   |   |   |   |   |   |   |   |   |   fixedacid > 7.4: 5 (2.11/0.39)
|   |   |   |   |   |   |   |   volacid > 0.205
|   |   |   |   |   |   |   |   |   alcohol <= 9.8
|   |   |   |   |   |   |   |   |   |   totalsulfur <= 119: 6 (6.41)
|   |   |   |   |   |   |   |   |   |   totalsulfur > 119
|   |   |   |   |   |   |   |   |   |   |   volacid <= 0.215
|   |   |   |   |   |   |   |   |   |   |   |   density <= 0.99297: 7 (2.0)
|   |   |   |   |   |   |   |   |   |   |   |   density > 0.99297: 5 (24.44/0.96)
|   |   |   |   |   |   |   |   |   |   |   volacid > 0.215
|   |   |   |   |   |   |   |   |   |   |   |   volacid <= 0.235
|   |   |   |   |   |   |   |   |   |   |   |   |   totalsulfur <= 128: 5 (7.69)
|   |   |   |   |   |   |   |   |   |   |   |   |   totalsulfur > 128
|   |   |   |   |   |   |   |   |   |   |   |   |   |   sulphates <= 0.42
|   |   |   |   |   |   |   |   |   |   |   |   |   |   |   totalsulfur <= 131: 7 (1.4)
|   |   |   |   |   |   |   |   |   |   |   |   |   |   |   totalsulfur > 131: 5 (3.97/0.59)
|   |   |   |   |   |   |   |   |   |   |   |   |   |   sulphates > 0.42: 6 (26.02/3.43)
|   |   |   |   |   |   |   |   |   |   |   |   volacid > 0.235
|   |   |   |   |   |   |   |   |   |   |   |   |   fixedacid <= 6.1: 6 (4.16/0.59)
|   |   |   |   |   |   |   |   |   |   |   |   |   fixedacid > 6.1: 5 (63.4/11.98)
|   |   |   |   |   |   |   |   |   alcohol > 9.8: 6 (5.8/0.39)
|   |   |   |   |   |   alcohol > 10
|   |   |   |   |   |   |   fixedacid <= 6.45
|   |   |   |   |   |   |   |   fixedacid <= 5.9: 6 (7.56/0.76)
|   |   |   |   |   |   |   |   fixedacid > 5.9
|   |   |   |   |   |   |   |   |   freesulfur <= 32
|   |   |   |   |   |   |   |   |   |   sulphates <= 0.52: 6 (2.81)
|   |   |   |   |   |   |   |   |   |   sulphates > 0.52: 7 (1.4)
|   |   |   |   |   |   |   |   |   freesulfur > 32
|   |   |   |   |   |   |   |   |   |   sulphates <= 0.69
|   |   |   |   |   |   |   |   |   |   |   residualsugar <= 12.8
|   |   |   |   |   |   |   |   |   |   |   |   chlorides <= 0.049: 5 (28.21/0.79)
|   |   |   |   |   |   |   |   |   |   |   |   chlorides > 0.049: 6 (3.77/0.76)
|   |   |   |   |   |   |   |   |   |   |   residualsugar > 12.8: 6 (2.81)
|   |   |   |   |   |   |   |   |   |   sulphates > 0.69: 7 (1.8/0.2)
|   |   |   |   |   |   |   fixedacid > 6.45
|   |   |   |   |   |   |   |   chlorides <= 0.048
|   |   |   |   |   |   |   |   |   sulphates <= 0.4
|   |   |   |   |   |   |   |   |   |   citricacid <= 0.32: 6 (5.2/0.2)
|   |   |   |   |   |   |   |   |   |   citricacid > 0.32: 5 (2.96/0.2)
|   |   |   |   |   |   |   |   |   sulphates > 0.4
|   |   |   |   |   |   |   |   |   |   fixedacid <= 6.9
|   |   |   |   |   |   |   |   |   |   |   totalsulfur <= 163: 7 (32.41/2.54)
|   |   |   |   |   |   |   |   |   |   |   totalsulfur > 163
|   |   |   |   |   |   |   |   |   |   |   |   volacid <= 0.24: 6 (2.0)
|   |   |   |   |   |   |   |   |   |   |   |   volacid > 0.24: 5 (1.4)
|   |   |   |   |   |   |   |   |   |   fixedacid > 6.9
|   |   |   |   |   |   |   |   |   |   |   residualsugar <= 2: 6 (5.68/0.76)
|   |   |   |   |   |   |   |   |   |   |   residualsugar > 2
|   |   |   |   |   |   |   |   |   |   |   |   fixedacid <= 7.2: 6 (2.51/0.76)
|   |   |   |   |   |   |   |   |   |   |   |   fixedacid > 7.2: 7 (6.24/1.15)
|   |   |   |   |   |   |   |   chlorides > 0.048
|   |   |   |   |   |   |   |   |   fixedacid <= 7.15: 6 (9.98/0.76)
